tree
version=v2
num_class=1
num_tree_per_iteration=1
label_index=0
max_feature_idx=17
objective=gamma
feature_names=LicAge Gender MariStat DrivAge HasKmLimit BonusMalus RiskArea VehUsage_Private VehUsage_Private+trip_to_office VehUsage_Professional VehUsage_Professional_run SocioCateg_CSP1 SocioCateg_CSP2 SocioCateg_CSP3 SocioCateg_CSP4 SocioCateg_CSP5 SocioCateg_CSP6 SocioCateg_CSP7
feature_infos=[2:889] [0:1] [0:1] [20:94] [0:1] [50:183] [1:13] [0:1] [0:1] [0:1] [0:1] [0:1] [0:1] [0:1] [0:1] [0:1] [0:1] none
tree_sizes=841 894 887 885 889 893 889 900 889 898 886 890 882 887 893 927 893 894 907 897 888 893 885 924 937 884 893 889 892 893 883 882 886 886 891 892 928 887 937 904 882 902 890 898 890 889 890 888 884 888 900 888 895 895 893 899 901 899 887 888 879 885 896 901 883 892 888 900 899 909 893 891 907 931 890 893 890 892 896 888 890 890 899 891 895 895 889 892 888 892 893 895 885 892 894 882 893 892 880 896 891 886 898 884 883 895 891 891 896 892 902 892 890 897 891 914 918 936 893 881 901 896 930 889 899 883 888 896 892 895 899 894 893 890 888 889 892 884 903 897 892 931 886 889 894 892 892 911 902 890 898 902 887 899 890 894 887 890 883 883 886 894 897 902 905 889 921 917 894 895 890 902 893 890 898 886 897 897 894 892 941 896 894 904 886 884 893 884 895 893 896 880 890 894 890 899 897 879 895 885 891 899 912 894 892 891 885 899 891 897 893 892 896 885 926 928 892 911 897 932 888 886 897 882 886 895 884 888 888 889 890 889 896 891 908 894 889 933 897 890 891 888 893 889 889 885 895 892 886 895 909 881 881 882 883 873 879 888 904 880 890 889 890 874 896 895 886 895 886 890 890 903 896 884 881 889 904 882 886 883 902 900 911 903 899 895 877 891 895 885 877 895 896 877 879 889 896 871 873 888 917 875 888 876 887 867 890 902 868 889 891 904 910 884 872 893 882 862 886 884 892 882 891 886 890 917 880 872 885 908 898 883 892 888 879 866 879 890 904 897 896 885 900 897 882 876 892 895 920 921 897 888 886 879 891 887 914 904 884 934 902 900 881 878 898 894 887 874 894 895 882 887 880 908 896 886 892 890 884 884 891 884 923 891 885 879 887 911 872 891 890 887 888 883 871 933 896 889 902 899 892 882 889 893 884 931 887 891 881 895 890 877 888 900 893 880 894 876 901 881 879 892 896 894 933 885 880 880 887 883 888 891 895 891 909 884 878 892 896 886 890 891 898 883 878 890 884 885 901 898 892 900 887 918 883 875 893 892 896 888 887 893 901 898 895 909 897 934 882 877 924 906 934 889 887 884 886 885 930 878 892 927 889 897 886 905 891 892 882 882 894 883 888 916 886 896 873 891 890 915 885 919 884 875 898 877 883 893 892 885 911 908 887 881 893 912 892 880 884 873 890 893 902 875 886 890 892 912 883 884 892 878 888 889 892 904 897 893 893 883 895 907 886 883 894 893 875 883 889 873 882 891 880 882 871 898 891 883 907 895 899 891 885 885 880 878 887 925 884 883 876 890 871 877 877 921 885 886 892 891 889 903 883 890 889 899 908 903 885 927 886 889 893 893 890 924 892 879 890 893 882 891 904 886 883 895 888 925 921 891 884 879 879 886 880 896 877 884 913 906 882 892 871 884 878 888 889 883 876 905 889 885 880 896 878 914 879 898 888 890 885 882 886 888 886 889 887 865 882 889 880 878 891 881 904 891 894 879 902 900 876 882 886 888 877 894 911 885 899 922 889 887 885 887 888 895 920 900 887 890 876 888 877 903 892 896 879 884 895 893 902 894 907 888 894 880 926 896 890 903 898 887 890 871 893 896 896 881 876 875 889 889 905 896 877 892 890 889 893 884 925 879 880 887 895 883 878 900 887 911 896 886 904 893 899 899 905 877 890 898 874 872 880 882 887 901 891 901 884 872 882 897 926 863 891 884 882 890 879 936 885 886 888 888 887 885 900 874 918 897 894 899 889 884 889 876 902 922 902 902 886 906 896 888 888 892 890 890 931 884 875 889 903 882 912 929 899 879 893 881 886 893 902 906 896 887 875 894 892 891 900 905 901 900 893 868 903 885 886 907 890 888 892 908 894 893 906 882 885 888 900 883 886 879 893 873 886 866 889 887 880 872 881 888 882 881 879 906 877 923 887 868 886 896 902 885 892 891 890 876 871 896 882 888 885 896 882 892 920 893 897 904 878 898 888 891 882 900 897 888 890 925 894 880 902 887 880 880 874 890 893 886 902 895 902 886 883 877 883 893 885 892 891 888 905 876 867 888 892 870 884 893 879 890 904 891 890 901 893 884 895 906 891 888 876 883 874 889 897 888 898 883 897 870 906 894 876 901 895 899

Tree=0
num_leaves=10
num_cat=0
split_feature=0 0 6 6 12 6 10 6 0
split_gain=69.4043 103.872 135.612 51.3222 58.3702 36.2969 34.5745 27.4066 42.6226
threshold=260.50000000000006 252.50000000000003 6.5000000000000009 5.5000000000000009 1.0000000180025095e-35 4.5000000000000009 1.0000000180025095e-35 10.500000000000002 98.500000000000014
decision_type=2 2 2 2 2 2 2 2 2
left_child=1 6 5 4 -2 -3 7 -1 -9
right_child=3 2 -4 -5 -6 -7 -8 8 -10
leaf_value=7.0307911596321553 7.0292016708727223 7.0097315580894488 7.0269407932776344 7.0305263805175713 7.0154083631856743 7.034366206765907 7.0259636398555738 7.0333403117822817 7.0309076474033523
leaf_count=2556 558 6 91 3941 24 26 49 64 293
internal_value=0 0.104947 0.6335 -0.0869256 -0.42335 0.88922 0.0479297 0.0569 0.273469
internal_count=7608 3085 123 4523 582 32 2962 2913 357
shrinkage=1


Tree=1
num_leaves=10
num_cat=0
split_feature=6 3 6 3 3 6 3 6 12
split_gain=49.9004 52.8336 42.9498 85.5958 137.694 45.2242 40.5915 30.0634 28.7715
threshold=5.5000000000000009 38.500000000000007 6.5000000000000009 42.500000000000007 37.500000000000007 7.5000000000000009 25.500000000000004 8.5000000000000018 1.0000000180025095e-35
decision_type=2 2 2 2 2 2 2 2 2
left_child=1 -1 3 4 -2 -4 7 -7 -3
right_child=2 8 5 -5 -6 6 -8 -9 -10
leaf_value=0.00014404617331740404 -0.00054652154435873431 -0.0017327343140008458 -0.00066353598126563172 -0.00043461928899574706 0.0029757229640053262 -0.0036655629932415335 5.6250853147148764e-05 0.0018509535825583687 -0.009756226148178046
leaf_count=382 325 628 1624 609 120 32 3704 159 25
internal_value=0 -0.229618 0.0285651 0.191637 0.410249 -0.0103601 0.042874 0.38908 -0.465918
internal_count=7608 1035 6573 1054 445 5519 3895 191 653
shrinkage=0.004


Tree=2
num_leaves=10
num_cat=0
split_feature=3 10 5 5 5 3 5 3 5
split_gain=48.5455 59.6009 45.4876 28.0646 27.1999 23.5685 35.2913 35.0349 50.9156
threshold=42.500000000000007 1.0000000180025095e-35 94.000000000000014 73.500000000000014 146.50000000000003 39.500000000000007 75.500000000000014 40.500000000000007 50.500000000000007
decision_type=2 2 2 2 2 2 2 2 2
left_child=1 2 5 -3 -4 6 -1 8 -7
right_child=-2 3 4 -5 -6 7 -8 -9 -10
leaf_value=-9.9382755637270642e-05 -0.00028883820582850043 -0.0042786291987094403 -0.0011198711830530807 -0.018972431156384986 -0.014832928698950976 0.0027509160206010534 0.00086034207622375457 0.00026626246575975235 -0.0014064261868852971
leaf_count=1345 4489 53 314 13 11 91 903 313 76
internal_value=0 0.0883654 0.100327 -1.36799 -0.312309 0.132812 0.0872313 0.297181 0.519622
internal_count=7608 3119 3053 66 325 2728 2248 480 167
shrinkage=0.004


Tree=3
num_leaves=10
num_cat=0
split_feature=6 3 6 3 3 6 3 5 3
split_gain=49.424 52.1884 42.4405 84.768 136.997 44.8338 40.2176 31.972 40.7021
threshold=5.5000000000000009 38.500000000000007 6.5000000000000009 42.500000000000007 37.500000000000007 7.5000000000000009 25.500000000000004 94.000000000000014 25.500000000000004
decision_type=2 2 2 2 2 2 2 2 2
left_child=1 -1 3 4 7 -4 -7 -2 -9
right_child=2 -3 5 -5 -6 6 -8 8 -10
leaf_value=0.00014315161190111295 -0.00019621451516318474 -0.0018514102340561275 -0.00066000385685131108 -0.00043141219204493003 0.0029711607166434122 0.0015511843216150642 5.6597460327198479e-05 -0.0021881497227011397 -0.015940481621107158
leaf_count=382 281 653 1624 609 120 191 3704 21 23
internal_value=0 -0.22839 0.0284453 0.190666 0.408712 -0.010225 0.0427974 -0.136171 -1.41917
internal_count=7608 1035 6573 1054 445 5519 3895 325 44
shrinkage=0.004


Tree=4
num_leaves=10
num_cat=0
split_feature=2 0 0 6 6 3 3 6 0
split_gain=103.457 67.6004 127.007 34.7983 29.8739 24.702 33.4139 30.7728 23.3519
threshold=1.0000000180025095e-35 260.50000000000006 244.50000000000003 10.500000000000002 7.5000000000000009 38.500000000000007 37.500000000000007 5.5000000000000009 227.50000000000003
decision_type=2 2 2 2 2 2 2 2 2
left_child=4 2 3 -2 5 6 -1 -7 -8
right_child=1 -3 -4 -5 -6 7 8 -9 -10
leaf_value=-0.00031509948358437545 0.0002723593275722746 -0.0012152620412589174 0.0036640162002067344 0.0020401057751741796 1.8609010692441847e-05 -0.0017433874962475989 0.0029414601365051053 -0.00052541690934420867 -0.00087123922966189269
leaf_count=716 834 273 23 109 3240 608 25 1737 43
internal_value=0 0.225918 0.305645 0.156074 -0.0601906 -0.136881 0.0119659 -0.197179 0.476033
internal_count=7608 1239 966 943 6369 3129 784 2345 68
shrinkage=0.004


Tree=5
num_leaves=10
num_cat=0
split_feature=6 6 5 6 7 5 5 6 5
split_gain=48.5435 41.9335 50.0125 44.2147 37.0526 26.3414 25.6881 23.2679 19.6775
threshold=5.5000000000000009 6.5000000000000009 90.500000000000014 7.5000000000000009 1.0000000180025095e-35 77.500000000000014 63.500000000000007 10.500000000000002 101.50000000000001
decision_type=2 2 2 2 2 2 2 2 2
left_child=5 2 -2 -3 -4 -1 -5 8 -8
right_child=1 3 4 6 -6 -7 7 -9 -10
leaf_value=-0.0012620861374249167 0.0008647688572991849 -0.00065517326714758573 -0.0043302804955838471 -7.6223208953830033e-05 -0.041339378010367564 0.00049157549101434632 0.00034754017255485107 0.0012750720622952464 -0.0023936337592192517
leaf_count=884 1001 1624 48 2591 5 151 885 349 70
internal_value=0 0.0282213 0.189598 -0.0101959 -1.25632 -0.226109 0.0424941 0.145092 0.0572588
internal_count=7608 6573 1054 5519 53 1035 3895 1304 955
shrinkage=0.004


Tree=6
num_leaves=10
num_cat=0
split_feature=0 0 8 5 5 5 5 0 1
split_gain=66.754 101.472 54.3399 38.8559 36.7212 26.5282 40.8545 20.484 16.823
threshold=260.50000000000006 252.50000000000003 1.0000000180025095e-35 146.50000000000003 50.500000000000007 71.500000000000014 90.500000000000014 661.50000000000011 1.0000000180025095e-35
decision_type=2 2 2 2 2 2 2 2 2
left_child=1 3 -3 5 8 -1 -7 -2 -4
right_child=7 2 4 -5 -6 6 -8 -9 -10
leaf_value=-0.00022436361974400865 -0.0003927817412505402 -0.0028926579091554396 0.0036107784458077421 -0.015833066999203952 -0.0024395197126901246 0.00077902359046479208 -0.00091754065180466981 0.001159293837692422 -0.00034023808743471418
leaf_count=1413 4423 47 26 12 30 1208 329 100 20
internal_value=0 0.103118 0.629007 0.0470224 0.750219 0.0501436 0.130548 -0.0850878 0.838954
internal_count=7608 3085 123 2962 76 2950 1537 4523 46
shrinkage=0.004


Tree=7
num_leaves=10
num_cat=0
split_feature=3 3 3 3 3 3 3 14 9
split_gain=46.7133 25.1349 38.6326 27.5171 23.3168 20.5533 22.4171 28.2408 21.2501
threshold=42.500000000000007 39.500000000000007 40.500000000000007 38.500000000000007 81.500000000000014 37.500000000000007 30.500000000000004 1.0000000180025095e-35 1.0000000180025095e-35
decision_type=2 2 2 2 2 2 2 2 2
left_child=1 3 -3 5 -2 6 7 -1 -7
right_child=4 2 -4 -5 -6 8 -8 -9 -10
leaf_value=0.00054115108090477552 -0.00033649509685803485 0.0019530336153688386 7.5215595470672992e-05 -0.0016464339673675553 0.0013770981087572853 0.0016602978423606854 -0.00028977115777305138 -0.0075614305748907306 -0.0031543651307058057
leaf_count=1113 4403 181 341 179 86 136 1121 20 28
internal_value=0 0.0868176 0.255593 0.0432152 -0.0707223 0.0655048 0.0364763 0.124456 0.339144
internal_count=7608 3119 522 2597 4489 2418 2254 1133 164
shrinkage=0.004


Tree=8
num_leaves=10
num_cat=0
split_feature=2 1 10 3 5 5 5 5 3
split_gain=101.542 71.3915 49.7626 47.2191 63.7254 26.2527 24.6224 30.0238 22.4626
threshold=1.0000000180025095e-35 1.0000000180025095e-35 1.0000000180025095e-35 41.500000000000007 50.500000000000007 95.500000000000014 94.000000000000014 83.500000000000014 36.500000000000007
decision_type=2 2 2 2 2 2 2 2 2
left_child=-1 2 3 4 8 -3 7 -6 -2
right_child=1 5 -4 -5 6 -7 -8 -9 -10
leaf_value=-0.00023817179108144224 -0.0049813322387475094 -3.0526094219149957e-05 -0.022823357681536045 -0.00081441168429863861 0.0006004512103896804 -0.0035949955017228817 -0.0011076317644731091 0.0024206831514158472 0.0036636283473401102
leaf_count=6369 11 528 9 144 265 67 86 107 22
internal_value=0 0.224143 0.379371 0.387252 0.464368 -0.0638536 0.295558 0.361712 0.876179
internal_count=7608 1239 644 635 491 595 458 372 33
shrinkage=0.004


Tree=9
num_leaves=10
num_cat=0
split_feature=2 1 10 6 15 6 6 6 8
split_gain=100.799 70.9753 48.3971 29.4518 26.8379 29.6915 44.984 34.427 21.7976
threshold=1.0000000180025095e-35 1.0000000180025095e-35 1.0000000180025095e-35 7.5000000000000009 1.0000000180025095e-35 5.5000000000000009 6.5000000000000009 10.500000000000002 1.0000000180025095e-35
decision_type=2 2 2 2 2 2 2 2 2
left_child=3 2 4 -1 -2 -6 8 -8 -7
right_child=1 -3 -4 -5 5 6 7 -9 -10
leaf_value=-0.00054148577183382306 -0.00044561379679653476 -0.0002543261541334685 -0.022218091738519616 2.0374685836522507e-05 -0.00085136327118277085 -0.0063606407493962394 0.00054860671563644646 0.0027526708717588826 0.0031985303797646032
leaf_count=3129 109 595 9 3240 79 10 319 51 67
internal_value=0 0.223449 0.37843 -0.0592906 0.386303 0.438417 0.487092 0.306148 0.772355
internal_count=7608 1239 644 6369 635 526 447 370 77
shrinkage=0.004


Tree=10
num_leaves=10
num_cat=0
split_feature=3 10 5 5 5 3 3 5 3
split_gain=45.7563 58.2461 44.1729 26.6641 25.7548 23.1325 22.5066 34.309 33.5907
threshold=42.500000000000007 1.0000000180025095e-35 94.000000000000014 73.500000000000014 146.50000000000003 81.500000000000014 39.500000000000007 75.500000000000014 40.500000000000007
decision_type=2 2 2 2 2 2 2 2 2
left_child=1 2 6 -3 -4 -2 7 -1 -8
right_child=5 3 4 -5 -6 -7 8 -9 -10
leaf_value=-9.91850342561599e-05 -0.00033306975167111496 -0.0042198281604995443 -0.0011043034333808816 -0.018362301761141335 -0.01423720385815958 0.0013745257883955161 0.0020475646760846084 0.00084806459851935424 0.00026606242577496722
leaf_count=1345 4403 53 314 13 11 86 167 903 313
internal_value=0 0.0859951 0.0979033 -1.34736 -0.307955 -0.0699358 0.130063 0.085591 0.29145
internal_count=7608 3119 3053 66 325 4489 2728 2248 480
shrinkage=0.004


Tree=11
num_leaves=10
num_cat=0
split_feature=0 0 5 5 3 12 5 3 5
split_gain=64.8086 99.4915 48.8491 37.1431 26.9175 29.5769 25.9984 47.6049 39.9672
threshold=260.50000000000006 252.50000000000003 50.500000000000007 146.50000000000003 67.500000000000014 1.0000000180025095e-35 71.500000000000014 25.500000000000004 90.500000000000014
decision_type=2 2 2 2 2 2 2 2 2
left_child=1 3 -3 6 -2 -6 7 -1 -8
right_child=4 2 -4 -5 5 -7 8 -9 -10
leaf_value=-0.03571805681963993 -0.0004960226270553621 0.0029737501460824173 -0.0025374988766101074 -0.015243702516633513 0.00033714147867943209 -0.017516884191476564 0.00077172545512856636 -0.00020628892094480279 -0.00090474833978680138
leaf_count=6 3748 77 46 12 767 8 1208 1407 329
internal_value=0 0.101748 0.625305 0.0464176 -0.08372 0.0763742 0.0495176 -0.0555798 0.129221
internal_count=7608 3085 123 2962 4523 775 2950 1413 1537
shrinkage=0.004


Tree=12
num_leaves=10
num_cat=0
split_feature=2 1 0 0 5 5 5 5 0
split_gain=99.1937 70.3273 52.8231 81.0296 25.6859 22.352 33.543 21.0954 29.7791
threshold=1.0000000180025095e-35 1.0000000180025095e-35 260.50000000000006 252.50000000000003 95.500000000000014 94.000000000000014 83.500000000000014 106.50000000000001 54.500000000000007
decision_type=2 2 2 2 2 2 2 2 2
left_child=-1 2 3 5 -3 6 -2 8 -6
right_child=1 4 -4 -5 7 -7 -8 -9 -10
leaf_value=-0.00023497171335704658 0.00053124581036458486 -3.1412687715685279e-05 -0.0010515899725519837 0.0038322723226490792 -0.029697378636261186 -0.0010891362919023477 0.0024151489506425783 -0.001567349377151977 -0.0061954492722330542
leaf_count=6369 298 528 145 10 8 84 107 35 24
internal_value=0 0.221936 0.376583 0.456546 -0.0636433 0.280585 0.340064 -0.886675 -2.08714
internal_count=7608 1239 644 499 595 489 405 67 32
shrinkage=0.004


Tree=13
num_leaves=10
num_cat=0
split_feature=2 0 0 10 3 3 0 3 3
split_gain=98.4673 65.6499 125.038 28.0073 21.9107 13.5001 13.3653 15.3746 33.0786
threshold=1.0000000180025095e-35 260.50000000000006 244.50000000000003 1.0000000180025095e-35 81.500000000000014 33.500000000000007 126.50000000000001 26.500000000000004 25.500000000000004
decision_type=2 2 2 2 2 2 2 2 2
left_child=4 2 3 -2 6 -5 7 8 -1
right_child=1 -3 -4 5 -6 -7 -8 -9 -10
leaf_value=2.213527042969382e-05 0.00064985073915800346 -0.0011982916148373531 0.0036563435721175168 -0.020488996579713589 0.0014116755986194106 -0.004840705507312539 -0.0003338123747358049 0.00065643704390437911 -0.0050462120390343517
leaf_count=122 929 273 23 8 82 6 5727 382 56
internal_value=0 0.221246 0.300474 0.152912 -0.0584942 -2.48135 -0.0673452 0.0735198 -0.207266
internal_count=7608 1239 966 943 6369 14 6287 560 178
shrinkage=0.004


Tree=14
num_leaves=10
num_cat=0
split_feature=2 1 3 3 6 6 6 3 3
split_gain=97.7457 69.7896 46.0537 65.0453 43.9525 37.729 29.1772 23.9559 32.9783
threshold=1.0000000180025095e-35 1.0000000180025095e-35 41.500000000000007 39.500000000000007 3.5000000000000004 10.500000000000002 7.5000000000000009 38.500000000000007 37.500000000000007
decision_type=2 2 2 2 2 2 2 2 2
left_child=6 2 3 5 -4 -2 7 8 -1
right_child=1 -3 4 -5 -6 -7 -8 -9 -10
leaf_value=-0.00030900061088897529 0.00062424753241015316 -0.00025531950210977119 -0.029911767291690466 0.0035499979026509488 -0.00062674869608332097 0.0028840782752783812 2.3292551827607064e-05 -0.00077254869207607111 0.0018981094883548156
leaf_count=716 428 595 7 28 138 43 3240 2345 68
internal_value=0 0.220558 0.374938 0.451749 -0.207006 0.287744 -0.0582464 -0.133914 0.0126723
internal_count=7608 1239 644 499 145 471 6369 3129 784
shrinkage=0.004


Tree=15
num_leaves=10
num_cat=0
split_feature=2 1 16 8 14 14 1 16 7
split_gain=97.0293 69.3805 31.5565 11.8967 12.1116 9.60281 8.77078 16.9213 3.70239
threshold=1.0000000180025095e-35 1.0000000180025095e-35 1.0000000180025095e-35 1.0000000180025095e-35 1.0000000180025095e-35 1.0000000180025095e-35 1.0000000180025095e-35 1.0000000180025095e-35 1.0000000180025095e-35
decision_type=2 2 2 2 2 2 2 2 2
left_child=6 2 3 4 8 -3 7 -1 -2
right_child=1 5 -4 -5 -6 -7 -8 -9 -10
leaf_value=-0.00051293002882428626 0.00031024128664153386 -0.00020803404251507822 -0.0049255718403449465 0.0017806700926367427 -0.0023725401167252452 -0.0061989200494187505 -3.4745941930777937e-05 9.1728363399918867e-05 0.0015000337548926833
leaf_count=3104 66 584 27 458 30 11 2275 990 63
internal_value=0 0.219871 0.374001 0.393108 0.16833 -0.0635583 -0.0579998 -0.0875451 0.251526
internal_count=7608 1239 644 617 159 595 6369 4094 129
shrinkage=0.004


Tree=16
num_leaves=10
num_cat=0
split_feature=5 5 5 16 5 5 9 15 5
split_gain=26.1598 35.5979 29.5336 19.6391 14.3428 14.014 10.6772 11.6717 10.6335
threshold=75.500000000000014 90.500000000000014 72.500000000000014 1.0000000180025095e-35 95.500000000000014 121.50000000000001 1.0000000180025095e-35 1.0000000180025095e-35 106.50000000000001
decision_type=2 2 2 2 2 2 2 2 2
left_child=2 -2 -1 5 -5 6 8 -8 -3
right_child=1 3 -4 4 -6 -7 7 -9 -10
leaf_value=-0.00011456983181974235 0.00070077271177701494 -0.001272392706273704 -0.0052131738271165148 -0.019971146483393348 -0.0047315271325800981 -0.0034836518715456806 0.0019784998474632058 -0.0027431047650016633 0.00041763045970281618
leaf_count=5955 1191 230 42 7 14 46 25 17 81
internal_value=0 0.105314 -0.0326447 -0.177599 -1.76986 -0.143017 -0.0878631 0.294741 -0.173865
internal_count=7608 1611 5997 420 21 399 353 42 311
shrinkage=0.004


Tree=17
num_leaves=10
num_cat=0
split_feature=2 1 0 0 3 0 0 3 3
split_gain=96.1866 68.9957 51.9451 80.8629 21.7301 20.9516 13.1796 15.2416 32.6149
threshold=1.0000000180025095e-35 1.0000000180025095e-35 260.50000000000006 252.50000000000003 81.500000000000014 152.50000000000003 126.50000000000001 26.500000000000004 25.500000000000004
decision_type=2 2 2 2 2 2 2 2 2
left_child=4 2 3 5 6 -2 7 8 -1
right_child=1 -3 -4 -5 -6 -7 -8 -9 -10
leaf_value=2.2998124430884635e-05 0.0014541371382946922 -0.00025395751166272908 -0.0010406836098382211 0.003830146758484441 0.0014089245575588489 -0.00032570300834027524 -0.00032997271275536373 0.00065465473224170614 -0.004998574620607865
leaf_count=122 347 595 145 10 82 142 5727 382 56
internal_value=0 0.219059 0.372972 0.452853 -0.0577089 0.277169 -0.0665121 0.0733883 -0.205976
internal_count=7608 1239 644 499 6369 489 6287 560 178
shrinkage=0.004


Tree=18
num_leaves=10
num_cat=0
split_feature=6 6 5 6 7 5 15 5 10
split_gain=47.2586 39.3974 48.6133 42.9226 34.5518 25.428 24.3486 24.1042 23.6071
threshold=5.5000000000000009 6.5000000000000009 90.500000000000014 7.5000000000000009 1.0000000180025095e-35 77.500000000000014 1.0000000180025095e-35 63.500000000000007 1.0000000180025095e-35
decision_type=2 2 2 2 2 2 2 2 2
left_child=5 2 6 8 -4 -1 -2 -5 -3
right_child=1 3 4 7 -6 -7 -8 -9 -10
leaf_value=-0.0012407709389952221 -7.2479017114516911e-05 -0.00058717118029785091 -0.0042510487019301827 -6.6861222402296255e-05 -0.039115576863751722 0.00048315220256249248 0.0011798673175698396 0.00056952214284725425 -0.0056436812639440899
leaf_count=884 345 1588 48 2591 5 151 656 1304 36
internal_value=0 0.0278928 0.184871 -0.00922474 -1.23312 -0.222747 0.211384 0.0427366 -0.160279
internal_count=7608 6573 1054 5519 53 1035 1001 3895 1624
shrinkage=0.004


Tree=19
num_leaves=10
num_cat=0
split_feature=2 1 0 0 6 10 6 6 10
split_gain=95.2398 68.5171 51.5924 80.7213 44.5659 39.3888 35.7858 28.7051 20.6418
threshold=1.0000000180025095e-35 1.0000000180025095e-35 260.50000000000006 252.50000000000003 3.5000000000000004 1.0000000180025095e-35 10.500000000000002 7.5000000000000009 1.0000000180025095e-35
decision_type=2 2 2 2 2 2 2 2 2
left_child=7 2 3 5 -4 6 -2 8 -1
right_child=1 -3 4 -5 -6 -7 -8 -9 -10
leaf_value=-0.00048435578665694266 0.00064777136974943604 -0.00025318579554151521 -0.034971164479257702 0.0038292998248696175 -0.00085255721744666667 -0.021114065574230609 0.0028486256551198117 2.4697949242612574e-05 -0.0031794587569843988
leaf_count=3046 437 595 6 10 139 8 44 3240 83
internal_value=0 0.21814 0.37177 0.451593 -0.25874 0.276177 0.286673 -0.0573808 -0.132365
internal_count=7608 1239 644 499 145 489 481 6369 3129
shrinkage=0.004


Tree=20
num_leaves=10
num_cat=0
split_feature=3 5 5 3 5 3 3 1 5
split_gain=42.7361 41.6048 24.2688 22.5096 20.6158 30.8917 59.3738 58.3987 25.3029
threshold=42.500000000000007 90.500000000000014 146.50000000000003 81.500000000000014 75.500000000000014 39.500000000000007 40.500000000000007 1.0000000180025095e-35 50.500000000000007
decision_type=2 2 2 2 2 2 2 2 2
left_child=1 4 -3 -2 5 -1 7 8 -7
right_child=3 2 -4 -5 -6 6 -8 -9 -10
leaf_value=-0.00013827989769692959 -0.00032200722123991693 -0.001110559901206035 -0.013655465245847679 0.0013652528967081914 0.00086267547508435654 0.0031688802792669371 -0.00045473562960080595 -0.0020221036340138309 -0.0010042229325004724
leaf_count=1378 4403 317 11 86 964 53 293 71 32
internal_value=0 0.0833317 -0.308828 -0.0674063 0.114512 0.0498532 0.24015 0.524123 0.697138
internal_count=7608 3119 328 4489 2791 1827 449 156 85
shrinkage=0.004


Tree=21
num_leaves=10
num_cat=0
split_feature=2 1 0 0 3 0 0 3 3
split_gain=94.0465 67.9631 51.1666 80.4573 21.4228 20.7949 12.9503 15.1289 32.1332
threshold=1.0000000180025095e-35 1.0000000180025095e-35 260.50000000000006 252.50000000000003 81.500000000000014 152.50000000000003 126.50000000000001 26.500000000000004 25.500000000000004
decision_type=2 2 2 2 2 2 2 2 2
left_child=4 2 3 5 6 -2 7 8 -1
right_child=1 -3 -4 -5 -6 -7 -8 -9 -10
leaf_value=2.199442562031708e-05 0.0014456538723264798 -0.0002527421931767981 -0.0010281939964373453 0.0038281243004160731 0.001402373393814916 -0.00032856550712247992 -0.00032605591453912217 0.00065218957736344434 -0.0049516464202804724
leaf_count=122 347 595 145 10 82 142 5727 382 56
internal_value=0 0.216974 0.370285 0.450038 -0.0569657 0.275136 -0.0656889 0.0730251 -0.205163
internal_count=7608 1239 644 499 6369 489 6287 560 178
shrinkage=0.004


Tree=22
num_leaves=10
num_cat=0
split_feature=0 0 6 6 12 6 3 6 0
split_gain=60.5833 95.1217 133.383 47.6235 55.1576 35.1015 30.3818 27.6709 41.0446
threshold=260.50000000000006 252.50000000000003 6.5000000000000009 5.5000000000000009 1.0000000180025095e-35 4.5000000000000009 67.500000000000014 10.500000000000002 98.500000000000014
decision_type=2 2 2 2 2 2 2 2 2
left_child=1 7 5 4 -2 -3 -5 -1 -9
right_child=3 2 -4 6 -6 -7 -8 8 -10
leaf_value=1.6584860713744508e-05 -0.0014451358241936404 -0.020241144755433361 -0.003770284150724328 -0.00036635322595668656 -0.014605313414168965 0.003619324048633491 0.00051512192982053893 0.002564380632599375 0.00016589620799240158
leaf_count=2601 558 6 91 3251 24 26 690 65 296
internal_value=0 0.098685 0.616862 -0.0806899 -0.402183 0.883292 -0.0452964 0.0450531 0.263136
internal_count=7608 3085 123 4523 582 32 3941 2962 361
shrinkage=0.004


Tree=23
num_leaves=10
num_cat=0
split_feature=2 15 10 10 10 16 8 11 12
split_gain=92.8297 40.4656 21.1095 12.6218 7.35894 35.599 6.93176 6.5613 6.44439
threshold=1.0000000180025095e-35 1.0000000180025095e-35 1.0000000180025095e-35 1.0000000180025095e-35 1.0000000180025095e-35 1.0000000180025095e-35 1.0000000180025095e-35 1.0000000180025095e-35 1.0000000180025095e-35
decision_type=2 2 2 2 2 2 2 2 2
left_child=4 3 -3 6 -1 7 -2 -6 -8
right_child=1 2 -4 -5 5 -7 8 -9 -10
leaf_value=-0.00020547869064337665 -0.0014180186404841725 0.0011297161748758705 -0.018269374639381157 -0.0081581157579532718 -0.0025004484140397636 0.0014213856918633091 0.0019904909548943213 -0.0064986467167732088 -0.0004210565101388056
leaf_count=6202 130 979 5 11 115 33 11 19 103
internal_value=0 0.215775 0.279239 -0.187807 -0.0565404 -0.292633 -0.156057 -0.717874 0.00943892
internal_count=7608 1239 984 255 6369 167 244 134 114
shrinkage=0.004


Tree=24
num_leaves=10
num_cat=0
split_feature=2 1 15 7 14 1 7 12 12
split_gain=92.1477 67.3971 28.9743 11.3962 9.37956 8.61528 10.6744 6.27258 5.82055
threshold=1.0000000180025095e-35 1.0000000180025095e-35 1.0000000180025095e-35 1.0000000180025095e-35 1.0000000180025095e-35 1.0000000180025095e-35 1.0000000180025095e-35 1.0000000180025095e-35 1.0000000180025095e-35
decision_type=2 2 2 2 2 2 2 2 2
left_child=5 2 3 -2 8 6 7 -1 -3
right_child=1 4 -4 -5 -6 -7 -8 -9 -10
leaf_value=-0.00046482270997613901 -7.8367322102422849e-05 -8.0443329906299181e-05 0.0016932162680541468 -0.0042119020724191956 -0.0061024813960205444 -2.9806089310851977e-05 -5.2326521586672257e-05 -0.0017170477215825292 -0.0015100147076625963
leaf_count=2662 88 515 531 25 11 2275 1338 94 69
internal_value=0 0.215099 0.368162 -0.147365 -0.0638429 -0.0563014 -0.0855512 -0.124607 -0.0523704
internal_count=7608 1239 644 113 595 6369 4094 2756 584
shrinkage=0.004


Tree=25
num_leaves=10
num_cat=0
split_feature=0 0 6 6 5 6 3 6 0
split_gain=59.5287 94.3544 132.525 47.1241 35.4874 34.3546 30.1232 28.0544 41.8513
threshold=260.50000000000006 252.50000000000003 6.5000000000000009 5.5000000000000009 146.50000000000003 4.5000000000000009 67.500000000000014 10.500000000000002 98.500000000000014
decision_type=2 2 2 2 2 2 2 2 2
left_child=1 4 5 -2 7 -3 -5 -1 -9
right_child=3 2 -4 6 -6 -7 -8 8 -10
leaf_value=2.5817305512210816e-05 -0.0015975250755275894 -0.019747939672232147 -0.0037406393708301578 -0.00036304363873732113 -0.014680955675179177 0.0036170963701535937 0.00051465014221260537 0.0026016373022989914 0.00017551437994050095
leaf_count=2592 582 6 91 3251 12 26 690 63 295
internal_value=0 0.0979006 0.615197 -0.0799202 0.0445644 0.88262 -0.0447002 0.0476459 0.267518
internal_count=7608 3085 123 4523 2962 32 3941 2950 358
shrinkage=0.004


Tree=26
num_leaves=10
num_cat=0
split_feature=2 1 0 0 6 10 6 6 5
split_gain=90.9642 66.836 50.5461 80.1607 42.4379 37.6597 35.5696 28.2019 25.2465
threshold=1.0000000180025095e-35 1.0000000180025095e-35 260.50000000000006 252.50000000000003 3.5000000000000004 1.0000000180025095e-35 10.500000000000002 7.5000000000000009 95.500000000000014
decision_type=2 2 2 2 2 2 2 2 2
left_child=7 2 3 5 -4 6 -2 -1 -3
right_child=1 8 4 -5 -6 -7 -8 -9 -10
leaf_value=-0.00052046654290460639 0.00063285552816385292 -3.3055550876662308e-05 -0.033513608985428101 0.0038258196113434948 -0.00084482095502350985 -0.020266995824931893 0.0028368288816336788 2.8398722777403024e-05 -0.0035103136782454131
leaf_count=3129 437 528 6 10 139 8 44 3240 67
internal_value=0 0.213917 0.366648 0.446423 -0.256483 0.272065 0.282566 -0.0558848 -0.063722
internal_count=7608 1239 644 499 145 489 481 6369 595
shrinkage=0.004


Tree=27
num_leaves=10
num_cat=0
split_feature=2 1 10 5 6 6 5 9 6
split_gain=90.2963 66.4402 43.038 32.6253 30.7483 38.99 37.8084 35.7915 27.9567
threshold=1.0000000180025095e-35 1.0000000180025095e-35 1.0000000180025095e-35 94.000000000000014 5.5000000000000009 6.5000000000000009 83.500000000000014 1.0000000180025095e-35 7.5000000000000009
decision_type=2 2 2 2 2 2 2 2 2
left_child=8 2 3 4 -2 7 -7 -6 -1
right_child=1 -3 -4 -5 5 6 -8 -9 -10
leaf_value=-0.00051811439966500733 -0.00076802104667564916 -0.00025380194098646827 -0.019904590339669286 -0.001075964384681065 0.0031573751488999996 0.00040562634132705535 0.0025466360430432488 -0.010775971178702253 2.8285941613089032e-05
leaf_count=3129 89 595 9 93 66 296 80 11 3240
internal_value=0 0.213245 0.36572 0.373655 0.42373 0.476825 0.315844 0.756548 -0.0556487
internal_count=7608 1239 644 635 542 453 376 77 6369
shrinkage=0.004


Tree=28
num_leaves=10
num_cat=0
split_feature=0 0 10 5 5 10 5 3 5
split_gain=58.4246 92.9138 48.6776 49.2675 34.6288 31.7083 30.5903 25.6824 23.3201
threshold=260.50000000000006 252.50000000000003 1.0000000180025095e-35 50.500000000000007 146.50000000000003 1.0000000180025095e-35 73.500000000000014 67.500000000000014 71.500000000000014
decision_type=2 2 2 2 2 2 2 2 2
left_child=1 4 3 -3 5 8 -7 -2 -1
right_child=7 2 -4 -5 -6 6 -8 -9 -10
leaf_value=-0.00017627338631310348 -0.0004731740111539748 0.0030154925742441421 -0.031415242979551464 -0.0025234578290970239 -0.014383867613102144 -0.002830746640617695 -0.017333851917224811 0.00030903969610675784 0.00052742781295922448
leaf_count=1381 3748 71 6 46 12 35 14 775 1520
internal_value=0 0.0970709 0.612419 0.630536 0.044302 0.0473713 -1.11933 -0.0791079 0.0561476
internal_count=7608 3085 123 117 2962 2950 49 4523 2901
shrinkage=0.004


Tree=29
num_leaves=10
num_cat=0
split_feature=0 0 3 3 3 3 0 3 0
split_gain=57.9627 92.4516 37.6341 31.3116 25.4651 17.5729 30.0264 23.9554 16.9957
threshold=260.50000000000006 252.50000000000003 41.500000000000007 39.500000000000007 67.500000000000014 44.500000000000007 348.50000000000006 48.500000000000007 98.500000000000014
decision_type=2 2 2 2 2 2 2 2 2
left_child=1 8 3 -3 5 -2 -7 -8 -1
right_child=4 2 -4 -5 -6 6 7 -9 -10
leaf_value=0.00063530523783640808 -0.0012309702001185819 -0.00037657338850646544 -0.0026395692224429178 0.0033513860377993913 0.00030789886396368019 0.00024889676047119472 -0.0039801314429036743 -0.00057354534212852816 -1.474948031834495e-05
leaf_count=767 556 46 36 41 775 841 67 2284 2195
internal_value=0 0.0967209 0.611469 0.704974 -0.0787665 -0.117764 -0.0901784 -0.157468 0.0441329
internal_count=7608 3085 123 87 4523 3748 3192 2351 2962
shrinkage=0.004


Tree=30
num_leaves=10
num_cat=0
split_feature=2 3 3 5 5 3 5 4 3
split_gain=88.6889 58.4929 84.9041 41.7574 39.1575 21.0438 20.2883 21.8811 21.6012
threshold=1.0000000180025095e-35 43.500000000000007 39.500000000000007 55.500000000000007 94.000000000000014 81.500000000000014 83.500000000000014 1.0000000180025095e-35 24.500000000000004
decision_type=2 2 2 2 2 2 2 2 2
left_child=5 2 4 -4 6 -1 8 -8 -2
right_child=1 -3 3 -5 -6 -7 7 -9 -10
leaf_value=-0.00025479711962097157 -0.0026018698969228959 -0.0012261045533614927 0.0034773437482767183 -0.0016049617761148148 -0.0015606709997019682 0.0013971339246727648 0.0016324812311089112 -0.010125039184994904 0.00058784303999980555
leaf_count=6287 60 250 36 40 165 82 237 9 442
internal_value=0 0.211616 0.283448 0.750051 0.151613 -0.0550781 0.218773 0.38953 0.094681
internal_count=7608 1239 989 76 913 6369 748 246 502
shrinkage=0.004


Tree=31
num_leaves=10
num_cat=0
split_feature=2 1 0 0 5 5 5 5 0
split_gain=88.037 65.6482 49.7124 79.5349 24.8219 21.7415 33.1772 20.4808 28.104
threshold=1.0000000180025095e-35 1.0000000180025095e-35 260.50000000000006 252.50000000000003 95.500000000000014 94.000000000000014 83.500000000000014 106.50000000000001 54.500000000000007
decision_type=2 2 2 2 2 2 2 2 2
left_child=-1 2 3 5 -3 6 -2 8 -6
right_child=1 4 -4 -5 7 -7 -8 -9 -10
leaf_value=-0.00021938255015632393 0.00048919038397850364 -3.5352655722348662e-05 -0.0010162001576864282 0.0038229542692890532 -0.028519675794727983 -0.0011047139672559082 0.0023795117195558502 -0.0015273912232443884 -0.0060670366410367138
leaf_count=6369 298 528 145 10 8 84 107 35 24
internal_value=0 0.210949 0.363018 0.442703 -0.0639766 0.269563 0.329071 -0.868977 -2.0418
internal_count=7608 1239 644 499 595 489 405 67 32
shrinkage=0.004


Tree=32
num_leaves=10
num_cat=0
split_feature=2 3 3 6 6 6 3 3 6
split_gain=87.3899 57.8191 84.3762 36.8698 27.6861 25.6169 22.9888 32.6022 28.9143
threshold=1.0000000180025095e-35 43.500000000000007 39.500000000000007 10.500000000000002 7.5000000000000009 6.5000000000000009 38.500000000000007 37.500000000000007 5.5000000000000009
decision_type=2 2 2 2 2 2 2 2 2
left_child=4 2 3 -2 6 -4 7 -1 -8
right_child=1 -3 5 -5 -6 -7 8 -9 -10
leaf_value=-0.00029504947928957474 0.0002305664757473401 -0.0012172197422809794 0.00363743161363637 0.0020779378701268098 3.1154602814083718e-05 0.00088592213499803167 -0.0016615556748411258 0.0018986319798430609 -0.00048859223387142281
leaf_count=716 809 250 21 104 3240 55 608 68 1737
internal_value=0 0.210284 0.2819 0.150633 -0.0546142 0.748617 -0.128079 0.0153892 -0.185848
internal_count=7608 1239 989 913 6369 76 3129 784 2345
shrinkage=0.004


Tree=33
num_leaves=10
num_cat=0
split_feature=6 3 6 3 3 6 3 6 3
split_gain=44.7447 47.583 36.672 75.6888 132.218 41.2199 36.2107 29.5662 27.3436
threshold=5.5000000000000009 38.500000000000007 6.5000000000000009 42.500000000000007 37.500000000000007 7.5000000000000009 25.500000000000004 8.5000000000000018 22.500000000000004
decision_type=2 2 2 2 2 2 2 2 2
left_child=1 -1 3 4 -2 -4 7 8 -7
right_child=2 -3 5 -5 -6 6 -8 -9 -10
leaf_value=0.00014801573024097127 -0.00056662484662464154 -0.00174793468356551 -0.00062460195625944469 -0.0003978339393637245 0.0029230347306669338 0.00043797196605674258 6.2706246869700781e-05 0.0017948076307750039 -0.010056427044514218
leaf_count=382 325 653 1624 609 120 9 3704 159 23
internal_value=0 -0.216069 0.0272302 0.179307 0.390721 -0.00845759 0.0425394 0.373897 -0.921731
internal_count=7608 1035 6573 1054 445 5519 3895 191 32
shrinkage=0.004


Tree=34
num_leaves=10
num_cat=0
split_feature=3 10 5 5 5 3 3 5 3
split_gain=38.4197 54.5703 41.6341 24.0296 22.5278 21.7239 19.8333 31.6695 29.1224
threshold=42.500000000000007 1.0000000180025095e-35 94.000000000000014 73.500000000000014 146.50000000000003 81.500000000000014 39.500000000000007 75.500000000000014 40.500000000000007
decision_type=2 2 2 2 2 2 2 2 2
left_child=1 2 6 -3 -4 -2 7 -1 -8
right_child=5 3 4 -5 -6 -7 8 -9 -10
leaf_value=-9.8770620062687208e-05 -0.00030579028178765252 -0.0040476299002584924 -0.0010840109436146439 -0.017112716351926235 -0.012918421264145072 0.0013548384166513655 0.0019549007336096057 0.00081391838272356319 0.00027807826753493557
leaf_count=1345 4403 53 314 13 11 86 167 903 313
internal_value=0 0.0793287 0.0910821 -1.29118 -0.301824 -0.0636546 0.122629 0.0810498 0.27604
internal_count=7608 3119 3053 66 325 4489 2728 2248 480
shrinkage=0.004


Tree=35
num_leaves=10
num_cat=0
split_feature=6 6 5 6 8 5 5 5 10
split_gain=44.3255 36.2732 47.0305 40.8563 38.7087 24.0653 23.7922 31.926 22.6212
threshold=5.5000000000000009 6.5000000000000009 90.500000000000014 7.5000000000000009 1.0000000180025095e-35 77.500000000000014 62.500000000000007 75.500000000000014 1.0000000180025095e-35
decision_type=2 2 2 2 2 2 2 2 2
left_child=5 2 4 8 6 -1 -2 -8 -3
right_child=1 3 -4 -5 -6 -7 7 -9 -10
leaf_value=-0.0011973562687541068 9.0889847867497718e-05 -0.00056827085323225 -0.004832810405131986 0.00016972802094151964 0.0012943411247415546 0.00047909662678756172 -0.012300912999923176 -0.001734338646300893 -0.0054749246556287448
leaf_count=884 352 1588 53 3895 584 151 22 43 36
internal_value=0 0.0271172 0.178459 -0.00835796 0.204895 -0.214942 -0.054155 -0.83651 -0.15533
internal_count=7608 6573 1054 5519 1001 1035 417 65 1624
shrinkage=0.004


Tree=36
num_leaves=10
num_cat=0
split_feature=2 10 12 14 8 14 10 14 7
split_gain=85.8598 32.5074 12.6678 12.1716 10.5594 8.56917 7.02573 15.1488 1.94581
threshold=1.0000000180025095e-35 1.0000000180025095e-35 1.0000000180025095e-35 1.0000000180025095e-35 1.0000000180025095e-35 1.0000000180025095e-35 1.0000000180025095e-35 1.0000000180025095e-35 1.0000000180025095e-35
decision_type=2 2 2 2 2 2 2 2 2
left_child=6 2 4 -3 5 -2 8 -8 -1
right_child=1 3 -4 -5 -6 -7 7 -9 -10
leaf_value=-0.00024687483259803241 0.00050001309372025183 -0.0065736115731681892 -0.00052501303042759172 -0.023029944674222029 0.0011409425795357374 -0.0020624478414824655 -0.00018939247227757757 -0.0031047861206826787 -9.2467130946478589e-05
leaf_count=4210 264 10 111 6 814 34 92 75 1992
internal_value=0 0.2087 0.216581 -2.42546 0.23991 0.0806685 -0.0540642 -0.283964 -0.0490065
internal_count=7608 1239 1223 16 1112 298 6369 167 6202
shrinkage=0.004


Tree=37
num_leaves=10
num_cat=0
split_feature=6 3 6 3 3 6 3 5 3
split_gain=43.8976 46.787 35.9524 74.7909 131.605 40.4956 35.8026 29.3678 38.0122
threshold=5.5000000000000009 38.500000000000007 6.5000000000000009 42.500000000000007 37.500000000000007 7.5000000000000009 25.500000000000004 94.000000000000014 25.500000000000004
decision_type=2 2 2 2 2 2 2 2 2
left_child=1 -1 3 4 7 -4 -7 -2 -9
right_child=2 -3 5 -5 -6 6 -8 8 -10
leaf_value=0.00014918134604735212 -0.0002281192198184178 -0.0017292680188265611 -0.00061824374185451031 -0.00039628640804299943 0.002916995852106427 0.0014889440881522126 6.2405761086476878e-05 -0.002053844364835277 -0.015094694533213547
leaf_count=382 281 653 1624 609 120 191 3704 21 23
internal_value=0 -0.213787 0.0270009 0.17775 0.388522 -0.00830295 0.0422817 -0.142223 -1.35375
internal_count=7608 1035 6573 1054 445 5519 3895 325 44
shrinkage=0.004


Tree=38
num_leaves=10
num_cat=0
split_feature=2 15 8 16 11 4 8 4 11
split_gain=84.8399 38.6732 9.12564 5.75682 5.03865 4.91021 4.01286 4.01038 3.73993
threshold=1.0000000180025095e-35 1.0000000180025095e-35 1.0000000180025095e-35 1.0000000180025095e-35 1.0000000180025095e-35 1.0000000180025095e-35 1.0000000180025095e-35 1.0000000180025095e-35 1.0000000180025095e-35
decision_type=2 2 2 2 2 2 2 2 2
left_child=3 2 4 5 7 8 -5 -2 -1
right_child=1 -3 -4 6 -6 -7 -8 -9 -10
leaf_value=-0.00023306912422833668 -0.0024503495294616339 0.0010816672660979257 2.5180142582752574e-05 3.6621217396007636e-05 0.0001319496699114129 -0.00089094265526777562 -0.0022765145511412267 0.00011882626431029937 -0.00090628965573709907
leaf_count=4614 110 984 114 1322 20 247 19 11 167
internal_value=0 0.207633 -0.186297 -0.0536958 -0.406731 -0.0702165 0.00395431 -0.521053 -0.0633639
internal_count=7608 1239 255 6369 141 5028 1341 121 4781
shrinkage=0.004


Tree=39
num_leaves=10
num_cat=0
split_feature=2 15 6 6 9 6 6 10 11
split_gain=84.2147 38.4092 26.8067 25.3569 58.7405 43.8304 24.7522 19.339 22.0134
threshold=1.0000000180025095e-35 1.0000000180025095e-35 7.5000000000000009 5.5000000000000009 1.0000000180025095e-35 6.5000000000000009 10.500000000000002 1.0000000180025095e-35 1.0000000180025095e-35
decision_type=2 2 2 2 2 2 2 2 2
left_child=2 -2 7 4 -3 -5 -7 -1 -9
right_child=1 3 -4 5 -6 6 -8 8 -10
leaf_value=-0.0004587678020699627 -0.00074165079165833475 -0.00057863252083810359 3.1847223267976957e-05 0.0024237684850354096 -0.051925055927695037 0.0003742198524463601 0.0019248835264120264 -0.0023793948309798439 -0.014305616747968861
leaf_count=3046 255 128 3240 141 5 596 114 71 12
internal_value=0 0.206975 -0.0534695 0.269627 -0.18558 0.310973 0.190662 -0.125647 -0.760695
internal_count=7608 1239 6369 984 133 851 710 3129 83
shrinkage=0.004


Tree=40
num_leaves=10
num_cat=0
split_feature=2 3 3 5 5 6 5 5 6
split_gain=83.5944 56.6926 83.3529 41.6461 38.2134 33.2159 35.4398 26.8804 26.5743
threshold=1.0000000180025095e-35 43.500000000000007 39.500000000000007 55.500000000000007 94.000000000000014 10.500000000000002 56.500000000000007 88.500000000000014 7.5000000000000009
decision_type=2 2 2 2 2 2 2 2 2
left_child=8 2 4 -4 5 7 -7 -2 -1
right_child=1 -3 3 -5 -6 6 -8 -9 -10
leaf_value=-0.00050032618562428921 -5.5484765825084445e-06 -0.0012107850985342225 0.003466268226912267 -0.0016207910531424161 -0.0015475339757928302 -0.013179357280937798 0.0025205559866868419 0.0016511677572125295 3.1720856254978394e-05
leaf_count=3129 537 250 36 40 165 10 71 130 3240
internal_value=0 0.206319 0.277665 0.745192 0.147452 0.214232 0.583103 0.119638 -0.0532441
internal_count=7608 1239 989 76 913 748 81 667 6369
shrinkage=0.004


Tree=41
num_leaves=10
num_cat=0
split_feature=2 0 0 10 0 4 0 0 0
split_gain=82.9789 60.1481 119.961 24.9164 16.6315 13.8005 12.2118 13.5853 27.424
threshold=1.0000000180025095e-35 260.50000000000006 244.50000000000003 1.0000000180025095e-35 661.50000000000011 1.0000000180025095e-35 126.50000000000001 196.50000000000003 236.50000000000003
decision_type=2 2 2 2 2 2 2 2 2
left_child=4 2 3 -2 6 -3 -1 -8 -9
right_child=1 5 -4 -5 -6 -7 7 8 -10
leaf_value=0.00029427077450377124 0.00060182110483276898 -0.0016066286509033173 0.0036325089642092251 -0.009058978073484384 0.0011490365304818533 0.0011754118044386996 -0.0008498890412526719 0.00063573385318965942 -0.00033920735892492294
leaf_count=560 929 249 23 14 100 24 782 437 4490
internal_value=0 0.205665 0.283469 0.141021 -0.0530198 -0.289962 -0.0611007 -0.0764495 -0.0576177
internal_count=7608 1239 966 943 6369 273 6269 5709 4927
shrinkage=0.004


Tree=42
num_leaves=10
num_cat=0
split_feature=0 0 3 3 3 3 0 9 0
split_gain=53.6194 87.9098 36.8183 30.9079 24.9137 19.9825 24.8995 29.0405 26.0144
threshold=260.50000000000006 252.50000000000003 41.500000000000007 39.500000000000007 44.500000000000007 81.500000000000014 338.50000000000006 1.0000000180025095e-35 321.50000000000006
decision_type=2 2 2 2 2 2 2 2 2
left_child=1 -1 3 -3 -2 6 7 8 -6
right_child=4 2 -4 -5 5 -7 -8 -9 -10
leaf_value=0.00017018841585630885 -0.0012188404034664687 -0.00038331607978920901 -0.002602706524342701 0.0033311853051916957 -4.3315533013114238e-05 0.0013522638380769724 -0.0004282935274411802 -0.0016081729998524744 0.0015076553727513867
leaf_count=2962 556 46 36 41 384 85 3155 145 198
internal_value=0 0.0933461 0.601937 0.697062 -0.0754974 -0.049652 -0.063289 0.0924749 0.165782
internal_count=7608 3085 123 87 4523 3967 3882 727 582
shrinkage=0.004


Tree=43
num_leaves=10
num_cat=0
split_feature=2 5 15 5 5 4 5 9 5
split_gain=81.987 51.9888 38.1379 25.9531 19.8358 18.0686 17.2191 15.6475 14.7081
threshold=1.0000000180025095e-35 90.500000000000014 1.0000000180025095e-35 50.500000000000007 83.500000000000014 1.0000000180025095e-35 88.500000000000014 1.0000000180025095e-35 70.500000000000014
decision_type=2 2 2 2 2 2 2 2 2
left_child=8 2 6 7 -5 -6 -2 -4 -1
right_child=1 -3 3 4 5 -7 -8 -9 -10
leaf_value=-0.00031076477613631499 -0.0013807795119309121 -0.0016042927597208216 0.0023145488886394702 0.00042311336349797009 0.0017405630424583323 -0.0092316531304130044 0.0012609618941892518 -0.0027331720330613729 0.00017779041396549826
leaf_count=5184 184 182 153 465 192 8 38 17 1185
internal_value=0 0.204605 0.259708 0.324181 0.228835 0.415762 -0.154584 0.544488 -0.052657
internal_count=7608 1239 1057 835 665 200 222 170 6369
shrinkage=0.004


Tree=44
num_leaves=10
num_cat=0
split_feature=0 0 8 5 5 3 3 12 5
split_gain=52.8617 87.208 51.7488 35.7582 33.0243 27.2673 24.8108 28.3539 23.4688
threshold=260.50000000000006 252.50000000000003 1.0000000180025095e-35 50.500000000000007 146.50000000000003 42.500000000000007 67.500000000000014 1.0000000180025095e-35 71.500000000000014
decision_type=2 2 2 2 2 2 2 2 2
left_child=1 4 -3 -4 8 -5 -2 -8 -1
right_child=6 2 3 5 -6 -7 7 -9 -10
leaf_value=-0.0002172414573298577 -0.00045320092028040316 -0.0028335851887384741 0.0032967296415859406 -0.0010878403388943898 -0.013837934534176149 -0.019781483187792572 0.00034618213299947347 -0.016870799403144041 0.00048617449498195465
leaf_count=1413 3748 47 46 22 12 8 767 8 1537
internal_value=0 0.0927408 0.600374 0.728839 0.0422185 -0.609293 -0.0749161 0.0787003 0.0452681
internal_count=7608 3085 123 76 2962 30 4523 775 2950
shrinkage=0.004


Tree=45
num_leaves=10
num_cat=0
split_feature=2 3 3 6 6 6 3 3 6
split_gain=80.9521 55.5482 82.1498 36.3114 26.319 25.4801 21.9802 31.7767 27.4694
threshold=1.0000000180025095e-35 43.500000000000007 39.500000000000007 10.500000000000002 7.5000000000000009 6.5000000000000009 38.500000000000007 37.500000000000007 5.5000000000000009
decision_type=2 2 2 2 2 2 2 2 2
left_child=4 2 3 -2 6 -4 7 -1 -8
right_child=1 -3 5 -5 -6 -7 8 -9 -10
leaf_value=-0.00028413989197110574 0.00021335861937693204 -0.0011981624307882584 0.0036257424977489332 0.0020558991153670188 3.4366684507826014e-05 0.00086386534011837434 -0.0016103089151052591 0.0018864102150501763 -0.00047155897032593306
leaf_count=716 809 250 21 104 3240 55 608 68 1737
internal_value=0 0.203489 0.274479 0.145582 -0.0522768 0.742018 -0.123716 0.016562 -0.179988
internal_count=7608 1239 989 913 6369 76 3129 784 2345
shrinkage=0.004


Tree=46
num_leaves=10
num_cat=0
split_feature=0 0 6 15 6 6 5 10 3
split_gain=51.991 86.356 129.949 46.1475 43.5392 33.6744 32.3701 30.1573 28.8461
threshold=260.50000000000006 252.50000000000003 6.5000000000000009 1.0000000180025095e-35 5.5000000000000009 4.5000000000000009 146.50000000000003 1.0000000180025095e-35 67.500000000000014
decision_type=2 2 2 2 2 2 2 2 2
left_child=1 6 3 -3 -2 -5 7 -1 -6
right_child=4 2 -4 5 8 -7 -8 -9 -10
leaf_value=0.00021419923302472093 -0.0015155898564374979 -0.033824181562304101 -0.0037091792991920721 -0.019187523834652238 -0.00034072937326913436 0.0036738576901420559 -0.013611659912773379 -0.0043322134121780917 0.00051742644006423893
leaf_count=2901 582 5 91 6 3251 21 12 49 690
internal_value=0 0.0920389 0.598481 0.876505 -0.0742438 0.895588 0.0418538 0.0448935 -0.0403008
internal_count=7608 3085 123 32 4523 27 2962 2950 3941
shrinkage=0.004


Tree=47
num_leaves=10
num_cat=0
split_feature=2 3 3 10 3 3 3 3 3
split_gain=79.9559 54.9966 81.5672 20.653 20.4237 19.8741 13.3001 10.4597 18.0075
threshold=1.0000000180025095e-35 43.500000000000007 39.500000000000007 1.0000000180025095e-35 81.500000000000014 40.500000000000007 33.500000000000007 30.500000000000004 33.500000000000007
decision_type=2 2 2 2 2 2 2 2 2
left_child=4 2 3 -2 7 -4 -5 -1 -9
right_child=1 -3 5 6 -6 -7 -8 8 -10
leaf_value=0.00028080923178231499 0.00061503151195792293 -0.0011906275016001018 0.0035767820921087218 -0.018039984541616913 0.0013885390503499382 0.0011958558569669774 -0.0031269750191366122 -0.0013086860713089781 -0.00024256999073476882
leaf_count=517 900 250 23 8 82 53 5 354 5416
internal_value=0 0.202407 0.273205 0.144958 -0.0519089 0.740601 -2.05297 -0.0603621 -0.0738737
internal_count=7608 1239 989 913 6369 76 13 6287 5770
shrinkage=0.004


Tree=48
num_leaves=10
num_cat=0
split_feature=0 0 6 6 6 5 10 3 5
split_gain=51.2785 85.4533 129.099 43.0927 32.7772 31.7448 29.6493 28.5533 28.0236
threshold=260.50000000000006 252.50000000000003 6.5000000000000009 5.5000000000000009 4.5000000000000009 146.50000000000003 1.0000000180025095e-35 67.500000000000014 73.500000000000014
decision_type=2 2 2 2 2 2 2 2 2
left_child=1 5 4 -2 -3 6 -1 -5 -8
right_child=3 2 -4 7 -6 -7 8 -9 -10
leaf_value=0.00021310638966286812 -0.0015059691963179821 -0.018745315928775513 -0.00368110703952906 -0.00033811107006585643 0.0035944332336783221 -0.013394226673729845 -0.0026978086697363696 0.00051578295602192938 -0.016246112609360295
leaf_count=2901 582 6 91 3251 26 12 35 690 14
internal_value=0 0.0914596 0.596557 -0.07369 0.875722 0.0416351 0.0446648 -0.0399071 -1.07028
internal_count=7608 3085 123 4523 32 2962 2950 3941 49
shrinkage=0.004


Tree=49
num_leaves=10
num_cat=0
split_feature=2 0 0 3 0 3 3 14 0
split_gain=78.9792 58.2928 117.717 20.2379 11.9094 31.9232 13.6689 12.5727 11.7774
threshold=1.0000000180025095e-35 260.50000000000006 244.50000000000003 81.500000000000014 152.50000000000003 32.500000000000007 35.500000000000007 1.0000000180025095e-35 126.50000000000001
decision_type=2 2 2 2 2 2 2 2 2
left_child=3 2 4 8 6 -6 7 -2 -1
right_child=1 -3 -4 -5 5 -7 -8 -9 -10
leaf_value=0.00028968357019288043 0.00065939844150599914 -0.0011414886084752198 0.003623673687816094 0.001384094178438324 -0.0042469129419065599 0.00030087116376445097 0.0027280626451922892 -0.012059987641665052 -0.00029980474521052234
leaf_count=560 676 273 23 82 58 187 17 5 5727
internal_value=0 0.201337 0.27854 -0.0515466 0.138406 -0.0636381 0.192263 0.159965 -0.0599511
internal_count=7608 1239 966 6369 943 245 698 681 6287
shrinkage=0.004


Tree=50
num_leaves=10
num_cat=0
split_feature=6 6 5 6 7 5 10 5 6
split_gain=41.8492 33.6859 45.7623 39.2474 32.2106 22.8361 21.6093 21.0941 22.0053
threshold=5.5000000000000009 6.5000000000000009 90.500000000000014 7.5000000000000009 1.0000000180025095e-35 77.500000000000014 1.0000000180025095e-35 63.500000000000007 10.500000000000002
decision_type=2 2 2 2 2 2 2 2 2
left_child=5 2 -2 6 -4 -1 -3 -5 -9
right_child=1 3 4 7 -6 -7 -8 8 -10
leaf_value=-0.0011592522615393884 0.00079701608339704708 -0.00055333347469172975 -0.0040923610618339322 -5.2428598477321879e-05 -0.03688271967285351 0.00047363337849395417 -0.0053065588159558483 0.00020220864016253014 0.0012266611407429073
leaf_count=884 1001 1588 48 2591 5 151 36 955 349
internal_value=0 0.0264365 0.172879 -0.00763425 -1.1887 -0.208192 -0.151369 0.0422188 0.135973
internal_count=7608 6573 1054 5519 53 1035 1624 3895 1304
shrinkage=0.004


Tree=51
num_leaves=10
num_cat=0
split_feature=0 0 8 5 5 3 3 5 3
split_gain=50.3226 84.4788 50.6482 35.4266 31.0238 26.0813 24.5743 23.0102 44.4763
threshold=260.50000000000006 252.50000000000003 1.0000000180025095e-35 50.500000000000007 146.50000000000003 42.500000000000007 44.500000000000007 71.500000000000014 25.500000000000004
decision_type=2 2 2 2 2 2 2 2 2
left_child=1 4 -3 -4 7 -5 -2 8 -1
right_child=6 2 3 5 -6 -7 -8 -9 -10
leaf_value=-0.033598147667429218 -0.0012007113476224891 -0.0027722171784141116 0.0032834192376927354 -0.0010847092703157107 -0.013144102423991475 -0.019134736436512159 -0.00018915174191207551 0.00047957552754384703 -0.00020131012287568828
leaf_count=6 556 47 46 22 12 8 3967 1537 1407
internal_value=0 0.0906749 0.594361 0.724103 0.041238 -0.605137 -0.0729418 0.0442561 -0.0543041
internal_count=7608 3085 123 76 2962 30 4523 2950 1413
shrinkage=0.004


Tree=52
num_leaves=10
num_cat=0
split_feature=0 0 10 10 9 0 0 0 0
split_gain=49.9248 84.0494 45.5024 28.998 23.8514 19.234 18.5197 14.4699 17.7629
threshold=260.50000000000006 252.50000000000003 1.0000000180025095e-35 1.0000000180025095e-35 1.0000000180025095e-35 111.50000000000001 661.50000000000011 98.500000000000014 217.50000000000003
decision_type=2 2 2 2 2 2 2 2 2
left_child=1 3 4 7 -3 -5 -2 -1 -9
right_child=6 2 -4 5 -6 -7 -8 8 -10
leaf_value=0.00062345141429897069 -0.00033961880427887448 0.0027040568437078651 -0.029436667443998331 -0.022209790008822051 -0.0025133859586217596 -0.0035142378768618118 0.0011405568254742842 -0.00020403187790974552 0.00060579776456436097
leaf_count=763 4423 93 6 6 24 43 100 1641 509
internal_value=0 0.0903457 0.593397 0.04108 0.612311 -1.05834 -0.0726288 0.0496189 0.00518446
internal_count=7608 3085 123 2962 117 49 4523 2913 2150
shrinkage=0.004


Tree=53
num_leaves=10
num_cat=0
split_feature=0 0 8 5 5 5 5 0 5
split_gain=49.53 83.6216 50.2367 35.3715 30.4076 22.7813 37.2571 18.3813 15.1475
threshold=260.50000000000006 252.50000000000003 1.0000000180025095e-35 50.500000000000007 146.50000000000003 71.500000000000014 90.500000000000014 661.50000000000011 54.500000000000007
decision_type=2 2 2 2 2 2 2 2 2
left_child=1 4 -3 -4 5 -1 -7 8 -2
right_child=7 2 3 -5 -6 6 -8 -9 -10
leaf_value=-0.00021643756674803968 -0.00022910729921316552 -0.0027473851213838194 0.0032791158529564966 -0.0024222969723733693 -0.012929870231782372 0.00072646147040350193 -0.00089213731909837271 0.0011372935574506064 -0.00088316103719222406
leaf_count=1413 3593 47 46 30 12 1208 329 100 830
internal_value=0 0.0900174 0.592431 0.722554 0.0409227 0.0439305 0.119239 -0.0723172 -0.0845363
internal_count=7608 3085 123 76 2962 2950 1537 4523 4423
shrinkage=0.004


Tree=54
num_leaves=10
num_cat=0
split_feature=0 0 5 5 3 5 3 5 0
split_gain=49.1384 83.1955 45.9326 29.7859 24.285 22.6094 42.3484 36.9712 19.9167
threshold=260.50000000000006 252.50000000000003 50.500000000000007 146.50000000000003 44.500000000000007 71.500000000000014 25.500000000000004 90.500000000000014 338.50000000000006
decision_type=2 2 2 2 2 2 2 2 2
left_child=1 3 -3 5 -2 6 -1 -7 -6
right_child=4 2 -4 -5 8 7 -8 -9 -10
leaf_value=-0.032157900073686352 -0.0011906811688917099 0.0028703428779363205 -0.0024727330618316535 -0.012712378566563431 0.0003724096530813269 0.00072408250688590177 -0.00019970386241944591 -0.00088777482229108389 -0.00033654526301081609
leaf_count=6 556 77 46 12 730 1208 1407 329 3237
internal_value=0 0.0896902 0.591465 0.0407659 -0.0720069 0.0437626 -0.0538813 0.118819 -0.0465006
internal_count=7608 3085 123 2962 4523 2950 1413 1537 3967
shrinkage=0.004


Tree=55
num_leaves=10
num_cat=0
split_feature=3 3 3 3 8 3 3 3 14
split_gain=32.9782 20.7007 19.317 29.2246 36.5106 26.566 20.8042 19.4753 26.4469
threshold=42.500000000000007 81.500000000000014 39.500000000000007 40.500000000000007 1.0000000180025095e-35 38.500000000000007 37.500000000000007 30.500000000000004 1.0000000180025095e-35
decision_type=2 2 2 2 2 2 2 2 2
left_child=2 -2 5 4 -4 6 7 8 -1
right_child=1 -3 3 -5 -6 -7 -8 -9 -10
leaf_value=0.00048991473920167756 -0.00028420131602859537 0.0013408649890033421 -0.0016126312627586822 9.9251942728675115e-05 0.0022998123481001291 -0.0016425260387539151 0.0013375189483611828 -0.00028971132170769808 -0.0072434161363844228
leaf_count=1113 4403 86 62 341 119 179 164 1121 20
internal_value=0 -0.0586557 0.0738938 0.225326 0.441625 0.0360176 0.0580954 0.0287632 0.111693
internal_count=7608 4489 3119 522 181 2597 2418 2254 1133
shrinkage=0.004


Tree=56
num_leaves=10
num_cat=0
split_feature=2 1 10 16 6 6 6 12 6
split_gain=76.3827 62.5256 38.3878 29.4866 25.8469 22.5203 41.011 47.4284 30.3059
threshold=1.0000000180025095e-35 1.0000000180025095e-35 1.0000000180025095e-35 1.0000000180025095e-35 7.5000000000000009 5.5000000000000009 6.5000000000000009 1.0000000180025095e-35 8.5000000000000018
decision_type=2 2 2 2 2 2 2 2 2
left_child=4 2 3 5 -1 -2 7 -7 -8
right_child=1 -3 -4 -5 -6 6 8 -9 -10
leaf_value=-0.00048510891614906589 -0.00044206181406763274 -0.00027930954600662169 -0.017930139732276997 -0.0046952526181496803 3.8907881040714436e-05 0.0029489312518585185 -0.00040797650854678118 -0.029761234091007577 0.0016352617603660018
leaf_count=3129 96 595 9 27 3240 81 177 6 248
internal_value=0 0.198451 0.349227 0.357255 -0.0505753 0.376749 0.424126 0.718418 0.267386
internal_count=7608 1239 644 635 6369 608 512 87 425
shrinkage=0.004


Tree=57
num_leaves=10
num_cat=0
split_feature=6 6 5 6 7 5 10 5 6
split_gain=41.1421 32.4285 44.9807 38.5884 30.4691 22.3414 21.1847 20.3534 21.886
threshold=5.5000000000000009 6.5000000000000009 90.500000000000014 7.5000000000000009 1.0000000180025095e-35 77.500000000000014 1.0000000180025095e-35 63.500000000000007 10.500000000000002
decision_type=2 2 2 2 2 2 2 2 2
left_child=5 2 -2 6 -4 -1 -3 -5 -9
right_child=1 3 4 7 -6 -7 -8 8 -10
leaf_value=-0.0011469959356012467 0.00078607804991489519 -0.00054630208322518003 -0.0040489903580006158 -4.7764647028420363e-05 -0.035346091939378911 0.00046863826569213697 -0.0052345106016343443 0.00019732376566397586 0.0012200272194392843
leaf_count=884 1001 1588 48 2591 5 151 36 955 349
internal_value=0 0.026238 0.170204 -0.00713194 -1.1755 -0.206235 -0.149512 0.0423256 0.134543
internal_count=7608 6573 1054 5519 53 1035 1624 3895 1304
shrinkage=0.004


Tree=58
num_leaves=10
num_cat=0
split_feature=2 0 0 6 6 3 3 6 0
split_gain=75.6603 56.7456 115.954 32.3701 25.4718 21.016 31.3093 25.9892 22.8974
threshold=1.0000000180025095e-35 260.50000000000006 244.50000000000003 10.500000000000002 7.5000000000000009 38.500000000000007 37.500000000000007 5.5000000000000009 227.50000000000003
decision_type=2 2 2 2 2 2 2 2 2
left_child=4 2 3 -2 5 6 -1 -7 -8
right_child=1 -3 -4 -5 -6 7 8 -9 -10
leaf_value=-0.00027980247748493842 0.00020551449693852349 -0.0011262774082783093 0.0036162411658964043 0.0019459454762198905 3.8316239514241974e-05 -0.0015629970599132211 0.0029222815360235421 -0.0004593415174172926 -0.00085897043556490242
leaf_count=716 834 273 23 109 3240 608 25 1737 43
internal_value=0 0.197636 0.274321 0.135999 -0.0503029 -0.12045 0.016776 -0.17529 0.469525
internal_count=7608 1239 966 943 6369 3129 784 2345 68
shrinkage=0.004


Tree=59
num_leaves=10
num_cat=0
split_feature=6 3 6 3 3 6 3 6 3
split_gain=40.4111 43.2971 32.0395 68.8772 127.971 38.0599 33.5993 29.3921 26.9224
threshold=5.5000000000000009 38.500000000000007 6.5000000000000009 42.500000000000007 37.500000000000007 7.5000000000000009 25.500000000000004 8.5000000000000018 22.500000000000004
decision_type=2 2 2 2 2 2 2 2 2
left_child=1 -1 3 4 -2 -4 7 8 -7
right_child=2 -3 5 -5 -6 6 -8 -9 -10
leaf_value=0.00015200190948677387 -0.00058355071738795184 -0.0016487597733260331 -0.00059374745901223972 -0.0003774592433386142 0.0028800526266149836 0.00040523806242051666 6.5414613874662455e-05 0.0017582529211360913 -0.010018227866438807
leaf_count=382 325 653 1624 609 120 9 3704 159 23
internal_value=0 -0.2042 0.0260294 0.169229 0.375188 -0.00712381 0.0420244 0.363937 -0.930332
internal_count=7608 1035 6573 1054 445 5519 3895 191 32
shrinkage=0.004


Tree=60
num_leaves=10
num_cat=0
split_feature=2 0 0 5 5 3 3 5 5
split_gain=74.7487 56.196 115.38 37.0569 21.0403 21.1979 19.8797 16.4808 15.2451
threshold=1.0000000180025095e-35 260.50000000000006 244.50000000000003 90.500000000000014 83.500000000000014 24.500000000000004 81.500000000000014 101.50000000000001 121.50000000000001
decision_type=2 2 2 2 2 2 2 2 2
left_child=6 2 3 4 5 -2 8 -3 -1
right_child=1 7 -4 -5 -6 -7 -8 -9 -10
leaf_value=-0.00022352990384849321 -0.0026635707863218003 -0.0010470046533831306 0.0036138992270551688 -0.0015436848545944814 0.001502288505561455 0.00050741242826009487 0.0013781653028577814 -0.018186540390460963 -0.0045412778184169764
leaf_count=6259 60 268 23 168 251 464 82 5 28
internal_value=0 0.196602 0.27308 0.13535 0.200533 0.0765346 -0.0499576 -0.27986 -0.058265
internal_count=7608 1239 966 943 775 524 6369 273 6287
shrinkage=0.004


Tree=61
num_leaves=10
num_cat=0
split_feature=0 0 6 6 12 6 6 0 0
split_gain=46.9917 80.8435 127.401 40.8578 52.0899 32.1262 25.3321 39.5885 18.7215
threshold=260.50000000000006 252.50000000000003 6.5000000000000009 5.5000000000000009 1.0000000180025095e-35 4.5000000000000009 10.500000000000002 98.500000000000014 244.50000000000003
decision_type=2 2 2 2 2 2 2 2 2
left_child=1 6 5 4 -2 -3 -1 -8 -9
right_child=3 2 -4 -5 -6 -7 7 8 -10
leaf_value=3.6443234222309351e-06 -0.0012965705552216314 -0.018339125468012148 -0.0036578073645156962 -0.00014932341222281416 -0.013810726903984487 0.0035815305966266503 0.0025176084381848037 0.00026570676137720693 -0.0073166845473545787
leaf_count=2601 558 6 91 3941 24 26 65 281 15
internal_value=0 0.0878697 0.586043 -0.0702872 -0.363653 0.871794 0.039889 0.250553 0.0336144
internal_count=7608 3085 123 4523 582 32 2962 361 296
shrinkage=0.004


Tree=62
num_leaves=10
num_cat=0
split_feature=6 6 5 6 5 10 5 6 5
split_gain=39.7148 31.4198 44.2476 37.6391 21.7386 20.8538 19.9034 21.524 18.5902
threshold=5.5000000000000009 6.5000000000000009 90.500000000000014 7.5000000000000009 77.500000000000014 1.0000000180025095e-35 63.500000000000007 10.500000000000002 95.500000000000014
decision_type=2 2 2 2 2 2 2 2 2
left_child=4 2 -2 5 -1 -3 -5 -8 -4
right_child=1 3 8 6 -6 -7 7 -9 -10
leaf_value=-0.0011254352320542848 0.00077615948031866625 -0.00053828063805084862 -0.010809467694473577 -4.6822282491815516e-05 0.00046774962117214524 -0.0051747858828039622 0.00019505498840958319 0.0012105216936075184 -0.002680446274237682
leaf_count=884 1001 1588 22 2591 151 36 955 349 31
internal_value=0 0.025829 0.167786 -0.00697444 -0.202246 -0.147424 0.0419219 0.133214 -1.16293
internal_count=7608 6573 1054 5519 1035 1624 3895 1304 53
shrinkage=0.004


Tree=63
num_leaves=10
num_cat=0
split_feature=3 10 3 3 8 3 14 3 3
split_gain=31.1655 49.9405 21.6248 24.6041 30.8295 23.4714 23.2287 20.34 20.2556
threshold=42.500000000000007 1.0000000180025095e-35 39.500000000000007 40.500000000000007 1.0000000180025095e-35 38.500000000000007 1.0000000180025095e-35 81.500000000000014 37.500000000000007
decision_type=2 2 2 2 2 2 2 2 2
left_child=1 2 5 4 -4 8 -5 -2 -1
right_child=7 -3 3 6 -6 -7 -8 -9 -10
leaf_value=0.00014182180263632116 -0.00027666084083068885 -0.0048707249504167495 -0.0013566771798593457 -0.00026383739295036946 0.0022735193923528033 -0.0015094624448900495 0.0023950215949104119 0.0013356676909651334 0.0013635846321681773
leaf_count=2221 4403 66 58 297 119 174 26 86 158
internal_value=0 0.0719709 0.0834929 0.245211 0.445169 0.0433504 0.0594625 -0.0569119 0.0642555
internal_count=7608 3119 3053 500 177 2553 323 4489 2379
shrinkage=0.004


Tree=64
num_leaves=10
num_cat=0
split_feature=0 0 6 6 6 5 3 6 0
split_gain=46.212 80.1339 126.476 40.1143 31.4773 29.0767 27.8326 25.6284 40.4644
threshold=260.50000000000006 252.50000000000003 6.5000000000000009 5.5000000000000009 4.5000000000000009 146.50000000000003 67.500000000000014 10.500000000000002 98.500000000000014
decision_type=2 2 2 2 2 2 2 2 2
left_child=1 5 4 -2 -3 7 -5 -1 -9
right_child=3 2 -4 6 -6 -7 -8 8 -10
leaf_value=1.3151422600265554e-05 -0.0014396135630438042 -0.017911741681297281 -0.0036254885557778114 -0.00032362813279778309 0.003579046835497415 -0.012470896972620575 0.00051883469979720079 0.0025558369825252731 0.00014189240023651924
leaf_count=2592 582 6 91 3251 26 12 690 63 295
internal_value=0 0.0871965 0.584303 -0.0696544 0.871048 0.0394997 -0.0369696 0.0424861 0.254702
internal_count=7608 3085 123 4523 32 2962 3941 2950 358
shrinkage=0.004


Tree=65
num_leaves=10
num_cat=0
split_feature=0 0 6 6 12 6 10 3 6
split_gain=45.8466 79.7221 125.743 39.7196 50.6679 30.8893 27.9048 27.6117 23.313
threshold=260.50000000000006 252.50000000000003 6.5000000000000009 5.5000000000000009 1.0000000180025095e-35 4.5000000000000009 1.0000000180025095e-35 67.500000000000014 10.500000000000002
decision_type=2 2 2 2 2 2 2 2 2
left_child=1 6 5 4 -2 -3 8 -5 -1
right_child=3 2 -4 7 -6 -7 -8 -9 -10
leaf_value=4.116576618545463e-05 -0.0012752567767922195 -0.01752275866079735 -0.0035978925215528644 -0.00032222911455996009 -0.013515788540074087 0.0035775375181142568 -0.004128909196134325 0.00051702808650017475 0.0010039845286378328
leaf_count=2556 558 6 91 3251 24 26 49 690 357
internal_value=0 0.0868788 0.583332 -0.0693562 -0.357947 0.870598 0.0393481 -0.0368162 0.0477939
internal_count=7608 3085 123 4523 582 32 2962 3941 2913
shrinkage=0.004


Tree=66
num_leaves=10
num_cat=0
split_feature=6 3 6 3 3 6 3 6 3
split_gain=38.7775 41.6223 30.653 67.2111 126.297 37.1559 32.8318 29.066 26.3076
threshold=5.5000000000000009 38.500000000000007 6.5000000000000009 42.500000000000007 37.500000000000007 7.5000000000000009 25.500000000000004 8.5000000000000018 22.500000000000004
decision_type=2 2 2 2 2 2 2 2 2
left_child=1 -1 3 4 -2 -4 7 8 -7
right_child=2 -3 5 -5 -6 6 -8 -9 -10
leaf_value=0.00015285753478125341 -0.00058300369287834846 -0.0016098109792810715 -0.00058506279095754113 -0.00037576244772013942 0.002866214053575151 0.0004010323336440223 6.5911980792256804e-05 0.0017462425291594492 -0.0098727925640680943
leaf_count=382 325 653 1624 609 120 9 3704 159 23
internal_value=0 -0.199596 0.0255555 0.165955 0.370595 -0.00681153 0.0417938 0.360841 -0.923707
internal_count=7608 1035 6573 1054 445 5519 3895 191 32
shrinkage=0.004


Tree=67
num_leaves=10
num_cat=0
split_feature=2 1 10 6 6 6 9 6 10
split_gain=72.2303 60.9119 37.1354 24.458 22.9427 40.7219 33.2162 29.8588 17.824
threshold=1.0000000180025095e-35 1.0000000180025095e-35 1.0000000180025095e-35 7.5000000000000009 5.5000000000000009 6.5000000000000009 1.0000000180025095e-35 10.500000000000002 1.0000000180025095e-35
decision_type=2 2 2 2 2 2 2 2 2
left_child=3 2 4 8 -2 6 -6 -7 -1
right_child=1 -3 -4 -5 5 7 -8 -9 -10
leaf_value=-0.00042816179857395895 -0.00055515184860885434 -0.00028339420053876877 -0.01740589272258853 3.8867009116155746e-05 0.0029330314174924863 0.00041419274514755783 -0.0092538039835773824 0.0024077679158668562 -0.0028804849244885131
leaf_count=3046 99 595 9 3240 80 377 12 67 83
internal_value=0 0.193701 0.343538 -0.0489953 0.351601 0.399373 0.696907 0.246006 -0.117607
internal_count=7608 1239 644 6369 635 536 92 444 3129
shrinkage=0.004


Tree=68
num_leaves=10
num_cat=0
split_feature=3 10 3 3 1 3 3 3 3
split_gain=29.9123 48.5659 20.9333 23.8347 46.7337 23.251 20.0751 20.0595 17.9243
threshold=42.500000000000007 1.0000000180025095e-35 39.500000000000007 40.500000000000007 1.0000000180025095e-35 38.500000000000007 37.500000000000007 81.500000000000014 30.500000000000004
decision_type=2 2 2 2 2 2 2 2 2
left_child=1 2 5 4 -4 6 8 -2 -1
right_child=7 -3 3 -5 -6 -7 -8 -9 -10
leaf_value=0.00045742750865167947 -0.00027129549098975391 -0.0047776812347889806 0.0024927611518807931 0.00023677913652776802 -0.0014669346311741453 -0.0015035921279391133 0.0013568464236917294 0.0013311617825882587 -0.00025243157223349622
leaf_count=1124 4403 66 97 323 80 174 158 86 1097
internal_value=0 0.070604 0.0820438 0.241598 0.439799 0.0425959 0.0634311 -0.0556803 0.0347735
internal_count=7608 3119 3053 500 177 2553 2379 4489 2221
shrinkage=0.004


Tree=69
num_leaves=10
num_cat=0
split_feature=6 6 6 10 6 12 16 6 1
split_gain=38.2264 30.1732 36.6064 20.1423 18.3748 18.2427 16.5329 14.3535 12.3876
threshold=5.5000000000000009 6.5000000000000009 7.5000000000000009 1.0000000180025095e-35 10.500000000000002 1.0000000180025095e-35 1.0000000180025095e-35 12.500000000000002 1.0000000180025095e-35
decision_type=2 2 2 2 2 2 2 2 2
left_child=-1 -2 3 5 -4 -3 -5 -6 -7
right_child=1 2 4 6 7 8 -8 -9 -10
leaf_value=-0.00079209932626395161 0.00065921649109586852 -0.00047154752107598152 -6.4208649074460032e-06 -0.0082904448163530989 0.00060511997174304594 -0.0079768980847811522 8.84515585976505e-05 -0.0091016537911915961 -0.0018030974594121917
leaf_count=1035 1054 1543 2882 30 1005 25 6 8 20
internal_value=0 0.0253929 -0.00669849 -0.145019 0.0415751 -0.13233 -1.26424 0.146285 -1.03297
internal_count=7608 6573 5519 1624 3895 1588 36 1013 45
shrinkage=0.004


Tree=70
num_leaves=10
num_cat=0
split_feature=2 1 0 0 10 3 0 0 3
split_gain=71.3172 60.3806 45.0195 74.9525 30.5396 19.3775 18.6133 11.6445 19.405
threshold=1.0000000180025095e-35 1.0000000180025095e-35 260.50000000000006 252.50000000000003 1.0000000180025095e-35 81.500000000000014 152.50000000000003 41.500000000000007 24.500000000000004
decision_type=2 2 2 2 2 2 2 2 2
left_child=5 2 3 4 6 -1 -2 -3 -9
right_child=1 7 -4 -5 -6 -7 -8 8 -10
leaf_value=-0.0002272675212673407 0.0014018508500076088 0.0010806092321485469 -0.00096078884307229456 0.0038037629189061435 -0.016752614731589351 0.0013668193955433581 -0.00029565765878066224 -0.0030059144792093013 -0.00026222941114789063
leaf_count=6287 343 62 145 10 8 82 138 80 453
internal_value=0 0.192633 0.342095 0.421078 0.256965 -0.0486435 0.267405 -0.0706165 -0.132103
internal_count=7608 1239 644 499 489 6369 481 595 533
shrinkage=0.004


Tree=71
num_leaves=10
num_cat=0
split_feature=6 6 5 6 7 5 5 6 5
split_gain=37.8454 29.7642 43.6397 36.2665 28.5193 21.0623 19.2238 20.9982 18.4301
threshold=5.5000000000000009 6.5000000000000009 90.500000000000014 7.5000000000000009 1.0000000180025095e-35 77.500000000000014 63.500000000000007 10.500000000000002 101.50000000000001
decision_type=2 2 2 2 2 2 2 2 2
left_child=5 2 -2 -3 -4 -1 -5 8 -8
right_child=1 3 4 6 -6 -7 7 -9 -10
leaf_value=-0.0010977627305050319 0.00076034009942051021 -0.0005767495910283197 -0.0039803688483604251 -4.4617634128336975e-05 -0.033586419742412034 0.00046932002380193 0.00030850040528128923 0.0011968406378726174 -0.0023329001505007587
leaf_count=884 1001 1624 48 2591 5 151 885 349 70
internal_value=0 0.0252796 0.163839 -0.00657519 -1.15525 -0.196934 0.0414905 0.131352 0.048021
internal_count=7608 6573 1054 5519 53 1035 3895 1304 955
shrinkage=0.004


Tree=72
num_leaves=10
num_cat=0
split_feature=0 0 8 1 0 0 0 1 16
split_gain=44.2848 77.6747 48.3908 18.2609 17.6204 14.7592 18.2913 37.9766 49.4169
threshold=260.50000000000006 252.50000000000003 1.0000000180025095e-35 1.0000000180025095e-35 661.50000000000011 98.500000000000014 217.50000000000003 1.0000000180025095e-35 1.0000000180025095e-35
decision_type=2 2 2 2 2 2 2 2 2
left_child=1 5 -3 -4 -2 -1 -7 8 -8
right_child=4 2 3 -5 -6 6 7 -9 -10
leaf_value=0.00058661436862583109 -0.00031985483734161223 -0.0026655157778152356 0.0032046401910585981 -0.00025140743718126687 0.0011271058653131135 -0.00024971380563659946 -0.00042653105494515001 0.0014521862827892482 -0.022188694121667726
leaf_count=767 4423 47 47 29 100 1674 293 217 11
internal_value=0 0.0855039 0.578566 0.711746 -0.0680702 0.0388052 -0.00560434 0.141866 -0.140939
internal_count=7608 3085 123 76 4523 2962 2195 521 304
shrinkage=0.004


Tree=73
num_leaves=10
num_cat=0
split_feature=2 1 10 15 14 1 10 12 12
split_gain=70.282 59.8779 35.3823 23.2185 8.60504 7.92924 7.4314 7.42491 5.85262
threshold=1.0000000180025095e-35 1.0000000180025095e-35 1.0000000180025095e-35 1.0000000180025095e-35 1.0000000180025095e-35 1.0000000180025095e-35 1.0000000180025095e-35 1.0000000180025095e-35 1.0000000180025095e-35
decision_type=2 2 2 2 2 2 2 2 2
left_child=5 2 3 -2 8 7 -7 -1 -3
right_child=1 4 -4 -5 -6 6 -8 -9 -10
leaf_value=-0.00028085604974488894 -0.00045312791461957544 -0.0001077557492936134 -0.016635881962322487 0.0016006383902152743 -0.0057968207231885683 1.4671917194337047e-05 -0.0025416027214166443 -0.0016180771279544752 -0.0015459365261668969
leaf_count=3999 109 515 9 526 11 2245 30 95 69
internal_value=0 0.191412 0.340538 0.34859 -0.0706295 -0.0482426 -0.00149275 -0.0761579 -0.0593978
internal_count=7608 1239 644 635 595 6369 2275 4094 584
shrinkage=0.004


Tree=74
num_leaves=10
num_cat=0
split_feature=0 0 8 5 5 5 5 0 5
split_gain=43.7119 77.1098 48.09 34.8288 28.5325 21.4777 36.038 17.4932 15.3379
threshold=260.50000000000006 252.50000000000003 1.0000000180025095e-35 50.500000000000007 146.50000000000003 71.500000000000014 90.500000000000014 661.50000000000011 54.500000000000007
decision_type=2 2 2 2 2 2 2 2 2
left_child=1 4 -3 -4 5 -1 -7 8 -2
right_child=7 2 3 -5 -6 6 -8 -9 -10
leaf_value=-0.00021422502339838351 -0.00020833978628805136 -0.002647255392276299 0.0032456178424229419 -0.002419835204069719 -0.012285330032252998 0.00070657057084176915 -0.00088510439649267165 0.0011245926831069634 -0.000865213335923399
leaf_count=1413 3593 47 46 30 12 1208 329 100 830
internal_value=0 0.0849922 0.577149 0.710587 0.0385219 0.0415001 0.114914 -0.0675939 -0.0794337
internal_count=7608 3085 123 76 2962 2950 1537 4523 4423
shrinkage=0.004


Tree=75
num_leaves=10
num_cat=0
split_feature=2 1 3 3 10 3 3 3 3
split_gain=69.4026 59.3743 38.8981 58.7577 29.3108 19.1573 10.8882 22.1162 10.294
threshold=1.0000000180025095e-35 1.0000000180025095e-35 41.500000000000007 39.500000000000007 1.0000000180025095e-35 81.500000000000014 43.500000000000007 34.500000000000007 25.500000000000004
decision_type=2 2 2 2 2 2 2 2 2
left_child=5 2 3 4 8 -1 7 -3 -2
right_child=1 6 -4 -5 -6 -7 -8 -9 -10
leaf_value=-0.00022405716470176029 0.0017489560589269203 -0.00058205939830450885 -0.00075663686988475015 0.0034754453125546408 -0.016082538430485911 0.0013622755422385644 -0.0015346727276242915 0.0013558266798953539 0.00069972098651494659
leaf_count=6287 135 380 145 28 8 82 128 87 328
internal_value=0 0.190365 0.33913 0.414689 0.262939 -0.0479004 -0.0704396 -0.007902 0.273647
internal_count=7608 1239 644 499 471 6369 595 467 463
shrinkage=0.004


Tree=76
num_leaves=10
num_cat=0
split_feature=2 1 10 5 5 5 5 5 7
split_gain=68.8885 59.0089 33.958 29.4993 23.8103 19.7045 15.9811 33.7269 23.4004
threshold=1.0000000180025095e-35 1.0000000180025095e-35 1.0000000180025095e-35 94.000000000000014 95.500000000000014 106.50000000000001 50.500000000000007 83.500000000000014 1.0000000180025095e-35
decision_type=2 2 2 2 2 2 2 2 2
left_child=-1 2 3 6 -3 -6 8 -8 -2
right_child=1 4 -4 -5 5 -7 7 -9 -10
leaf_value=-0.00019079857708490766 0.002643803079607732 -6.2389788015995625e-05 -0.016008466117230093 -0.0010477153160356174 -0.0079793066836827478 -0.0015059128945306768 0.00038496490764855843 0.0022991860219369812 -0.0018565697984766249
leaf_count=6369 94 528 9 93 32 35 309 110 29
internal_value=0 0.18975 0.338234 0.346274 -0.0701375 -0.855323 0.396206 0.30237 0.585932
internal_count=7608 1239 644 635 595 67 542 419 123
shrinkage=0.004


Tree=77
num_leaves=10
num_cat=0
split_feature=2 1 10 5 16 5 5 5 5
split_gain=68.3782 58.6454 33.2416 29.3202 27.6704 23.5308 23.1667 21.3064 31.7604
threshold=1.0000000180025095e-35 1.0000000180025095e-35 1.0000000180025095e-35 94.000000000000014 1.0000000180025095e-35 95.500000000000014 53.500000000000007 50.500000000000007 83.500000000000014
decision_type=2 2 2 2 2 2 2 2 2
left_child=-1 2 3 4 7 -3 -6 -2 -9
right_child=1 5 -4 -5 6 -7 -8 8 -10
leaf_value=-0.00018999905980380754 0.0025659081939509954 -6.2136346869053923e-05 -0.015690710777857129 -0.001042429557135102 -0.0030844991381347164 -0.0033959144563729345 -0.028112905450536515 0.00043559591868179101 0.0022952710211760793
leaf_count=6369 102 528 9 93 21 67 5 304 110
internal_value=0 0.189135 0.337339 0.345368 0.395249 -0.0698366 -1.08339 0.416129 0.309144
internal_count=7608 1239 644 635 542 595 26 516 414
shrinkage=0.004


Tree=78
num_leaves=10
num_cat=0
split_feature=5 5 10 5 5 5 9 15 5
split_gain=20.4199 30.9466 33.7519 29.0667 12.3139 12.0049 11.8912 13.5085 27.991
threshold=75.500000000000014 90.500000000000014 1.0000000180025095e-35 72.500000000000014 94.000000000000014 121.50000000000001 1.0000000180025095e-35 1.0000000180025095e-35 95.500000000000014
decision_type=2 2 2 2 2 2 2 2 2
left_child=3 2 -2 -1 -3 6 7 8 -6
right_child=1 4 -4 -5 5 -7 -8 -9 -10
leaf_value=-9.844269896643725e-05 0.00066448797428864147 -0.0084772991567148969 -0.015624268348927148 -0.0051351499019681645 -0.019092041779410058 -0.0031105568517073752 0.0012163274679757882 -0.00046587238285356329 -0.0024046964343337747
leaf_count=5955 1181 10 10 42 10 50 42 272 36
internal_value=0 0.0938435 0.16027 -0.0285825 -0.168205 -0.15065 -0.0969154 -0.187271 -0.899594
internal_count=7608 1611 1191 5997 420 410 360 318 46
shrinkage=0.004


Tree=79
num_leaves=10
num_cat=0
split_feature=2 5 15 6 5 6 6 6 5
split_gain=67.7766 48.3804 35.0334 23.9271 22.705 41.785 32.4019 31.5647 21.796
threshold=1.0000000180025095e-35 90.500000000000014 1.0000000180025095e-35 7.5000000000000009 50.500000000000007 6.5000000000000009 5.5000000000000009 10.500000000000002 75.500000000000014
decision_type=2 2 2 2 2 2 2 2 2
left_child=3 2 -2 -1 5 6 -4 8 -6
right_child=1 -3 4 -5 7 -7 -8 -9 -10
leaf_value=-0.00046011454181580703 -0.0006129840909141445 -0.001574541112478262 -0.0027377236689261702 4.3181664081746548e-05 -0.00051953835127992978 0.00023267666404442824 0.0034928629240434661 0.0023488382403433219 0.00099669074918764589
leaf_count=3129 222 182 24 3240 263 119 27 75 327
internal_value=0 0.188408 0.242856 -0.0472634 0.30621 0.519174 0.775536 0.217626 0.117145
internal_count=7608 1239 1057 6369 835 170 51 665 590
shrinkage=0.004


Tree=80
num_leaves=10
num_cat=0
split_feature=2 0 0 3 4 0 3 3 4
split_gain=67.2743 53.5288 111.647 19.0124 13.4874 11.3246 31.2776 13.7046 12.5678
threshold=1.0000000180025095e-35 260.50000000000006 244.50000000000003 81.500000000000014 1.0000000180025095e-35 152.50000000000003 32.500000000000007 35.500000000000007 1.0000000180025095e-35
decision_type=2 2 2 2 2 2 2 2 2
left_child=3 2 5 -1 -3 7 -7 -2 -8
right_child=1 4 -4 -5 -6 6 8 -9 -10
leaf_value=-0.00022055560730599897 0.00060036071398985452 -0.0015423916483884282 0.003596805487706768 0.0013603234180248759 0.0011966684636289168 -0.0042118384800136034 0.00040691506347301752 0.0027076948775664471 -0.0077603627972925478
leaf_count=6287 681 249 23 82 24 58 178 17 9
internal_value=0 0.187797 0.263456 -0.0470654 -0.275994 0.129554 -0.067671 0.182556 0.0706668
internal_count=7608 1239 966 6369 273 943 245 698 187
shrinkage=0.004


Tree=81
num_leaves=10
num_cat=0
split_feature=2 5 6 6 6 8 5 5 6
split_gain=66.7756 48.0145 23.7103 20.0914 38.1476 66.882 35.3225 24.7804 29.1708
threshold=1.0000000180025095e-35 90.500000000000014 7.5000000000000009 5.5000000000000009 6.5000000000000009 1.0000000180025095e-35 50.500000000000007 59.500000000000007 10.500000000000002
decision_type=2 2 2 2 2 2 2 2 2
left_child=2 3 -1 -2 5 -5 -7 -6 -9
right_child=1 -3 -4 4 7 6 -8 8 -10
leaf_value=-0.00045718197988163902 -0.00048665913981247287 -0.0015692300028211756 4.372415466993388e-05 -0.010650325708175735 -0.00045045577837628145 0.0035071509346823993 0.00077248022667239058 0.00056246739090545805 0.0023788963117926084
leaf_count=3129 154 182 3240 23 250 26 95 429 80
internal_value=0 0.187188 -0.0468682 0.241543 0.281236 0.570194 0.631945 0.176153 0.269299
internal_count=7608 1239 6369 1057 903 144 121 759 509
shrinkage=0.004


Tree=82
num_leaves=10
num_cat=0
split_feature=6 6 5 6 7 5 10 5 6
split_gain=36.8476 28.3691 42.4094 35.3279 26.911 20.5661 19.7498 18.3075 20.6412
threshold=5.5000000000000009 6.5000000000000009 90.500000000000014 7.5000000000000009 1.0000000180025095e-35 77.500000000000014 1.0000000180025095e-35 63.500000000000007 10.500000000000002
decision_type=2 2 2 2 2 2 2 2 2
left_child=5 2 -2 6 -4 -1 -3 -5 -9
right_child=1 3 4 7 -6 -7 -8 8 -10
leaf_value=-0.0010816083771025317 0.00074675183444360453 -0.00051642135184674573 -0.0039026362347679752 -3.9426694517263793e-05 -0.032094833506030714 0.00046685572647484509 -0.0049810429038291363 0.00018675054947974359 0.001184612408952202
leaf_count=884 1001 1588 48 2591 5 151 36 955 349
internal_value=0 0.0249806 0.160574 -0.00605485 -1.13282 -0.194054 -0.141687 0.041426 0.129283
internal_count=7608 6573 1054 5519 53 1035 1624 3895 1304
shrinkage=0.004


Tree=83
num_leaves=10
num_cat=0
split_feature=2 1 5 6 6 5 6 5 16
split_gain=66.1433 57.7805 27.7687 27.3832 35.6866 37.4271 23.3661 22.8883 22.648
threshold=1.0000000180025095e-35 1.0000000180025095e-35 94.000000000000014 5.5000000000000009 6.5000000000000009 83.500000000000014 7.5000000000000009 95.500000000000014 1.0000000180025095e-35
decision_type=2 2 2 2 2 2 2 2 2
left_child=6 2 3 -2 8 -6 -1 -3 -5
right_child=1 7 -4 4 5 -7 -8 -9 -10
leaf_value=-0.00045406733040701734 -0.00079417399433759763 -6.6937698695442296e-05 -0.0010154501019813906 0.0029614723434421746 0.00029042240139959697 0.0024554872736073821 4.3113580439039239e-05 -0.0033442647906693824 -0.0162058514009332
leaf_count=3129 89 528 93 73 303 81 3240 67 5
internal_value=0 0.186411 0.334079 0.382917 0.435659 0.284245 -0.0466174 -0.0705276 0.723558
internal_count=7608 1239 644 551 462 384 6369 595 78
shrinkage=0.004


Tree=84
num_leaves=10
num_cat=0
split_feature=0 0 8 3 3 0 9 0 3
split_gain=41.5578 74.074 47.3981 33.6699 24.2122 19.7818 28.1427 24.9422 24.9298
threshold=260.50000000000006 252.50000000000003 1.0000000180025095e-35 41.500000000000007 44.500000000000007 338.50000000000006 1.0000000180025095e-35 321.50000000000006 67.500000000000014
decision_type=2 2 2 2 2 2 2 2 2
left_child=1 -1 -3 -4 -2 6 7 -6 -7
right_child=4 2 3 -5 5 8 -8 -9 -10
leaf_value=0.00015123496019488707 -0.0011619243256368085 -0.0026281704808423529 0.0031112844756056306 -0.0043566446560084028 -8.8428676259148822e-06 -0.0005341319068452266 -0.0015422401257240165 0.001501664755630258 0.00028443551154833834
leaf_count=2962 556 47 55 21 384 2477 145 201 760
internal_value=0 0.0830335 0.569876 0.704969 -0.065778 -0.0403878 0.0983403 0.170174 -0.0777846
internal_count=7608 3085 123 76 4523 3967 730 585 3237
shrinkage=0.004


Tree=85
num_leaves=10
num_cat=0
split_feature=2 10 6 6 6 6 9 6 10
split_gain=65.3619 26.7266 23.1662 18.3081 17.6373 37.9642 30.54 22.3579 17.0343
threshold=1.0000000180025095e-35 1.0000000180025095e-35 7.5000000000000009 8.5000000000000018 5.5000000000000009 6.5000000000000009 1.0000000180025095e-35 10.500000000000002 1.0000000180025095e-35
decision_type=2 2 2 2 2 2 2 2 2
left_child=2 4 8 -3 -2 6 -6 -7 -1
right_child=1 3 -4 -5 5 7 -8 -9 -10
leaf_value=-0.00041015755226232574 -0.00051340665847842261 -0.0040977088107918792 4.3396173105030313e-05 -0.021682560129557316 0.0021821186644720562 0.00018789790288353578 -0.008885984556279182 0.001571665698041728 -0.0027923139720823632
leaf_count=3046 173 8 3240 8 157 730 13 150 83
internal_value=0 0.185445 -0.0463062 -2.07827 0.193207 0.22939 0.51358 0.131349 -0.112893
internal_count=7608 1239 6369 16 1223 1050 170 880 3129
shrinkage=0.004


Tree=86
num_leaves=10
num_cat=0
split_feature=2 0 0 6 6 3 3 6 0
split_gain=64.8767 52.6314 110.504 30.484 22.9675 19.6727 30.0286 23.2027 22.6498
threshold=1.0000000180025095e-35 260.50000000000006 244.50000000000003 10.500000000000002 7.5000000000000009 38.500000000000007 37.500000000000007 5.5000000000000009 252.50000000000003
decision_type=2 2 2 2 2 2 2 2 2
left_child=4 2 3 -2 5 6 -1 8 -7
right_child=1 -3 -4 -5 -6 7 -8 -9 -10
leaf_value=-0.00025601429718848643 0.00018315452669734377 -0.0010984856273422317 0.003591114032235318 0.0018911326203455039 4.3224465358286741e-05 -0.0057563870169206541 0.0018627539846036829 -0.00043170729464786029 -0.001276837223703307
leaf_count=716 834 273 23 109 3240 46 68 1737 562
internal_value=0 0.184841 0.260205 0.127471 -0.0461123 -0.11239 0.0202408 -0.165122 -0.366685
internal_count=7608 1239 966 943 6369 3129 784 2345 608
shrinkage=0.004


Tree=87
num_leaves=10
num_cat=0
split_feature=2 1 0 0 6 6 6 3 3
split_gain=64.395 57.1178 43.3145 73.5723 38.2427 33.2339 22.7706 19.4955 29.8393
threshold=1.0000000180025095e-35 1.0000000180025095e-35 260.50000000000006 252.50000000000003 3.5000000000000004 10.500000000000002 7.5000000000000009 38.500000000000007 37.500000000000007
decision_type=2 2 2 2 2 2 2 2 2
left_child=6 2 3 5 -4 -2 7 8 -1
right_child=1 -3 4 -5 -6 -7 -8 -9 -10
leaf_value=-0.00025492483943145134 0.00051794136743812621 -0.00028456533544320573 -0.030542182845675232 0.0037951226427979244 -0.00077785340007927603 0.0027055636483569252 4.3053431761780309e-05 -0.00065740881324544988 0.0018587691015340933
leaf_count=716 443 595 6 10 139 46 3240 2345 68
internal_value=0 0.184239 0.331496 0.410361 -0.238628 0.248895 -0.0459192 -0.11189 0.0201618
internal_count=7608 1239 644 499 145 489 6369 3129 784
shrinkage=0.004


Tree=88
num_leaves=10
num_cat=0
split_feature=0 0 6 15 6 12 6 3 6
split_gain=40.3081 72.6562 122.985 44.0103 36.8539 48.8179 30.4132 26.7455 23.0487
threshold=260.50000000000006 252.50000000000003 6.5000000000000009 1.0000000180025095e-35 5.5000000000000009 1.0000000180025095e-35 4.5000000000000009 67.500000000000014 10.500000000000002
decision_type=2 2 2 2 2 2 2 2 2
left_child=1 8 3 -3 5 -2 -5 -6 -1
right_child=4 2 -4 6 7 -7 -8 -9 -10
leaf_value=9.8837419877235951e-07 -0.0012095248821233616 -0.03220490955326015 -0.0035599679875188118 -0.017086897135864958 -0.00030478198880968887 -0.013072516120658932 0.0036405979241244824 0.00052052919057920253 0.00095927463337433072
leaf_count=2601 558 5 91 6 3251 24 21 690 361
internal_value=0 0.0818698 0.56623 0.864068 -0.0647063 -0.3408 0.885038 -0.0332846 0.0372269
internal_count=7608 3085 123 32 4523 582 27 3941 2962
shrinkage=0.004


Tree=89
num_leaves=10
num_cat=0
split_feature=0 0 8 0 0 0 16 0 0
split_gain=39.9892 72.2756 46.6943 17.0049 14.0199 35.5994 21.8203 23.46 11.5675
threshold=260.50000000000006 252.50000000000003 1.0000000180025095e-35 661.50000000000011 152.50000000000003 217.50000000000003 1.0000000180025095e-35 244.50000000000003 236.50000000000003
decision_type=2 2 2 2 2 2 2 2 2
left_child=1 4 -3 -2 -1 -6 8 -8 -7
right_child=3 2 -4 -5 5 6 7 -9 -10
leaf_value=0.00038813121020003961 -0.00030422903861341936 -0.0025927345007784571 0.0028050514692106025 0.0011190737787525394 -0.00073878634166001892 0.0010955557106369256 -0.0035833919448698317 -0.025308212264360402 -3.5366044304900101e-05
leaf_count=1553 4423 47 76 100 888 260 9 7 245
internal_value=0 0.0815697 0.565249 -0.0644306 0.0370835 -0.0389428 0.141153 -1.80575 0.159629
internal_count=7608 3085 123 4523 2962 1409 521 16 505
shrinkage=0.004


Tree=90
num_leaves=10
num_cat=0
split_feature=2 1 0 0 0 3 3 0 15
split_gain=63.2862 56.5073 42.8306 73.1133 19.9241 18.7224 11.5284 14.3205 24.2532
threshold=1.0000000180025095e-35 1.0000000180025095e-35 260.50000000000006 252.50000000000003 152.50000000000003 81.500000000000014 32.500000000000007 79.500000000000014 1.0000000180025095e-35
decision_type=2 2 2 2 2 2 2 2 2
left_child=5 2 3 4 6 -1 7 -2 -9
right_child=1 -3 -4 -5 -6 -7 -8 8 -10
leaf_value=-0.00021386142427758182 0.0018100080211471575 -0.00028408742954860679 -0.00094665162598143169 0.0037930993650529834 -0.00041941060245784956 0.001356114054952901 0.0029939350383554704 -0.0089981380756964553 0.0005847999507001294
leaf_count=6287 130 595 145 10 142 82 15 14 188
internal_value=0 0.182842 0.329646 0.408372 0.247815 -0.0454724 0.334717 0.281298 0.100224
internal_count=7608 1239 644 499 489 6369 347 332 202
shrinkage=0.004


Tree=91
num_leaves=10
num_cat=0
split_feature=2 1 0 0 6 6 16 6 3
split_gain=62.8162 56.1558 42.5742 72.9975 36.6256 33.0249 26.4477 22.4862 19.1687
threshold=1.0000000180025095e-35 1.0000000180025095e-35 260.50000000000006 252.50000000000003 3.5000000000000004 10.500000000000002 1.0000000180025095e-35 7.5000000000000009 38.500000000000007
decision_type=2 2 2 2 2 2 2 2 2
left_child=7 2 3 5 -4 6 -2 8 -1
right_child=1 -3 4 -5 -6 -7 -8 -9 -10
leaf_value=8.0672324761695607e-05 0.00054696587805875109 -0.00028287052486120155 -0.029420806723202169 0.0037923130896683694 -0.00076664188558188471 0.0026983587933423823 -0.023663368367615296 4.4190774318031557e-05 -0.00065102584045805467
leaf_count=784 438 595 6 10 139 46 5 3240 2345
internal_value=0 0.182245 0.328763 0.407406 -0.235493 0.24707 0.128129 -0.0452823 -0.110797
internal_count=7608 1239 644 499 145 489 443 6369 3129
shrinkage=0.004


Tree=92
num_leaves=10
num_cat=0
split_feature=2 5 6 6 6 5 5 6 5
split_gain=62.3497 46.9767 22.2936 19.2549 36.3146 40.026 24.0322 28.4422 19.9519
threshold=1.0000000180025095e-35 90.500000000000014 7.5000000000000009 5.5000000000000009 6.5000000000000009 50.500000000000007 59.500000000000007 10.500000000000002 88.500000000000014
decision_type=2 2 2 2 2 2 2 2 2
left_child=2 3 -1 -2 5 -5 -6 8 -8
right_child=1 -3 -4 4 6 -7 7 -9 -10
leaf_value=-0.00044121858777699147 -0.00047661192185786012 -0.0015643615328896031 4.4015968417705739e-05 0.0033064243256420607 -0.00044367942001651228 0.00040599960664653312 -8.869936614144794e-06 0.0023569241187998782 0.001692907358821532
leaf_count=3129 154 182 3240 36 250 108 334 80 95
internal_value=0 0.18165 -0.0450929 0.235824 0.27504 0.560735 0.172992 0.265223 0.138503
internal_count=7608 1239 6369 1057 903 144 759 509 429
shrinkage=0.004


Tree=93
num_leaves=10
num_cat=0
split_feature=6 3 6 3 3 6 3 6 3
split_gain=34.9813 39.0133 26.9453 60.9319 122.446 33.6359 30.2394 28.4564 25.7624
threshold=5.5000000000000009 38.500000000000007 6.5000000000000009 42.500000000000007 37.500000000000007 7.5000000000000009 25.500000000000004 8.5000000000000018 22.500000000000004
decision_type=2 2 2 2 2 2 2 2 2
left_child=1 -1 3 4 -2 -4 7 8 -7
right_child=2 -3 5 -5 -6 6 -8 -9 -10
leaf_value=0.00016706823541397025 -0.00060193821546390095 -0.0015323211886387167 -0.00055130846833118831 -0.00035345281562276619 0.0028238213069823339 0.00039418249166242163 6.6165773677063862e-05 0.0017042231277998126 -0.0097492285799385941
leaf_count=382 325 653 1624 609 120 9 3704 159 23
internal_value=0 -0.188583 0.0244061 0.156899 0.355624 -0.00577928 0.0406417 0.349689 -0.919023
internal_count=7608 1035 6573 1054 445 5519 3895 191 32
shrinkage=0.004


Tree=94
num_leaves=10
num_cat=0
split_feature=2 1 0 0 6 6 16 6 0
split_gain=61.5933 55.5052 42.1067 72.6148 35.123 32.7322 25.6495 21.9307 13.7791
threshold=1.0000000180025095e-35 1.0000000180025095e-35 260.50000000000006 252.50000000000003 3.5000000000000004 10.500000000000002 1.0000000180025095e-35 7.5000000000000009 118.50000000000001
decision_type=2 2 2 2 2 2 2 2 2
left_child=7 2 3 5 -4 6 -2 8 -1
right_child=1 -3 4 -5 -6 -7 -8 -9 -10
leaf_value=0.00045170292795320186 0.00054400996644063837 -0.0002826584279516339 -0.028386735605200494 0.0037902997465057652 -0.00076142640809928684 0.0026908734654848537 -0.023019470221194303 4.3485290368791499e-05 -0.00052558513012435537
leaf_count=225 438 595 6 10 139 46 5 3240 2904
internal_value=0 0.180679 0.326711 0.405235 -0.233908 0.245647 0.127414 -0.0447847 -0.109424
internal_count=7608 1239 644 499 145 489 443 6369 3129
shrinkage=0.004


Tree=95
num_leaves=10
num_cat=0
split_feature=2 3 3 5 5 3 5 3 8
split_gain=61.1356 47.644 72.6228 40.1677 34.5838 18.576 18.3997 21.684 18.5005
threshold=1.0000000180025095e-35 43.500000000000007 39.500000000000007 55.500000000000007 94.000000000000014 81.500000000000014 83.500000000000014 24.500000000000004 1.0000000180025095e-35
decision_type=2 2 2 2 2 2 2 2 2
left_child=5 2 4 -4 6 -1 7 8 -2
right_child=1 -3 3 -5 -6 -7 -8 -9 -10
leaf_value=-0.00021019756334545735 -0.014795430211882687 -0.0011239844059971475 0.0033950875744921242 -0.0016403707137072978 -0.0015005477944891308 0.0013541767521437242 0.0014494334583146466 0.00051939984553756599 -0.0020174729457902809
leaf_count=6287 9 250 36 40 165 82 246 442 51
internal_value=0 0.180088 0.248467 0.714734 0.130111 -0.0445975 0.195328 0.0768241 -0.675199
internal_count=7608 1239 989 76 913 6369 748 502 60
shrinkage=0.004


Tree=96
num_leaves=10
num_cat=0
split_feature=2 5 15 6 5 6 6 6 5
split_gain=60.6812 46.1565 33.4542 21.7327 21.1085 39.8011 31.5459 30.2281 21.2286
threshold=1.0000000180025095e-35 90.500000000000014 1.0000000180025095e-35 7.5000000000000009 50.500000000000007 6.5000000000000009 5.5000000000000009 10.500000000000002 75.500000000000014
decision_type=2 2 2 2 2 2 2 2 2
left_child=3 2 -2 -1 5 6 -4 8 -6
right_child=1 -3 4 -5 7 -7 -8 -9 -10
leaf_value=-0.00043492154307857414 -0.00061305197667578797 -0.0015492114676524307 -0.0026554869090750395 4.3987886219108519e-05 -0.00052162831180414609 0.00023708265373597738 0.0034669029198394234 0.0023103819899745739 0.00097669425994194553
leaf_count=3129 222 182 24 3240 263 119 27 75 327
internal_value=0 0.179499 0.233426 -0.0444111 0.296169 0.505111 0.764992 0.211014 0.11318
internal_count=7608 1239 1057 6369 835 170 51 665 590
shrinkage=0.004


Tree=97
num_leaves=10
num_cat=0
split_feature=0 0 5 10 5 10 5 1 5
split_gain=37.8999 69.1529 43.5926 42.988 27.4562 26.0796 24.5105 20.5994 19.5805
threshold=260.50000000000006 252.50000000000003 50.500000000000007 1.0000000180025095e-35 146.50000000000003 1.0000000180025095e-35 73.500000000000014 1.0000000180025095e-35 90.500000000000014
decision_type=2 2 2 2 2 2 2 2 2
left_child=1 4 3 7 5 8 -7 -3 -1
right_child=-2 2 -4 -5 -6 6 -8 -9 -10
leaf_value=0.00029047392060123107 -0.00025039978288109692 0.0032469070321095913 -0.0024578466725128818 -0.026990762777492523 -0.011918722356879161 -0.0024538705973873873 -0.01464647335822329 -0.00054765878461345691 -0.00083884881543745346
leaf_count=2575 4523 42 46 6 12 35 14 29 326
internal_value=0 0.0795678 0.557322 0.691212 0.0363818 0.0393434 -0.984154 0.714386 0.0476411
internal_count=7608 3085 123 77 2962 2950 49 71 2901
shrinkage=0.004


Tree=98
num_leaves=10
num_cat=0
split_feature=0 0 6 15 6 6 5 6 0
split_gain=37.6003 68.7869 121.348 42.3329 35.5786 29.788 26.9212 22.8108 39.5932
threshold=260.50000000000006 252.50000000000003 6.5000000000000009 1.0000000180025095e-35 5.5000000000000009 4.5000000000000009 146.50000000000003 10.500000000000002 98.500000000000014
decision_type=2 2 2 2 2 2 2 2 2
left_child=1 6 3 -3 -2 -5 7 -1 -9
right_child=4 2 -4 5 -6 -7 -8 8 -10
leaf_value=9.8321928347982715e-06 -0.0013309315432703962 -0.030890797423083056 -0.0035360659438556088 -0.016692842807456715 -0.00012571865128371197 0.0036302859012890261 -0.011730117623312294 0.002513330397697626 9.8402726803322723e-05
leaf_count=2592 582 5 91 6 3941 21 12 63 295
internal_value=0 0.0792754 0.556336 0.860223 -0.0623339 0.881767 0.0362418 0.0391923 0.24144
internal_count=7608 3085 123 32 4523 27 2962 2950 358
shrinkage=0.004


Tree=99
num_leaves=10
num_cat=0
split_feature=3 10 3 3 3 3 3 8 14
split_gain=24.0353 45.403 18.8641 17.659 22.8518 19.9604 19.3907 27.9637 22.885
threshold=42.500000000000007 1.0000000180025095e-35 81.500000000000014 39.500000000000007 38.500000000000007 37.500000000000007 40.500000000000007 1.0000000180025095e-35 1.0000000180025095e-35
decision_type=2 2 2 2 2 2 2 2 2
left_child=1 3 -2 4 5 -1 7 -5 -8
right_child=2 -3 -4 6 -6 -7 8 -9 -10
leaf_value=0.00012441422404333317 -0.00024496682882244524 -0.004582249164888157 0.001313766873627178 -0.0013243152875073892 -0.001503472676795576 0.0013419869025636567 -0.00024948859188713899 0.0021418995576520539 0.0023912839226830273
leaf_count=2221 4403 66 86 58 174 158 297 119 26
internal_value=0 0.0637168 -0.0495739 0.0749875 0.038974 0.0597099 0.223554 0.409507 0.0616218
internal_count=7608 3119 4489 3053 2553 2379 500 177 323
shrinkage=0.004


Tree=100
num_leaves=10
num_cat=0
split_feature=2 1 0 0 6 6 6 3 3
split_gain=59.4132 54.5062 41.3149 71.7385 33.6345 32.3728 21.505 18.5226 29.281
threshold=1.0000000180025095e-35 1.0000000180025095e-35 260.50000000000006 252.50000000000003 3.5000000000000004 10.500000000000002 7.5000000000000009 38.500000000000007 37.500000000000007
decision_type=2 2 2 2 2 2 2 2 2
left_child=6 2 3 5 -4 -2 7 8 -1
right_child=1 -3 4 -5 -6 -7 -8 -9 -10
leaf_value=-0.00024768471855923416 0.00050498221214072248 -0.00028421600191512008 -0.027353922463440233 0.0037863384751147542 -0.00075224549828260389 0.0026809413285411696 4.4923448923493272e-05 -0.00063510077997908326 0.001849618818818785
leaf_count=716 443 595 6 10 139 46 3240 2345 68
internal_value=0 0.177838 0.323157 0.401473 -0.231289 0.24362 -0.0438881 -0.107835 0.0209043
internal_count=7608 1239 644 499 145 489 6369 3129 784
shrinkage=0.004


Tree=101
num_leaves=10
num_cat=0
split_feature=0 0 6 6 6 3 6 0 0
split_gain=36.7574 67.8574 120.444 35.0927 28.9951 26.2091 21.9492 38.3464 18.605
threshold=260.50000000000006 252.50000000000003 6.5000000000000009 5.5000000000000009 4.5000000000000009 67.500000000000014 10.500000000000002 98.500000000000014 244.50000000000003
decision_type=2 2 2 2 2 2 2 2 2
left_child=1 6 4 -2 -3 -5 -1 -8 -9
right_child=3 2 -4 5 -6 -7 7 8 -10
leaf_value=-7.7050882825212075e-07 -0.0013192381522349396 -0.016341012286721562 -0.0035087813716064716 -0.00029304911694848164 0.0035397742520632621 0.00052344204239322917 0.0024625918936810464 0.00021644409458421233 -0.0073560962109964784
leaf_count=2601 582 6 91 3251 26 690 65 281 15
internal_value=0 0.0784459 0.553754 -0.0615806 0.859128 -0.0308736 0.0357989 0.234317 0.0210298
internal_count=7608 3085 123 4523 32 3941 2962 361 296
shrinkage=0.004


Tree=102
num_leaves=10
num_cat=0
split_feature=0 0 10 10 15 0 0 1 0
split_gain=36.4667 67.4971 39.5802 25.2914 17.2146 16.5416 16.4895 15.9408 12.3252
threshold=260.50000000000006 252.50000000000003 1.0000000180025095e-35 1.0000000180025095e-35 1.0000000180025095e-35 661.50000000000011 111.50000000000001 1.0000000180025095e-35 98.500000000000014
decision_type=2 2 2 2 2 2 2 2 2
left_child=1 3 4 8 -3 -2 -5 -6 -1
right_child=5 2 -4 6 7 -7 -8 -9 -10
leaf_value=0.00057144269212387213 -0.00029096662643252107 -0.0022272232299940563 -0.025779854996310716 -0.019672362654733759 0.0028741420655083762 0.0011139481298793584 -0.0032018598142081224 -0.0002055267765602695 1.1996087335114181e-05
leaf_count=763 4423 20 6 6 65 100 43 32 2150
internal_value=0 0.0781573 0.552766 0.0356611 0.573332 -0.0613191 -0.968143 0.62888 0.043864
internal_count=7608 3085 123 2962 117 4523 49 97 2913
shrinkage=0.004


Tree=103
num_leaves=10
num_cat=0
split_feature=2 0 0 5 5 4 3 3 5
split_gain=58.3145 49.2241 106.044 33.7325 19.6311 21.393 20.9399 18.2562 15.4852
threshold=1.0000000180025095e-35 260.50000000000006 244.50000000000003 90.500000000000014 83.500000000000014 1.0000000180025095e-35 24.500000000000004 81.500000000000014 101.50000000000001
decision_type=2 2 2 2 2 2 2 2 2
left_child=7 2 3 4 6 -6 -2 -1 -3
right_child=1 8 -4 -5 5 -7 -8 -9 -10
leaf_value=-0.00020518247869136044 -0.0026937701310974773 -0.00099218030199304261 0.003570705395834782 -0.0014869137061737326 0.0015073037743023089 -0.010115661068098549 0.00046572918288045282 0.0013475500590560561 -0.01725422180031971
leaf_count=6287 60 268 23 168 242 9 464 82 5
internal_value=0 0.176382 0.250385 0.122265 0.185824 0.357867 0.0659502 -0.0434314 -0.265783
internal_count=7608 1239 966 943 775 251 524 6369 273
shrinkage=0.004


Tree=104
num_leaves=10
num_cat=0
split_feature=0 0 8 5 5 3 3 5 3
split_gain=35.939 66.7364 45.0932 34.0388 26.3904 24.0313 23.8206 20.1041 38.8486
threshold=260.50000000000006 252.50000000000003 1.0000000180025095e-35 50.500000000000007 146.50000000000003 42.500000000000007 44.500000000000007 71.500000000000014 25.500000000000004
decision_type=2 2 2 2 2 2 2 2 2
left_child=1 4 -3 -4 7 -5 -2 8 -1
right_child=6 2 3 5 -6 -7 -8 -9 -10
leaf_value=-0.029787426603141206 -0.0011322615991452489 -0.0025344038190649319 0.0031871132489482003 -0.0011171351796954111 -0.011546867847567723 -0.018076581669980451 -0.0001428031583063109 0.00043899115677386642 -0.0001981240584208634
leaf_count=6 556 47 46 22 12 8 3967 1537 1407
internal_value=0 0.07763 0.55072 0.689796 0.0354536 -0.60887 -0.0608421 0.0383945 -0.0534485
internal_count=7608 3085 123 76 2962 30 4523 2950 1413
shrinkage=0.004


Tree=105
num_leaves=10
num_cat=0
split_feature=0 0 8 3 3 0 9 0 3
split_gain=35.6548 66.3807 44.8423 32.9265 23.5945 19.7161 27.6928 24.6698 23.6558
threshold=260.50000000000006 252.50000000000003 1.0000000180025095e-35 41.500000000000007 44.500000000000007 338.50000000000006 1.0000000180025095e-35 321.50000000000006 67.500000000000014
decision_type=2 2 2 2 2 2 2 2 2
left_child=1 -1 -3 -4 -2 6 7 -6 -7
right_child=4 2 3 -5 5 8 -8 -9 -10
leaf_value=0.0001412681660047195 -0.0011264538187769424 -0.0025178639641832146 0.0030607249605253272 -0.0043146808487923979 1.1474659236385276e-05 -0.00050742265470950449 -0.0015023320602549845 0.0015105241545852099 0.00028896155496891063
leaf_count=2962 556 47 55 21 384 2477 145 201 760
internal_value=0 0.0773441 0.54973 0.68894 -0.0605839 -0.0355529 0.102614 0.173804 -0.0728029
internal_count=7608 3085 123 76 4523 3967 730 585 3237
shrinkage=0.004


Tree=106
num_leaves=10
num_cat=0
split_feature=0 0 6 15 6 12 6 5 10
split_gain=35.3725 66.0264 119.123 40.6976 34.6689 47.2182 28.9174 25.8893 25.1143
threshold=260.50000000000006 252.50000000000003 6.5000000000000009 1.0000000180025095e-35 5.5000000000000009 1.0000000180025095e-35 4.5000000000000009 146.50000000000003 1.0000000180025095e-35
decision_type=2 2 2 2 2 2 2 2 2
left_child=1 7 3 -3 5 -2 -5 8 -1
right_child=4 2 -4 6 -6 -7 -8 -9 -10
leaf_value=0.00018525837734999293 -0.0011551146917835359 -0.029605265575037901 -0.0034749136765220069 -0.0161311388453289 -0.00011921004783969543 -0.012692411198253021 0.0036217693063703722 -0.011370553927756192 -0.0038404296054184448
leaf_count=2901 558 5 91 6 3941 24 21 12 49
internal_value=0 0.0770589 0.54874 0.857062 -0.0603267 -0.326589 0.879075 0.0351808 0.0381111
internal_count=7608 3085 123 32 4523 582 27 2962 2950
shrinkage=0.004


Tree=107
num_leaves=10
num_cat=0
split_feature=2 1 3 3 6 6 6 6 3
