tree
version=v2
num_class=1
num_tree_per_iteration=1
label_index=0
max_feature_idx=16
objective=poisson
feature_names=LicAge Gender MariStat DrivAge BonusMalus RiskArea VehUsage_Private VehUsage_Private+trip_to_office VehUsage_Professional VehUsage_Professional_run SocioCateg_CSP1 SocioCateg_CSP2 SocioCateg_CSP3 SocioCateg_CSP4 SocioCateg_CSP5 SocioCateg_CSP6 SocioCateg_CSP7
feature_infos=[2:940] [0:1] [0:1] [20:99] [50:185] [1:13] [0:1] [0:1] [0:1] [0:1] [0:1] [0:1] [0:1] [0:1] [0:1] [0:1] [0:1]
tree_sizes=4685 4840 4817 4706 4680 4724 4746 4719 4803 4960 4683 4652 4796 4774 4879 4829 4761 4712 4941 4820 4842 4822 4685 2473 4362 4765 4756 4914 4683 4672 4686 4700 4756 4707 4667 4980 4853 4690 4806 2446 4841 4752 4717 4805 4766 4775 4691 4704 4749 4810 4945 4804 4742 4751 4668 4708 3624 4812 4706 4864 4753 4701 4842 4848 4714 4752 4871 5122 4745 4863 4810 4802 4810 3518 4701 4866 5041 4804 4764 4825 4710 4985 4795 4899 4752 2872 4830 4733 4748 4780 4799 4844 4780 4726 4898 4824 4806 4732 4732 4701 4833 4710 4881 4731 4846 4759 4788 4788 5008 4721 4807 4763 4782 4720 4757 4882 2549 2960 4781 4724 4816 4900 4864 4873 4787 4834 4894 4922 4767 4817 4803 4756 4731 4824 4692 4846 4942 4683 4785 4714 4785 4885 4806 4735 4768 4980 4830 2893 4803 4839 4767 4846 4795 4845 4764 4788 4916 4830 4851 4808 4768 4781 4890 4781 2553 4682 2821 1905 4747 4788 4739 4761 4788 4912 4883 4883 4897 4869 4809 4880 4910 4766 4758 2811 4843 4707 4732 4867 4766 4812 4739 4779 4939 4712 4728 4855 4821 4892 3583 4893 5026 4958 4771 4767 4909 4867 4772 5040 4818 4818 4732 4844 4788 4695 1227 2636 4917 5000 4812 4916 4707 4840 4857 4779 4834 4752 4756 4870 4930 4784 4804 4781 4834 4853 4742 4994 4749 4853 4754 5007 4739 4692 4794 4847 4745 4798 4886 4862 4870 4742 4881 4815 4879 4834 4756 4784 4796 4752 4888 4818 4877 4857 4714 4890 4860 4737 4880 4921 4730 4863 4812 4882 4704 4865 4781 4837 4805 4818 4802 4742 4759 4747 4909 4904 4774 5016 4781 4814 4841 4932 4820 4771 4848 4781 4925 4764 4970 4756 4831 4870 4998 4709 4920 4848 4873 4794 4874 4865 4840 4761 4899 4789 4586 4823 4869 4754 4766 4717 4849 4790 4804 4740 4707 4938 4877 4957 4942 4754 4695 3979 5013 4743 4883 4872 4753 4796 4862 4749 4799 4715 4762 4921 4942 4970 4930 4814 4736 4892 4981 2510 4910 4777 4761 4800 4919 4861 2581 4794 4777 1661 4859 4918 4791 4777 4804 4790 4902 4787 4785 4756 4796 4810 4728 4831 4818 4825 4795 4905 4741 4726 4796 4694 4933 4868 4848 4762 4895 4860 4838 4875 4867 4878 4825 4924 4841 2490 4942 4952 4990 4925 4790 5025 4870 4915 4735 4927 4692 4817 5011 4954 4753 4783 4897 4787 4761 4788 4753 4877 4871 4812 4841 4749 4811 4883 4920 4904 4720 4988 4757 4748 4929 4973 4899 4860 4763 4702 4705 4927 4772 4865 4708 4862 4942 4747 4807 4846 4784 4854 5011 4917 4748 4981 4873 4205 4884 4979 4873 4957 4932 4762 4804 4813 5063 5044 4863 4933 4876 4910 4838 4837 4905 4805 1665 4911 4915 4798 4838 4830 4899 4733 4820 4943 5025 4887 4780 4887 4862 4738 4878 4895 4858 4857 5060 2833 4938 4850 4777 4833 4723 4966 4808 2940 4973 4785 4980 4920 4669 4834 4806 4850 4888 4996 5025 4922 4939 2594 4852 4913 4830 4815 4915 4813 4966 4821 4795 4891 4920 4910 4802 4850 4752 4941 4897 4942 4920 4818 4889 4842 4788 4760 4814 5007 4869 4683 4912 4742 4871 4798 5007 4770 4776 4834 4873 4742 4811 4898 4721 4839 4970 4798 5056 4810 4821 4792 4793 4884 4763 4924 4752 4780 4786 4893 4796 4923 4791 3912 4729 4809 4981 4777 4787 4927 4712 4825 4896 4813 4920 4995 4781 4941 4728 4916 4951 4981 4903 4913 4723 4885 4843 4725 4818

Tree=0
num_leaves=60
num_cat=0
split_feature=8 6 12 0 9 0 0 0 0 0 13 0 0 0 0 0 13 0 0 10 0 10 0 0 0 13 13 0 0 0 0 0 0 0 0 0 0 0 13 0 0 0 0 13 0 12 0 9 0 0 0 0 0 0 10 0 0 0 0
split_gain=181.894 87.5311 65.0722 49.6488 55.506 16.0151 11.5331 10.465 6.86835 12.3845 7.5247 6.35672 5.42548 5.31207 12.8536 5.87896 11.358 9.35593 5.30461 5.02521 4.97548 5.3723 5.81945 5.63815 4.60017 5.24885 4.03726 6.14941 4.78549 4.63054 4.59674 4.18456 4.18918 3.85925 3.85454 5.1996 3.31098 5.23157 4.00867 13.9228 6.2002 3.22256 7.03042 16.8076 3.254 3.79104 5.38085 3.10122 2.78832 2.78652 2.69615 2.66738 20.0709 3.02085 2.44023 2.94349 2.45849 2.39612 2.20452
threshold=1.0000000180025095e-35 1.0000000180025095e-35 1.0000000180025095e-35 94.500000000000014 1.0000000180025095e-35 408.50000000000006 206.50000000000003 49.500000000000007 516.50000000000011 493.50000000000006 1.0000000180025095e-35 82.500000000000014 504.50000000000006 291.50000000000006 384.50000000000006 400.50000000000006 1.0000000180025095e-35 392.50000000000006 504.50000000000006 1.0000000180025095e-35 145.50000000000003 1.0000000180025095e-35 233.50000000000003 171.50000000000003 117.50000000000001 1.0000000180025095e-35 1.0000000180025095e-35 153.50000000000003 188.50000000000003 117.50000000000001 136.50000000000003 180.50000000000003 162.50000000000003 444.50000000000006 323.50000000000006 233.50000000000003 171.50000000000003 251.50000000000003 1.0000000180025095e-35 162.50000000000003 153.50000000000003 275.50000000000006 299.50000000000006 1.0000000180025095e-35 392.50000000000006 1.0000000180025095e-35 315.50000000000006 1.0000000180025095e-35 106.50000000000001 162.50000000000003 283.50000000000006 233.50000000000003 224.50000000000003 145.50000000000003 1.0000000180025095e-35 633.50000000000011 673.50000000000011 224.50000000000003 242.50000000000003
decision_type=2 2 2 2 2 2 2 2 2 2 2 2 2 2 2 2 2 2 2 2 2 2 2 2 2 2 2 2 2 2 2 2 2 2 2 2 2 2 2 2 2 2 2 2 2 2 2 2 2 2 2 2 2 2 2 2 2 2 2
left_child=1 2 3 47 6 11 26 -2 9 13 -11 -3 -12 20 -15 16 -16 -18 34 41 24 36 23 -23 25 -6 30 29 31 48 -5 32 -29 -7 35 -8 38 -38 40 -40 -22 49 43 50 45 -44 -47 -1 -28 -13 -43 52 53 -9 55 -20 -57 -51 -24
right_child=7 5 -4 4 8 33 18 51 -10 10 12 19 -14 14 15 -17 17 -19 54 -21 21 22 58 -25 -26 -27 27 28 -30 -31 -32 -33 -34 -35 -36 -37 37 -39 39 -41 -42 42 44 -45 -46 46 -48 -49 -50 57 -52 -53 -54 -55 -56 56 -58 -59 -60
leaf_value=-1.5242702384389266 -1.5147555795733638 -1.5246321728017473 -1.4891280800365467 -1.5253360611391096 -1.5120917892613976 -1.5277647525687212 -1.526696745548624 -1.5232241147248455 -1.5273485004336627 -1.5201290876941238 -1.5159956198357816 -1.5262537428448137 -1.5006099348200652 -1.5258374885453299 -1.5220079366646488 -1.5228233446907717 -1.5173108141132243 -1.4968783319846251 -1.5250179293544162 -1.5295317957278314 -1.5123788355728141 -1.5235736442844461 -1.5304627568876521 -1.5073639669007384 -1.5281141957239281 -1.5304627568876521 -1.5267050591040854 -1.5145648040630932 -1.5250712773251573 -1.5292470311401838 -1.525963785785426 -1.5137320545139972 -1.5241999270803919 -1.5270857508370372 -1.5264971828496656 -1.5259488067714091 -1.5239832670728013 -1.5201290877056726 -1.5235736443049774 -1.5022800225869983 -1.5278793396614498 -1.5268788254150543 -1.5267716270735483 -1.5153811857456392 -1.5255936272674913 -1.5201290877115385 -1.5259637444789838 -1.529564176996276 -1.5166845312192891 -1.5274430797265608 -1.5247514080999065 -1.524201527479462 -1.5189413096557696 -1.5244614743176377 -1.5304627568876521 -1.5176686901992671 -1.5263292893257285 -1.5265710706003273 -1.5194401763529617
leaf_count=4035 25 397 10 3733 9 1984 2486 611 73 32 10 1532 9 353 44 303 11 8 539 111 8 6 5 17 44 5 11 13 46 51 6808 21 33 13513 11325 8452 185 120 15 11 16 173 2766 37 781 42 147 23 12 1362 427 7044 174 1226 16 21 10 1248 15
internal_value=0 -0.0250011 0.0173631 0.0164213 -0.00109021 -0.0922864 -0.0123708 0.192542 0.290495 0.316003 1.00954 -0.0441364 1.72618 0.285901 0.208921 0.397693 0.797272 1.72618 -0.0306275 -0.0523225 0.407278 0.464604 0.944515 1.43769 0.0139045 0.731662 0.026513 0.235898 0.446865 -0.0862541 0.0227984 0.692002 0.449251 -0.120321 -0.0341812 -0.0149332 0.406473 0.35026 0.749377 1.14047 0.325696 -0.0483608 -0.0211422 0.118455 -0.0449439 -0.0667559 0.130231 0.166922 0.449251 -0.0770973 0.0604654 0.189978 0.236157 0.191955 0.104386 0.119929 0.550704 -0.105665 0.377365
internal_count=72544 63464 38944 38934 34876 24520 33577 9080 1299 1226 51 9023 19 1175 719 366 63 19 22849 8626 456 398 43 23 58 14 10728 187 113 74 10541 67 46 15497 22263 10938 355 305 50 26 24 8515 4373 637 3736 2955 189 4058 23 4142 600 9055 2011 1837 586 570 31 2610 20
shrinkage=1


Tree=1
num_leaves=60
num_cat=0
split_feature=6 7 3 3 14 3 3 1 3 3 3 3 1 12 3 3 3 3 3 1 14 3 3 3 3 1 10 3 3 3 3 3 3 14 3 9 12 3 14 3 3 3 3 3 3 14 3 3 10 9 3 3 14 14 3 10 3 9 3
split_gain=159.639 137.181 54.8523 20.8384 12.8239 12.1005 11.3449 7.81409 22.6492 9.6851 9.00331 8.61724 6.94882 6.27757 7.66039 24.1838 5.44474 5.26666 10.4753 10.6545 5.20554 5.33577 8.01224 4.22193 7.42428 9.75447 5.80026 7.09197 5.61479 4.82793 4.10011 4.0824 7.82439 4.4674 3.9309 10.412 9.9948 7.09516 5.96363 20.0494 4.81692 7.52346 7.41687 4.28941 4.19889 8.71216 9.31265 7.11925 3.89426 3.8648 3.75588 5.53569 4.6652 3.72719 4.47616 6.20826 5.19993 4.0227 4.40124
threshold=1.0000000180025095e-35 1.0000000180025095e-35 29.500000000000004 68.500000000000014 1.0000000180025095e-35 25.500000000000004 25.500000000000004 1.0000000180025095e-35 22.500000000000004 58.500000000000007 74.500000000000014 54.500000000000007 1.0000000180025095e-35 1.0000000180025095e-35 47.500000000000007 39.500000000000007 40.500000000000007 51.500000000000007 49.500000000000007 1.0000000180025095e-35 1.0000000180025095e-35 76.500000000000014 79.500000000000014 52.500000000000007 45.500000000000007 1.0000000180025095e-35 1.0000000180025095e-35 51.500000000000007 47.500000000000007 46.500000000000007 25.500000000000004 82.500000000000014 84.500000000000014 1.0000000180025095e-35 50.500000000000007 1.0000000180025095e-35 1.0000000180025095e-35 61.500000000000007 1.0000000180025095e-35 55.500000000000007 59.500000000000007 57.500000000000007 56.500000000000007 46.500000000000007 64.500000000000014 1.0000000180025095e-35 68.500000000000014 56.500000000000007 1.0000000180025095e-35 1.0000000180025095e-35 62.500000000000007 58.500000000000007 1.0000000180025095e-35 1.0000000180025095e-35 59.500000000000007 1.0000000180025095e-35 62.500000000000007 1.0000000180025095e-35 79.500000000000014
decision_type=2 2 2 2 2 2 2 2 2 2 2 2 2 2 2 2 2 2 2 2 2 2 2 2 2 2 2 2 2 2 2 2 2 2 2 2 2 2 2 2 2 2 2 2 2 2 2 2 2 2 2 2 2 2 2 2 2 2 2
left_child=1 7 4 6 30 12 -2 8 -1 11 16 13 -6 -9 15 -15 -10 18 48 -20 21 23 -23 24 -4 28 27 -27 29 -26 -3 -5 -33 -34 43 44 37 38 -37 -40 41 42 -41 -18 47 -46 -47 -36 -8 -45 51 -49 -53 54 55 -11 -56 58 -58
right_child=3 2 20 31 5 -7 17 9 10 53 -12 -13 -14 14 -16 -17 34 -19 19 -21 -22 22 -24 -25 25 26 -28 -29 -30 -31 -32 32 33 -35 35 36 -38 -39 39 40 -42 -43 -44 49 45 46 -48 50 -50 -51 -52 52 -54 -55 56 -57 57 -59 -60
leaf_value=0.026250914521181914 0.002574416517596372 0.00026343225590357011 0.00022722528600154721 -0.0016444752959702813 0.0035345620199407346 0.0010961889635599626 -0.00048325248157563564 0.0012178151609401732 0.0028893402550571219 0.006960693503621506 -0.0025279798311333853 -0.0013040106621735582 0.0017576756667165027 -0.0044932896906319936 -0.0015609811140224275 0.039942828785648622 0.0020429814343064525 -0.00088273641798354823 -4.273359616436245e-05 0.0042624484640596668 -0.00019969071561356144 0.018696387779706052 -0.0044932896877757887 -0.00046198969317642885 0.00033069894006622927 0.0032578238320867614 0.013747963401612003 0.013597695430504186 -0.00033462344988706172 0.0081407458459190549 -0.0021141523827348783 0.001044259056118697 -0.0024605725050874257 0.0084382235873561549 0.0024696466941657022 0.0041619684014578776 0.021117853927363723 -0.00017888461442051799 -0.00074590066630160392 0.024350094445462326 0.007261398904131299 0.029186715091585578 -0.00037280599421071775 0.0011832385192949266 0.0024160924608588102 0.013636834851141075 0.001401233500160857 0.00023289671486572926 -0.0037056532491527307 -0.0013603989430324135 -0.0010334608975111834 0.0032861548680559638 0.00050155677083881715 0.0010609472909748939 0.00049290800194449601 0.024381909432092903 0.0072957567787352712 -0.0026184128566987415 -0.0044932897784135568
leaf_count=8 222 694 722 7299 825 3236 5043 1957 1810 27 84 304 1010 5 7 5 1417 10721 302 196 30075 8 5 559 30 96 17 16 174 36 191 340 285 8 1597 302 7 67 22 5 7 11 5 825 212 33 21 502 79 145 161 358 190 78 62 5 98 11 7
internal_value=0 0.0484254 0.00813397 -0.0942101 0.134636 0.162489 -0.0651831 0.194799 0.217445 0.126073 0.214954 0.0947067 0.255655 0.129359 0.994736 1.79576 0.220056 -0.0695746 -0.0339214 0.165176 -0.0156388 0.0626541 0.979389 0.0554212 0.107457 0.273391 0.592226 0.473459 0.101988 0.459076 -0.0249249 -0.154838 -0.0440284 -0.2163 0.198874 0.229518 0.439687 0.410807 0.492154 0.951277 1.75637 2.10014 1.19886 0.153929 0.200325 0.372802 0.887855 0.183986 -0.0532804 0.0803287 0.100933 0.132256 0.232072 0.374214 0.473764 0.968187 0.38486 0.564394 0.650982
internal_count=72544 48049 37694 24495 5956 5071 16563 10355 7789 2566 7781 2278 1835 1974 17 10 7697 16341 5620 498 31738 1663 13 1650 1091 369 129 112 240 66 885 7932 633 293 5887 3500 426 419 352 50 28 21 10 2387 3074 266 54 2808 5122 970 1211 1050 548 288 210 32 178 116 105
shrinkage=0.01


Tree=2
num_leaves=60
num_cat=0
split_feature=8 3 3 9 9 14 5 3 5 3 7 5 10 3 5 5 7 3 3 3 14 5 3 3 5 14 3 3 3 3 10 5 3 5 3 3 5 3 5 5 5 5 3 3 3 3 3 3 3 3 10 14 5 5 5 5 10 14 3
split_gain=169.332 82.5104 47.3573 43.5608 30.8676 23.7647 27.5648 28.0885 16.3045 15.3358 14.6067 14.0426 14.5073 16.7775 11.672 14.7569 11.9987 11.9754 11.4968 9.83064 9.59874 8.86262 8.27699 7.84966 6.29851 8.80815 6.28601 6.05148 8.31196 10.7153 13.7086 8.76902 10.6886 6.09303 6.44262 14.2559 21.6486 11.246 5.81336 25.0777 5.40542 5.16835 5.07509 6.57797 5.01005 7.30218 6.48479 5.38391 9.32253 4.9015 4.85739 6.59505 8.75262 4.84591 4.85808 4.77705 4.7033 4.89727 4.69579
threshold=1.0000000180025095e-35 54.500000000000007 26.500000000000004 1.0000000180025095e-35 1.0000000180025095e-35 1.0000000180025095e-35 8.5000000000000018 59.500000000000007 6.5000000000000009 61.500000000000007 1.0000000180025095e-35 8.5000000000000018 1.0000000180025095e-35 60.500000000000007 5.5000000000000009 9.5000000000000018 1.0000000180025095e-35 33.500000000000007 26.500000000000004 22.500000000000004 1.0000000180025095e-35 10.500000000000002 56.500000000000007 68.500000000000014 10.500000000000002 1.0000000180025095e-35 28.500000000000004 53.500000000000007 41.500000000000007 38.500000000000007 1.0000000180025095e-35 6.5000000000000009 31.500000000000004 6.5000000000000009 50.500000000000007 52.500000000000007 7.5000000000000009 51.500000000000007 8.5000000000000018 9.5000000000000018 10.500000000000002 9.5000000000000018 82.500000000000014 84.500000000000014 59.500000000000007 61.500000000000007 60.500000000000007 65.500000000000014 69.500000000000014 30.500000000000004 1.0000000180025095e-35 1.0000000180025095e-35 7.5000000000000009 5.5000000000000009 3.5000000000000004 7.5000000000000009 1.0000000180025095e-35 1.0000000180025095e-35 72.500000000000014
decision_type=2 2 2 2 2 2 2 2 2 2 2 2 2 2 2 2 2 2 2 2 2 2 2 2 2 2 2 2 2 2 2 2 2 2 2 2 2 2 2 2 2 2 2 2 2 2 2 2 2 2 2 2 2 2 2 2 2 2 2
left_child=1 2 20 10 14 9 7 22 19 11 23 -5 13 -13 56 16 -16 -18 50 -2 -1 58 -7 -3 25 27 -20 28 29 31 38 32 -6 -30 -35 36 37 -36 -31 -40 55 -37 -25 -44 -23 46 -46 -47 -49 -33 51 -10 -53 54 -21 -22 57 -4 -12
right_child=8 3 4 5 24 6 -8 -9 18 -11 21 12 -14 -15 15 -17 17 -19 26 53 40 44 -24 42 -26 -27 -28 -29 33 30 -32 49 -34 34 35 41 -38 -39 39 -41 -42 -43 43 -45 45 47 -48 48 -50 -51 -52 52 -54 -55 -56 -57 -58 -59 -60
leaf_value=0.00030589561262129721 0.018990691583627074 -0.00092494180393942933 0.0023924634957261303 0.00059009744171584298 -0.0031209828520053296 0.024658051409692971 0.0033733181298180449 0.0013644041311833468 0.021195723260817863 -0.0029241600392533296 -0.00064623519597243619 0.0036153067434783292 0.026239136251396573 0.016768170956258422 -0.0012259359134277985 0.00026137043798647557 0.00040094080213665118 -0.00047792882911189396 -0.0014085986495236764 -0.00054167123176777129 0.0017780679841972017 0.00014010575491358064 0.045863911249944218 -0.0016416417938061971 -0.00059145118453211886 0.00034672589331607295 0.0022147811913163997 0.0095913600816994876 -0.00068694169133721691 0.0028938661649142322 0.026109514972805743 0.0076196122553162798 0.010591122076198486 0.0018784600768740683 0.040001033337620805 -0.0044932896577071901 0.0045552180481041749 0.015983993243002568 0.031683925090279147 0.001894519764422811 -0.00013624773057853911 0.0078548605341675817 0.0010503551762206167 -0.0018668620725082023 0.0015884529884409976 -0.0012987399374932707 0.0085105066997423311 0.0082984050780228712 -0.0013962452477994422 -0.00096911219219651852 -0.0044932895540847955 0.00017049507999007785 0.011578754444697073 0.00021880696926483958 0.0019339302036122711 0.0030215334001102881 -0.0044932896372765745 0.00052427044013170037 0.002903038064233809
leaf_count=791 6 9784 312 109 15 7 26 7 8 79 5026 96 8 25 3109 10483 4300 12553 100 198 1622 491 8 7311 116 200 6409 35 108 25 10 17 53 194 6 23 34 12 9 16 208 10 343 300 51 110 62 42 40 70 6 22 37 1324 929 1047 37 4087 78
internal_value=0 -0.0249287 0.0154374 -0.0914851 -0.000512559 0.39957 1.33576 2.50917 0.185032 0.256862 -0.099136 0.43775 0.757074 0.633718 -0.00750565 -0.0175454 -0.040484 -0.0253511 0.222266 0.0852889 0.170749 -0.0371695 3.60363 -0.119783 0.254092 0.297479 0.215905 0.379814 0.346113 0.571833 1.08468 0.372433 0.757617 0.220399 0.332426 0.661065 1.12801 2.39744 0.778499 1.26495 0.209214 -0.0759051 -0.153374 -0.0308368 0.103951 0.248646 0.538683 0.0780368 0.356737 0.0706899 0.787598 0.897993 0.732677 0.0807472 0.149901 0.226578 0.0613948 0.0656861 -0.0591799
internal_count=72544 63505 39502 24003 35834 365 48 22 9039 317 23638 238 129 121 34881 30445 19962 16853 6582 2457 3668 5900 15 17738 953 837 6509 637 602 215 60 155 68 387 279 85 52 18 50 25 2877 33 7954 643 796 305 113 192 82 87 73 67 59 2451 1127 2669 4436 4399 5104
shrinkage=0.01


Tree=3
num_leaves=60
num_cat=0
split_feature=4 4 6 3 4 9 3 3 13 5 3 13 3 5 4 13 12 6 5 3 13 3 3 5 12 3 3 6 3 4 5 3 3 13 3 3 5 4 5 5 4 5 4 4 3 3 13 5 3 3 6 4 4 4 5 13 5 4 3
split_gain=283.307 112.225 86.0346 70.1843 45.5558 32.7632 22.0082 43.756 60.3066 22.2147 18.7701 17.1047 15.323 15.2925 25.1108 15.2795 15.2006 14.6386 16.2792 17.2017 14.2134 16.4528 13.3684 12.9881 11.1901 28.0451 31.1519 12.622 11.0669 22.9446 10.8685 10.8038 10.5559 10.3268 12.5128 17.3822 36.6192 16.4078 16.5196 15.8051 10.1607 9.88788 9.76749 36.0916 9.68629 18.5451 9.52807 14.165 10.6663 9.20357 15.9154 11.6987 19.6304 8.69715 9.16419 8.52551 13.4451 8.35857 8.14007
threshold=54.500000000000007 90.500000000000014 1.0000000180025095e-35 44.500000000000007 132.50000000000003 1.0000000180025095e-35 57.500000000000007 61.500000000000007 1.0000000180025095e-35 10.500000000000002 26.500000000000004 1.0000000180025095e-35 58.500000000000007 10.500000000000002 134.00000000000003 1.0000000180025095e-35 1.0000000180025095e-35 1.0000000180025095e-35 9.5000000000000018 25.500000000000004 1.0000000180025095e-35 32.500000000000007 82.500000000000014 5.5000000000000009 1.0000000180025095e-35 47.500000000000007 46.500000000000007 1.0000000180025095e-35 71.500000000000014 71.500000000000014 10.500000000000002 84.500000000000014 50.500000000000007 1.0000000180025095e-35 22.500000000000004 25.500000000000004 5.5000000000000009 147.50000000000003 7.5000000000000009 9.5000000000000018 69.500000000000014 6.5000000000000009 72.500000000000014 75.500000000000014 43.500000000000007 46.500000000000007 1.0000000180025095e-35 3.5000000000000004 50.500000000000007 71.500000000000014 1.0000000180025095e-35 106.50000000000001 112.50000000000001 88.500000000000014 5.5000000000000009 1.0000000180025095e-35 9.5000000000000018 78.500000000000014 47.500000000000007
decision_type=2 2 2 2 2 2 2 2 2 2 2 2 2 2 2 2 2 2 2 2 2 2 2 2 2 2 2 2 2 2 2 2 2 2 2 2 2 2 2 2 2 2 2 2 2 2 2 2 2 2 2 2 2 2 2 2 2 2 2
left_child=2 3 5 20 6 15 10 8 9 12 17 22 -8 33 -15 -1 -7 18 -3 -20 40 57 24 44 27 26 -26 28 58 -30 -21 42 -16 34 -6 36 -36 38 -37 -40 -2 -38 -24 -44 -12 -46 47 -47 -49 -9 -51 -52 -53 54 -27 -25 -57 -22 -5
right_child=1 4 -4 11 13 16 7 49 -10 -11 23 -13 -14 14 32 -17 -18 -19 19 30 21 -23 31 55 25 53 -28 -29 29 -31 -32 -33 -34 -35 35 37 41 -39 39 -41 -42 -43 43 -45 45 46 -48 48 -50 50 51 52 -54 -55 -56 56 -58 -59 -60
leaf_value=-0.00037251211700375155 -0.00015783994608587398 0.0043983137988333762 -0.0014197539128496068 0.00090412615938632694 -0.0044932898700855281 0.0022521023096929373 0.022542471820878304 0.00038705034632467001 0.064804190411246354 0.029414732951326614 0.0041295019743538422 0.0046387883583265122 0.0045173663913257393 -0.0044932896639297759 0.020841371936092985 0.00078934256804024706 0.024423302260552737 -0.00071108691170115499 0.0073424712847182218 0.024068667510262733 -0.0029413273013465468 0.0037331949991118436 0.0074956535400355073 0.0015982008647937908 0.0092741162873646414 0.01618458990450377 0.048991064421204968 0.00090404816503747876 0.022397813605321448 -0.0044932896820689683 0.0023787478800490788 0.0020923031760072216 0.041782258763899911 -0.0044932896938200779 0.053746875320273502 0.007557647923767642 -0.0044932897110126309 0.0013083387659622576 0.038968843515265944 0.010218498373411192 0.00058118544070715579 0.019818470592691418 0.053335876930676741 0.0067703040893230745 0.031545427131694476 -0.0044932896141192382 -0.0044932894871991544 0.0073125073386164285 0.031597936673495121 0.029592859268080418 0.00081487555278251676 0.028723807103036503 0.0018826572631434372 0.019659039305830881 -0.00011124335290818249 0.011586936231147069 0.00084887451950982937 0.003177453714861072 0.0026563258606589722
leaf_count=24164 6498 571 19089 708 10 982 13 89 5 14 165 532 39 6 13 2579 6 87 125 23 146 510 31 1634 12 8 6 2124 16 11 6 41 8 10 6 24 5 32 9 7 9389 11 5 11 8 7 10 7 8 6 43 10 13 6 66 46 50 67 2417
internal_value=0 0.120221 -0.0675197 0.0849454 0.375499 -0.0164802 0.337733 0.763144 1.70241 1.3354 0.301922 0.218342 0.902317 1.17275 2.14375 -0.026008 0.239528 0.484753 0.551417 0.96501 0.0368943 0.233558 0.194317 0.224873 0.185219 0.666037 2.27721 0.176263 0.233887 1.14718 1.95962 0.750623 2.88231 0.942603 1.07672 1.23922 2.35422 0.897357 1.51069 2.63937 0.0279161 1.22124 1.22015 2.13204 0.566619 1.20067 0.711265 1.2406 2.02754 0.347825 0.730632 0.52511 1.35404 0.299721 0.164897 0.18433 0.599417 -0.1014 0.22595
internal_count=72544 25724 46820 22604 3120 27731 2979 232 71 66 2747 5994 52 141 27 26743 988 812 725 154 16610 723 5462 1935 5374 98 18 5276 3152 27 29 88 21 114 104 94 22 72 40 16 15887 16 47 16 205 40 32 22 15 161 72 66 23 80 74 1730 96 213 3125
shrinkage=0.01


Tree=4
num_leaves=60
num_cat=0
split_feature=6 14 3 9 0 0 3 2 9 3 3 0 0 0 3 0 0 0 3 3 0 3 0 0 3 2 0 0 3 3 0 0 0 3 0 0 3 3 3 3 0 13 3 3 0 0 0 13 0 3 3 0 3 13 3 3 0 0 3
split_gain=172.822 66.4624 64.1886 20.6761 15.9185 12.7671 10.2929 9.03372 12.2824 35.6544 9.13581 13.7361 12.0757 10.517 8.27204 8.23346 7.67303 12.205 10.68 23.3714 7.7087 36.0763 47.5828 20.0007 7.46835 10.0848 16.0806 9.26486 14.0496 8.66623 7.46313 7.37136 7.12256 7.0173 6.78574 6.6729 6.59486 20.8937 6.03999 9.94628 5.68828 11.7586 11.333 19.983 18.0352 5.66656 5.30374 16.224 5.19538 5.11426 4.79738 6.0259 5.48158 4.77892 22.3263 4.73119 5.39064 10.9904 20.7006
threshold=1.0000000180025095e-35 1.0000000180025095e-35 29.500000000000004 1.0000000180025095e-35 82.500000000000014 299.50000000000006 68.500000000000014 1.0000000180025095e-35 1.0000000180025095e-35 55.500000000000007 59.500000000000007 466.50000000000006 458.50000000000006 444.50000000000006 45.500000000000007 415.50000000000006 516.50000000000011 504.50000000000006 60.500000000000007 61.500000000000007 444.50000000000006 57.500000000000007 408.50000000000006 436.50000000000006 32.500000000000007 1.0000000180025095e-35 127.50000000000001 171.50000000000003 34.500000000000007 53.500000000000007 82.500000000000014 555.50000000000011 106.50000000000001 33.500000000000007 127.50000000000001 153.50000000000003 47.500000000000007 52.500000000000007 47.500000000000007 43.500000000000007 153.50000000000003 1.0000000180025095e-35 39.500000000000007 45.500000000000007 106.50000000000001 267.50000000000006 315.50000000000006 1.0000000180025095e-35 162.50000000000003 45.500000000000007 68.500000000000014 607.50000000000011 74.500000000000014 1.0000000180025095e-35 44.500000000000007 44.500000000000007 384.50000000000006 392.50000000000006 50.500000000000007
decision_type=2 2 2 2 2 2 2 2 2 2 2 2 2 2 2 2 2 2 2 2 2 2 2 2 2 2 2 2 2 2 2 2 2 2 2 2 2 2 2 2 2 2 2 2 2 2 2 2 2 2 2 2 2 2 2 2 2 2 2
left_child=1 3 30 33 -2 24 -6 8 31 55 11 12 13 -11 -7 -9 17 20 -19 -20 21 46 -23 -24 25 -5 -27 28 -26 38 -3 32 36 -1 -30 -36 -4 -38 39 -29 41 -35 -43 44 -44 49 47 -16 -28 -41 -33 -52 -53 -47 -55 -10 -57 58 -58
right_child=4 2 7 5 6 14 -8 15 9 10 -12 -13 -14 -15 16 -17 -18 18 19 -21 -22 22 23 -25 27 26 48 29 34 -31 -32 50 -34 40 35 -37 37 -39 -40 45 -42 42 43 -45 -46 53 -48 -49 -50 -51 51 52 -54 54 -56 56 57 -59 -60
leaf_value=0.00042686474796379111 0.0018381362359542464 0.0023306482244180547 0.0012616879745533857 -0.00230580148837975 -0.00083946174495796067 -0.0029987077571298217 -0.0014730529554381746 -0.00042334966403292582 0.0029565112935312087 0.0096503664050808201 0.0057278812019189605 0.0374088758067984 -0.0044932895686872641 0.035024246489260412 0.032225256345678799 -0.0028375344138240207 -0.0017629517351856012 -6.6858283757670346e-06 0.033162800680518613 0.00061073466784998455 4.0670713232861709e-05 -0.0044932896536915732 0.064118618042438874 0.023891223230766881 0.036060527769096684 -0.0044932896504067867 0.032048595473487415 0.0049171053734071279 0.022792856515611342 0.022811633874248977 0.0012409745287769206 0.0055391098368005728 1.6100341820491103e-05 -0.0026787165887622133 -0.0024403223864872025 0.015715622298323843 0.018226357847780223 -0.0025322079009758238 -0.0044932896886370104 0.015977263008580433 0.0014831464374411823 0.0023321523742266901 0.004612882257151423 0.0016534648430711566 0.029919991835346518 0.030693615969303117 0.0026457184026129179 8.2877976136289298e-05 0.01239174587151015 -0.0044932897144532398 -0.0039044026924923959 0.0073241298498680444 -0.0023339109632330517 0.036417191230092731 -0.00449328952847245 -0.0035852413861432691 -0.00449328970384575 -0.0033564488868787668 0.033156576087850165
leaf_count=1410 400 2185 455 47 16131 55 7945 4532 113 7 12 7 5 6 5 312 68 9 10 8 144 7 5 5 5 9 5 223 6 6 3156 82 27982 34 10 7 19 21 12 5 6404 48 9 20 16 5 361 9 6 5 35 33 19 5 6 68 6 18 6
internal_value=0 0.0484639 0.0227871 0.159541 -0.100073 0.348199 -0.104825 -0.000442337 0.00918962 0.32612 1.60368 2.08246 1.42716 2.13749 0.233438 -0.0578785 0.279683 0.334206 1.26429 1.89334 0.286605 0.390641 2.42258 4.4052 0.565129 0.132944 0.983118 0.66252 1.44398 0.580645 0.168777 0.00641832 0.00463748 0.134493 0.970784 0.5105 0.175358 0.733704 0.541763 0.589322 0.154282 0.454273 0.717009 1.23251 2.08368 1.42267 0.298012 1.16321 2.13173 0.574875 0.305003 0.0705066 0.379404 1.94401 1.40909 0.0958923 -0.134702 0.370473 1.43379
internal_count=72544 48068 39079 8989 24476 1048 24076 33738 28894 248 37 25 18 13 686 4844 631 563 27 18 536 392 17 10 362 67 20 295 28 267 5341 28646 28477 7941 23 17 495 40 261 249 6531 127 93 45 25 26 375 14 11 10 169 87 52 16 11 211 98 30 12
shrinkage=0.01


Tree=5
num_leaves=60
num_cat=0
split_feature=4 4 6 7 4 13 5 14 13 1 4 4 5 4 4 7 6 1 5 4 5 1 13 4 14 4 5 4 5 14 4 5 4 4 4 5 4 5 4 5 4 4 5 4 4 5 5 14 4 5 1 4 4 5 5 1 5 7 4
split_gain=285.217 117.327 97.1905 82.6372 42.8175 34.8141 31.5213 26.2018 18.6532 13.7674 13.6003 12.2157 9.83262 9.56361 9.39361 8.96883 35.9863 13.6144 10.0931 8.71145 12.7938 14.3292 12.9651 15.2482 7.67906 12.7296 9.45421 7.30062 15.0588 11.6668 16.7563 12.5555 8.84312 8.61456 12.9213 27.8251 7.19269 7.10828 6.67701 7.74733 15.6216 12.8933 6.49209 6.09652 5.89747 9.97966 10.8222 6.27986 28.2557 5.79842 7.20088 6.72909 5.75083 5.75004 6.37156 8.78349 15.4644 8.91865 8.2368
threshold=54.500000000000007 90.500000000000014 1.0000000180025095e-35 1.0000000180025095e-35 134.00000000000003 1.0000000180025095e-35 10.500000000000002 1.0000000180025095e-35 1.0000000180025095e-35 1.0000000180025095e-35 147.50000000000003 51.500000000000007 10.500000000000002 143.00000000000003 149.00000000000003 1.0000000180025095e-35 1.0000000180025095e-35 1.0000000180025095e-35 7.5000000000000009 53.500000000000007 7.5000000000000009 1.0000000180025095e-35 1.0000000180025095e-35 52.500000000000007 1.0000000180025095e-35 88.500000000000014 6.5000000000000009 76.500000000000014 10.500000000000002 1.0000000180025095e-35 78.500000000000014 7.5000000000000009 80.500000000000014 85.500000000000014 83.500000000000014 9.5000000000000018 164.50000000000003 6.5000000000000009 63.500000000000007 10.500000000000002 56.500000000000007 57.500000000000007 8.5000000000000018 118.50000000000001 61.500000000000007 5.5000000000000009 8.5000000000000018 1.0000000180025095e-35 62.500000000000007 9.5000000000000018 1.0000000180025095e-35 106.50000000000001 58.500000000000007 4.5000000000000009 5.5000000000000009 1.0000000180025095e-35 8.5000000000000018 1.0000000180025095e-35 95.500000000000014
decision_type=2 2 2 2 2 2 2 2 2 2 2 2 2 2 2 2 2 2 2 2 2 2 2 2 2 2 2 2 2 2 2 2 2 2 2 2 2 2 2 2 2 2 2 2 2 2 2 2 2 2 2 2 2 2 2 2 2 2 2
left_child=2 5 3 11 8 15 7 -6 -3 13 -11 -1 -5 -9 -15 16 17 27 -19 20 -13 22 23 -22 25 -18 -26 38 29 31 -31 32 -29 34 -32 -36 -16 -27 39 44 -41 -42 -39 49 -2 -46 47 -47 -49 53 51 -51 -43 -10 58 -56 57 -57 -55
right_child=1 4 -4 12 6 -7 -8 9 43 10 -12 19 -14 14 36 -17 24 18 -20 -21 21 -23 -24 -25 26 37 -28 28 -30 30 33 -33 -34 -35 35 -37 -38 42 -40 40 41 52 -44 -45 45 46 -48 48 -50 50 -52 -53 -54 54 55 56 -58 -59 -60
leaf_value=0.0010508906283245301 0.0024021993630785701 0.0032299671298692081 -0.0014674262254106424 -0.00069420463479770737 -0.0019290085453885087 0.0031611501820924437 0.027856614612138252 0.0068164230431420527 -0.0044932896697743672 0.014724134157911059 -0.0044932896028712557 0.001528483071983479 0.000399958321834029 0.033901493927301123 0.010235855189140696 0.00051405790480110779 0.00095727861517984293 -0.00074727509155193611 0.0026973009342125031 0.0014157526127983688 0.0097851000411906929 0.00014198594540366989 0.0023324107988408165 0.024073542130566943 -0.0017918521701716661 0.018218042014444727 0.00037617993553052233 0.015833202984443656 3.0939877707514866e-05 0.033056891220225107 0.0068198078502357609 -0.0038736034911094992 0.002591355505572831 0.0028781525087985694 0.0086854305777688719 0.033359792764673622 0.029684762860650884 -0.0031137298713613064 0.0018287298789601797 0.022291973052931516 -0.0023718431076779566 0.01600553100454884 0.0076053926159380158 0.022583556341491815 -0.0044932896914020425 0.020842208359429518 0.003704143721726322 -0.0044932896088460119 0.036594120515414684 0.010006662485458681 -0.0044932896125591181 -0.0044932896437937459 0.006431155286155934 0.032640105418551155 0.0053777466410991183 0.01798521970276214 0.036148834714263035 -0.0044932896620425 0.010608837035516214
leaf_count=6690 336 2820 19074 18721 32 1260 21 9 5 18 13 92 1867 11 11 14686 1590 323 379 198 46 31 24 23 498 10 2537 17 77 6 67 33 26 39 28 14 6 15 509 13 29 18 53 6 14 17 40 11 5 35 14 8 45 6 39 9 6 6 8
internal_value=0 0.120775 -0.067444 -0.0131964 0.382957 0.0849983 1.2142 0.87715 0.34866 1.37686 0.672395 0.119862 -0.0594902 1.96193 2.37129 0.0713122 0.114672 0.272918 0.111313 0.358662 0.557581 0.857854 1.13889 1.45468 0.0451176 0.123621 0.00204938 0.357309 0.551113 0.734384 0.961106 0.276396 0.784829 0.86601 1.0723 1.69418 1.70449 0.69081 0.299868 0.412684 0.760707 0.553091 0.524164 0.852578 0.326246 0.658553 0.870886 1.4783 0.833842 0.790534 0.443468 0.731503 0.916521 1.0401 1.13924 0.936952 1.68095 0.906657 2.00192
internal_count=72544 25778 46766 27692 3083 22695 121 100 2962 68 31 7104 20588 37 28 21435 6749 2046 702 414 216 124 93 69 4703 1668 3035 1344 307 230 154 76 43 148 109 42 17 78 1037 528 105 92 68 142 423 87 73 33 16 136 57 43 63 79 74 60 21 15 14
shrinkage=0.01


Tree=6
num_leaves=60
num_cat=0
split_feature=8 0 9 12 15 5 15 0 5 5 12 0 0 0 0 5 5 15 11 0 0 0 0 5 0 5 0 0 0 0 0 0 0 5 15 5 5 0 0 15 5 0 0 15 5 1 0 0 5 5 0 0 0 0 5 1 0 0 1
split_gain=151.469 87.4973 81.2215 40.8956 37.7819 18.5495 28.4787 15.1287 13.349 13.2012 13.6693 13.5177 13.5724 11.2947 10.6721 8.21176 7.85369 7.62212 7.29575 7.25205 13.3924 9.20774 14.8571 6.92664 8.54898 6.84442 6.32559 8.34783 6.04427 10.3994 5.88164 5.83713 13.8512 12.9518 12.445 19.0752 16.1252 8.57054 7.52279 7.66806 6.70341 6.38012 7.26868 6.04374 13.3001 24.5641 13.417 11.2336 13.2761 13.8583 5.88902 8.4202 15.3938 6.42423 5.76909 5.55428 5.54375 6.59365 5.50798
threshold=1.0000000180025095e-35 136.50000000000003 1.0000000180025095e-35 1.0000000180025095e-35 1.0000000180025095e-35 6.5000000000000009 1.0000000180025095e-35 94.500000000000014 10.500000000000002 5.5000000000000009 1.0000000180025095e-35 458.50000000000006 188.50000000000003 49.500000000000007 67.500000000000014 3.5000000000000004 10.500000000000002 1.0000000180025095e-35 1.0000000180025095e-35 299.50000000000006 400.50000000000006 474.50000000000006 516.50000000000011 5.5000000000000009 323.50000000000006 9.5000000000000018 307.50000000000006 259.50000000000006 357.50000000000006 331.50000000000006 145.50000000000003 291.50000000000006 384.50000000000006 6.5000000000000009 1.0000000180025095e-35 5.5000000000000009 8.5000000000000018 516.50000000000011 171.50000000000003 1.0000000180025095e-35 5.5000000000000009 315.50000000000006 299.50000000000006 1.0000000180025095e-35 8.5000000000000018 1.0000000180025095e-35 493.50000000000006 436.50000000000006 8.5000000000000018 9.5000000000000018 444.50000000000006 400.50000000000006 392.50000000000006 474.50000000000006 10.500000000000002 1.0000000180025095e-35 291.50000000000006 215.50000000000003 1.0000000180025095e-35
decision_type=2 2 2 2 2 2 2 2 2 2 2 2 2 2 2 2 2 2 2 2 2 2 2 2 2 2 2 2 2 2 2 2 2 2 2 2 2 2 2 2 2 2 2 2 2 2 2 2 2 2 2 2 2 2 2 2 2 2 2
left_child=1 7 4 30 8 6 13 17 9 10 26 12 -12 -2 -7 -13 -6 58 55 -8 23 -22 -23 24 -21 -19 27 -3 29 -25 -4 33 34 38 -33 -36 -37 40 -32 -40 -34 42 -38 44 45 50 -46 48 -45 -50 51 52 -42 -52 -51 -9 57 -14 -1
right_child=5 2 3 -5 16 14 19 18 -10 -11 11 15 56 -15 -16 -17 -18 25 -20 20 21 22 -24 28 -26 -27 -28 -29 -30 -31 31 32 37 -35 35 36 41 -39 39 -41 43 -43 -44 47 46 -47 -48 -49 49 54 53 -53 -54 -55 -56 -57 -58 -59 -60
leaf_value=0.0021505786973697147 0.013899904394930921 0.00014134017696386476 -0.004493289659267736 0.029237483414542891 -0.0013204016109462163 0.010160249595710267 0.0020007924365846577 0.0010177095458004557 0.00038472894009615991 -0.0005546917733470065 0.021944434972554841 0.0047534861992771541 -0.004493289443745661 0.00011959258677045188 0.0020674259022222027 0.022671295901984773 -0.00026782015676601564 0.0040800897169556045 -0.0030943669695739358 0.018073156680847826 -0.0008117995683427858 0.018319533845662289 -0.00064951793711348236 0.023744238503519491 0.00097669717620943192 0.021918853230280536 -0.00044837202389996073 0.0020186216089921587 0.025320685955325502 0.00063931240414305513 0.018602295632453917 -0.0013545756576164856 -0.0009461427461966228 0.0027663439054889383 0.029732243374536588 -0.0033848253547556191 0.0076961651737374407 -0.0010038398164658505 0.0060564547651016359 0.021491721668322836 0.0084722345185351284 0.0062050134330992714 0.031985003826966875 -0.0044932896080566711 0.0020677766179032879 -0.0044932896190658655 0.014426654636898868 -0.0024998035650705855 0.028358549968616923 0.0029897944339960947 0.024125179381358084 0.0066172238308172017 0.033126700201750299 0.011514099294528308 0.018956477619082653 -4.2045105276647691e-06 -0.0011085641302946748 0.012239317373111427 0.0011483063066722744
leaf_count=1898 12 1949 22 11 12961 33 63 2273 4624 29041 7 9 7 2232 6546 13 1664 12 118 10 39 18 16 8 15 7 2099 654 13 8 13 268 40 280 6 37 5 65 92 7 14 23 5 14 142 20 20 51 8 19 16 42 8 16 6 2116 61 16 2752
internal_value=0 -0.0269522 -0.048978 0.310189 -0.0575979 0.171415 0.0645835 0.102445 -0.0339878 -0.0438966 0.02585 0.519922 0.276337 0.0194908 0.210866 1.5348 -0.120059 0.159477 0.0430431 0.596659 0.793849 0.393702 0.938568 1.33421 0.781478 1.0659 0.0139634 0.0612945 1.80975 1.21901 0.28474 0.297898 0.229672 0.440917 0.00972404 0.520763 0.31117 0.385163 0.848974 0.714833 0.459556 1.03719 1.98556 0.518348 0.625033 0.991561 0.361621 0.213797 0.715739 1.20745 1.28751 1.03661 1.74672 1.77867 0.685236 0.0525057 0.115876 0.716728 0.155786
internal_count=72544 63531 54355 1250 53105 9013 2434 9176 38480 33856 4815 113 91 2244 6579 22 14625 4669 4507 190 127 73 34 54 25 19 4702 2603 29 16 1239 1217 825 392 344 76 70 481 112 99 416 33 10 376 278 116 162 98 47 33 96 64 22 32 25 4389 84 23 4650
shrinkage=0.01


Tree=7
num_leaves=60
num_cat=0
split_feature=4 4 3 3 4 14 3 3 3 9 3 14 14 3 3 3 3 4 13 4 4 3 3 13 13 3 3 4 3 12 3 3 3 4 3 4 4 3 3 9 4 4 3 4 3 3 4 3 3 14 9 3 3 3 4 3 3 3 4
split_gain=264.019 109.872 72.8613 52.7692 42.3819 32.8843 25.5578 47.2602 16.9333 15.9534 14.3472 14.0158 13.5317 21.5596 47.3554 36.7268 31.7923 17.627 12.8044 13.703 34.7691 24.8767 12.5432 10.9942 9.77058 10.8351 19.2066 12.5296 13.1132 9.67756 22.9323 14.2225 17.0881 11.0555 9.4497 11.0642 9.37913 21.6196 14.0902 9.25851 9.05173 9.04428 7.7541 7.70361 7.58684 7.40951 9.21731 7.14054 7.03241 6.80149 6.66605 13.7245 10.0724 14.0874 21.6612 6.55423 6.49956 6.46612 6.05868
threshold=57.500000000000007 90.500000000000014 45.500000000000007 56.500000000000007 134.00000000000003 1.0000000180025095e-35 57.500000000000007 61.500000000000007 68.500000000000014 1.0000000180025095e-35 26.500000000000004 1.0000000180025095e-35 1.0000000180025095e-35 40.500000000000007 52.500000000000007 25.500000000000004 24.500000000000004 149.00000000000003 1.0000000180025095e-35 76.500000000000014 78.500000000000014 42.500000000000007 32.500000000000007 1.0000000180025095e-35 1.0000000180025095e-35 51.500000000000007 50.500000000000007 64.500000000000014 48.500000000000007 1.0000000180025095e-35 49.500000000000007 46.500000000000007 47.500000000000007 83.500000000000014 32.500000000000007 51.500000000000007 106.50000000000001 73.500000000000014 77.500000000000014 1.0000000180025095e-35 80.500000000000014 139.50000000000003 60.500000000000007 56.500000000000007 60.500000000000007 29.500000000000004 59.500000000000007 53.500000000000007 36.500000000000007 1.0000000180025095e-35 1.0000000180025095e-35 33.500000000000007 41.500000000000007 37.500000000000007 65.500000000000014 58.500000000000007 22.500000000000004 53.500000000000007 59.500000000000007
decision_type=2 2 2 2 2 2 2 2 2 2 2 2 2 2 2 2 2 2 2 2 2 2 2 2 2 2 2 2 2 2 2 2 2 2 2 2 2 2 2 2 2 2 2 2 2 2 2 2 2 2 2 2 2 2 2 2 2 2 2
left_child=3 2 18 5 6 9 10 11 23 34 -3 -8 44 15 -15 16 17 -14 45 22 -21 -22 58 39 29 26 27 28 -26 -4 31 -31 -33 -32 -1 57 -9 -38 -39 -5 -23 -17 -13 47 56 46 -2 -11 -37 -41 -47 -52 53 -53 -55 -35 -6 -36 -20
right_child=1 4 24 8 12 -7 7 36 -10 43 -12 42 13 14 -16 41 -18 -19 19 20 21 40 -24 -25 25 -27 -28 -29 -30 30 33 32 -34 55 35 48 37 38 -40 49 -42 -43 -44 -45 -46 50 -48 -49 -50 -51 51 52 -54 54 -56 -57 -58 -59 -60
leaf_value=-0.0033576516752177694 0.02016958737584286 0.004623084245631552 0.0021429324600062576 -0.00099611364599570319 0.011984933901372244 -0.00044183213498532811 0.026713417890393765 0.0013949032789689539 -0.0017033367837467261 0.0020926035000254969 0.0023724249618822489 0.010601679260565818 0.0029677161821974564 0.057567357868423583 0.0087615240168701387 0.018297299766097026 0.057796103725986987 0.034846454863898639 0.010268662390205055 0.039413849124700001 0.0022419718068227646 0.028025492654142694 0.0024907781614620927 0.00077549296446858282 0.016478150502748975 0.0027703240564190333 0.021872653092360663 0.0019421635133135093 0.002853831363311592 0.0023123435304085124 0.00017663377873837816 0.045283989014767385 0.013133671212047478 0.025925581295885684 0.00068608898481343713 -0.00092535525846717843 0.0016755149588600191 0.039361601720336412 0.012215459071313025 0.0010890897678788914 0.010737921388697183 0.00055629993513093797 0.026012042787282731 0.018860901985496344 0.015458533695243777 1.2771182412761964e-05 0.00069613645622161689 0.0062391197179204371 0.0034670975002141849 0.0088658764808244497 -0.0044932896715153513 0.0052820478540945917 -0.004493289722165921 0.0041896135020055847 0.038456197001265138 0.003751158231894047 -0.0018447010059100138 -0.00062136284931959141 -0.0034821844751950258
leaf_count=127 5 818 4122 11960 10 23493 23 112 7563 530 1959 39 8 7 9 7 5 6 7 6 145 10 347 806 34 258 17 76 25 6 53 6 7 6 3277 92 30 6 11 109 16 32 8 6 12 8989 5568 100 399 28 25 27 10 7 8 5 23 1022 122
internal_value=0 0.126181 0.0867831 -0.0598955 0.375246 -0.0205708 0.341821 0.801031 -0.116032 0.0785033 0.30396 1.77088 1.20438 1.57417 3.01963 1.17175 2.76647 1.67193 0.0391092 0.234742 0.57335 0.454728 0.108334 -0.084364 0.244868 0.455085 0.757484 0.577358 1.07111 0.224119 0.707228 2.06194 2.87484 0.290675 0.0507002 0.0609231 0.365822 0.902007 2.18517 -0.0952811 1.73838 0.377412 1.32208 0.290597 0.586886 0.0302975 0.0713582 0.275198 0.264486 0.271652 0.00490884 0.422832 0.838727 1.14395 2.24856 1.59355 0.230452 0.0375979 -0.273969
internal_count=72544 23032 19907 49512 3125 29046 3006 229 20466 5553 2777 70 119 74 16 58 19 14 15292 653 177 171 476 12903 4615 410 152 135 59 4205 83 19 13 64 4917 4790 159 47 17 12097 26 39 47 636 45 14639 5573 630 491 137 9066 77 52 42 15 11 33 4299 129
shrinkage=0.01


Tree=8
num_leaves=60
num_cat=0
split_feature=8 3 9 3 5 5 3 14 2 3 5 14 3 5 5 3 3 3 14 5 3 5 1 3 5 1 3 5 10 5 3 5 1 10 5 3 3 3 3 5 3 3 5 1 5 3 3 3 3 3 5 3 5 2 3 3 3 3 3
split_gain=150.545 82.672 72.7525 37.713 17.1085 20.0992 12.4838 10.8639 10.7278 9.89039 9.24425 9.23356 9.1798 9.08872 7.51961 6.4004 16.8793 6.03758 5.29664 9.55698 20.4505 8.80343 13.1612 7.43637 5.24635 8.50523 6.53319 5.48427 7.02446 5.07723 4.9431 4.94269 7.08079 4.89908 4.74908 6.31905 6.06945 4.71262 7.66029 4.68722 8.11979 4.64149 5.48716 4.50639 8.65946 4.12035 4.92753 9.1692 5.80935 4.15423 7.0294 9.72707 4.27826 12.0452 9.5579 7.9418 4.93562 10.5461 9.25971
threshold=1.0000000180025095e-35 29.500000000000004 1.0000000180025095e-35 64.500000000000014 10.500000000000002 5.5000000000000009 26.500000000000004 1.0000000180025095e-35 1.0000000180025095e-35 54.500000000000007 6.5000000000000009 1.0000000180025095e-35 26.500000000000004 10.500000000000002 10.500000000000002 61.500000000000007 58.500000000000007 28.500000000000004 1.0000000180025095e-35 7.5000000000000009 59.500000000000007 9.5000000000000018 1.0000000180025095e-35 60.500000000000007 5.5000000000000009 1.0000000180025095e-35 68.500000000000014 3.5000000000000004 1.0000000180025095e-35 11.500000000000002 78.500000000000014 10.500000000000002 1.0000000180025095e-35 1.0000000180025095e-35 9.5000000000000018 61.500000000000007 56.500000000000007 35.500000000000007 51.500000000000007 6.5000000000000009 59.500000000000007 60.500000000000007 8.5000000000000018 1.0000000180025095e-35 9.5000000000000018 61.500000000000007 59.500000000000007 58.500000000000007 57.500000000000007 30.500000000000004 4.5000000000000009 27.500000000000004 4.5000000000000009 1.0000000180025095e-35 55.500000000000007 38.500000000000007 38.500000000000007 34.500000000000007 45.500000000000007
decision_type=2 2 2 2 2 2 2 2 2 2 2 2 2 2 2 2 2 2 2 2 2 2 2 2 2 2 2 2 2 2 2 2 2 2 2 2 2 2 2 2 2 2 2 2 2 2 2 2 2 2 2 2 2 2 2 2 2 2 2
left_child=1 6 3 4 5 9 7 31 33 -3 24 -8 -12 -5 43 16 -4 -14 21 20 -20 39 23 -23 25 26 27 -2 45 -13 -19 -1 -33 37 -7 36 -36 -6 -39 40 -18 -41 -43 -9 -45 46 47 48 49 50 -29 -52 54 -54 56 -55 57 -51 -58
right_child=10 2 15 13 8 34 11 14 -10 -11 12 29 17 -15 -16 -17 18 30 19 -21 -22 22 -24 -25 -26 -27 -28 28 -30 -31 -32 32 -34 -35 35 -37 -38 38 -40 41 -42 42 -44 44 -46 -47 -48 -49 -50 52 51 -53 53 55 -56 -57 58 -59 -60
leaf_value=-5.3562970005947208e-05 0.00013117223172964994 0.00073809963541570029 0.0026218108810984499 -0.0014067345109916424 -0.00033795274955343953 -0.0006665480583427436 -0.0026255156676295755 0.0030177054253054708 -0.00098367147761209634 -0.00059643759891121696 0.0068232834467123176 0.00071996991011095675 -0.0016639855998178009 -0.00020518177659178694 -0.00050993817752523012 -0.00090494828857409781 0.022476089940924541 0.002011735098081269 0.042960043228122809 0.0019395842082707427 0.0034628395176419914 0.0031021028368640085 0.029535496581919306 0.016620756356349253 0.0003547522298613357 -0.00034969805964981982 -0.0044932895845017015 -0.0044932895547540441 -0.0024950285750817117 0.011509820936208268 -0.0044932895985778775 -0.0013893873599089823 0.0072577828711116186 -0.0027278240928922089 -0.00018944614532699882 0.0014169376715320561 -0.001329212984916568 0.0016630693754706694 0.00032421702792119472 -0.0044932896457568752 0.00057687649805599915 -0.0044932896425708456 0.012870968467263455 0.0012783011520996657 0.004061250445164798 0.008394999147854602 -0.0044932895902180005 0.015909387488702926 -0.0044932897960417882 0.00063543728315171278 0.0010597358546590118 0.018283389299210129 0.0014539723867504728 0.0033809059977797655 0.016005664629075683 0.018913173408637546 -0.0033903149070948881 0.01498860486684591 0.0054496611921338225
leaf_count=725 142 4049 1112 10166 616 24888 177 1260 889 1611 78 3003 94 1505 195 86 6 6378 5 6 5 21 7 13 1327 307 27 7 41 9 24 33 47 82 6427 440 1142 1848 1693 19 8 6 9 1125 286 35 16 12 19 20 11 17 299 13 15 14 37 22 70
internal_value=0 -0.0259782 -0.0441504 -0.0521663 -0.0328054 -0.0432035 0.122288 0.178989 0.0451963 0.0359852 0.171483 0.0565694 0.19937 -0.12515 0.220069 0.287895 0.314147 0.193467 0.853249 1.58359 2.40601 0.716341 1.19399 0.832471 0.0964294 0.168364 0.244581 0.268166 0.323864 0.0752163 0.198741 0.0319413 0.369391 0.0753134 -0.0568403 -0.0263656 -0.0360865 0.0821756 0.10238 0.303187 0.997646 0.0210163 0.601202 0.239803 0.184305 0.362527 0.333427 0.355927 0.328628 0.356692 0.831814 1.15133 0.322646 0.227909 0.511087 1.14332 0.401664 0.817219 0.238641
internal_count=72544 63519 56659 55356 43685 38557 6860 3671 5128 5660 9025 3189 6574 11671 2866 1303 1217 6496 105 16 10 89 41 34 2451 1124 817 790 648 3012 6402 805 80 4239 32897 8009 7569 4157 3541 48 14 34 15 2671 1411 607 572 556 544 525 35 28 490 326 164 27 149 42 107
shrinkage=0.01


Tree=9
num_leaves=58
num_cat=0
split_feature=6 8 15 13 15 2 11 1 15 2 1 11 1 13 2 10 2 10 1 10 1 2 13 2 2 2 1 1 10 1 13 13 1 2 1 11 11 1 11 13 2 1 10 2 2 2 2 1 13 2 2 1 11 2 2 1 1
split_gain=159.448 85.0987 19.3362 18.5063 14.1321 21.4269 11.1477 10.0319 8.51076 3.87444 5.09579 2.69082 2.56248 6.86441 8.86098 3.37228 2.83013 2.31593 2.13361 1.87383 1.58904 2.94858 2.52443 2.23291 1.0671 1.00591 3.69481 1.47988 0.940183 1.42306 0.843394 0.570203 0.51177 0.500006 1.51179 2.00818 1.7219 1.18515 0.874046 0.49237 0.323185 0.272425 0.238475 0.236494 0.215851 0.214648 0.157517 0.131842 0.102273 0.086119 0.0398911 0.0831253 0.0265072 0.0179572 0.00886215 0.415533 0.0219032
threshold=1.0000000180025095e-35 1.0000000180025095e-35 1.0000000180025095e-35 1.0000000180025095e-35 1.0000000180025095e-35 1.0000000180025095e-35 1.0000000180025095e-35 1.0000000180025095e-35 1.0000000180025095e-35 1.0000000180025095e-35 1.0000000180025095e-35 1.0000000180025095e-35 1.0000000180025095e-35 1.0000000180025095e-35 1.0000000180025095e-35 1.0000000180025095e-35 1.0000000180025095e-35 1.0000000180025095e-35 1.0000000180025095e-35 1.0000000180025095e-35 1.0000000180025095e-35 1.0000000180025095e-35 1.0000000180025095e-35 1.0000000180025095e-35 1.0000000180025095e-35 1.0000000180025095e-35 1.0000000180025095e-35 1.0000000180025095e-35 1.0000000180025095e-35 1.0000000180025095e-35 1.0000000180025095e-35 1.0000000180025095e-35 1.0000000180025095e-35 1.0000000180025095e-35 1.0000000180025095e-35 1.0000000180025095e-35 1.0000000180025095e-35 1.0000000180025095e-35 1.0000000180025095e-35 1.0000000180025095e-35 1.0000000180025095e-35 1.0000000180025095e-35 1.0000000180025095e-35 1.0000000180025095e-35 1.0000000180025095e-35 1.0000000180025095e-35 1.0000000180025095e-35 1.0000000180025095e-35 1.0000000180025095e-35 1.0000000180025095e-35 1.0000000180025095e-35 1.0000000180025095e-35 1.0000000180025095e-35 1.0000000180025095e-35 1.0000000180025095e-35 1.0000000180025095e-35 1.0000000180025095e-35
decision_type=2 2 2 2 2 2 2 2 2 2 2 2 2 2 2 2 2 2 2 2 2 2 2 2 2 2 2 2 2 2 2 2 2 2 2 2 2 2 2 2 2 2 2 2 2 2 2 2 2 2 2 2 2 2 2 2 2
left_child=1 3 6 4 28 32 12 43 11 41 -11 19 16 15 -15 46 30 31 -7 20 22 48 44 -24 -9 27 -27 -10 33 53 42 -18 -6 37 35 -35 -36 52 -39 -23 47 -5 -3 -4 -2 -31 -14 -21 -22 -17 51 -13 -1 -30 56 -56 -8
right_child=8 2 7 9 5 18 54 24 25 10 -12 50 13 14 -16 49 17 -19 -20 40 21 39 23 -25 -26 26 -28 -29 29 45 -32 -33 -34 34 36 -37 -38 38 -40 -41 -42 -43 -44 -45 -46 -47 -48 -49 -50 -51 -52 -53 -54 -55 55 -57 -58
leaf_value=-2.845726976636086e-05 -0.00085570860224293613 0.0019880689706399507 0.0046274120759184243 0.0020278314232971134 0.0023105686307642297 0.013942992812052107 3.5577455654763827e-05 -0.0004959577035936033 -0.0011092294196785128 0.0018367993200217906 -0.0037976994174072853 -0.0034539521666420766 0.00050810362472164603 0.0021456856161135912 0.0087627916270011253 0.001849725701006685 0.0028793996249734453 -1.1165536161870577e-05 0.023943424210688163 -0.0015782549734246136 -0.00018548348668747061 -0.0013690745332306797 0.00066854281535131082 -0.0036966478744907454 0.0057127262200653327 -0.0019044685180143808 0.00038512089157100553 -0.0014415175665494025 -1.5019258005005804e-05 0.0014564387258188193 0.0015448008683702046 0.003985192887496148 0.0010576002346070978 0.00047198995586173533 -0.00012411499204438987 -0.00073628965781529485 0.00079581903015138466 0.00014912250983295169 0.001384592879600102 0.0013443106764791043 -0.0044932896338976481 0.0016105571704601081 0.0016796348674841177 0.0059891535838290568 -0.00059061664457488682 0.0027103686839104689 8.5264099934594009e-05 -0.0024079520134499999 -0.0005495329536398131 0.0023893314683230572 -0.0044932895525625445 -0.0018873770275583943 0.00012914612302212226 0.00042473277391483335 -0.00067289187204981865 0.0019037947938673639 -0.00015631297758436633
leaf_count=16442 4637 2262 576 1003 311 11 628 97 9911 74 59 60 933 390 46 325 298 50 7 93 3270 576 365 26 6 258 342 3898 220 154 2130 139 85 3665 3552 306 473 11770 119 14 11 470 661 27 736 34 223 70 168 74 6 8 223 21 64 16 151
internal_value=0 0.0476086 0.171872 0.0182939 0.0117733 0.27399 0.152752 0.398667 -0.0952439 0.168444 -0.0652275 -0.0630901 0.17031 0.126317 0.284571 0.0818087 0.186085 0.289905 1.78764 -0.0610599 -0.0584339 -0.0364954 -0.0737797 0.0378387 -0.0134364 -0.11779 -0.0598941 -0.120307 0.0087982 0.075373 0.176055 0.323141 0.204336 0.00800978 0.0180279 0.0378743 -0.00156527 0.00519039 0.0161544 -0.130391 -0.209616 0.18952 0.191827 0.468881 -0.0819232 0.168277 0.0426387 -0.193457 -0.0203307 0.194996 -0.336985 -0.327012 -0.00263426 0.00230786 -0.00163588 -0.0159474 -0.000161275
internal_count=72544 48095 9096 38999 37393 414 8390 706 24449 1606 133 10040 7531 1991 436 1555 5540 487 18 9966 9792 4028 5764 391 103 14409 600 13809 36979 429 5053 437 396 36550 7996 3971 4025 28554 11889 590 174 1473 2923 603 5373 188 1156 163 3438 399 74 68 16665 241 859 80 779
shrinkage=0.01


Tree=10
num_leaves=60
num_cat=0
split_feature=4 4 8 3 4 3 8 3 5 3 3 5 15 8 4 3 3 3 3 3 3 5 3 4 3 4 3 3 4 4 5 4 3 4 4 4 5 4 15 4 5 3 3 15 4 4 3 3 3 5 15 5 3 3 3 4 5 4 3
split_gain=277.222 112.409 95.5853 69.9816 45.6683 44.9844 40.9701 39.1911 36.5937 38.9578 35.1034 20.5051 19.1649 18.7638 17.8386 17.378 13.9604 13.874 13.1435 24.4461 18.4714 40.1431 12.9923 12.7769 12.5869 12.4101 12.2685 22.5132 16.9889 22.0895 11.3828 10.7596 11.0032 35.3685 19.2234 32.4306 23.1522 11.4433 16.9848 55.5695 13.9709 10.7325 10.1492 10.0935 9.70324 13.777 25.5639 9.68915 9.53708 10.3075 15.6036 19.4109 21.3654 9.43983 18.1262 14.0573 18.0863 9.1393 10.7008
threshold=54.500000000000007 90.500000000000014 1.0000000180025095e-35 46.500000000000007 134.00000000000003 57.500000000000007 1.0000000180025095e-35 61.500000000000007 10.500000000000002 59.500000000000007 68.500000000000014 10.500000000000002 1.0000000180025095e-35 1.0000000180025095e-35 100.50000000000001 22.500000000000004 26.500000000000004 58.500000000000007 38.500000000000007 46.500000000000007 25.500000000000004 5.5000000000000009 29.500000000000004 139.50000000000003 50.500000000000007 147.50000000000003 73.500000000000014 77.500000000000014 106.50000000000001 95.500000000000014 5.5000000000000009 55.500000000000007 65.500000000000014 56.500000000000007 65.500000000000014 71.500000000000014 9.5000000000000018 63.500000000000007 1.0000000180025095e-35 60.500000000000007 4.5000000000000009 24.500000000000004 59.500000000000007 1.0000000180025095e-35 76.500000000000014 78.500000000000014 35.500000000000007 59.500000000000007 54.500000000000007 5.5000000000000009 1.0000000180025095e-35 4.5000000000000009 51.500000000000007 82.500000000000014 84.500000000000014 72.500000000000014 8.5000000000000018 68.500000000000014 38.500000000000007
decision_type=2 2 2 2 2 2 2 2 2 2 2 2 2 2 2 2 2 2 2 2 2 2 2 2 2 2 2 2 2 2 2 2 2 2 2 2 2 2 2 2 2 2 2 2 2 2 2 2 2 2 2 2 2 2 2 2 2 2 2
left_child=2 3 10 13 5 16 53 8 12 14 48 17 -7 57 -10 -15 30 18 20 -20 21 -6 -4 -22 -13 -21 -9 28 29 -28 -3 -8 37 -34 -35 -36 -37 38 42 -40 -39 -32 -33 -24 -17 46 -46 -14 49 50 -1 -52 -53 -5 55 -55 -57 58 -2
right_child=1 4 22 6 11 7 31 26 9 -11 -12 24 47 15 -16 44 -18 -19 19 25 23 -23 43 -25 -26 -27 27 -29 -30 -31 41 32 33 34 35 36 -38 40 39 -41 -42 -43 -44 -45 45 -47 -48 -49 -50 -51 51 52 -54 54 -56 56 -58 -59 -60
leaf_value=0.00017592784505185627 -0.00051375203346884306 0.00025252419656826704 0.018121607093057508 0.001603827820609343 0.048316603305633941 0.0079005164169020699 -0.00027494208301119516 0.0022172491782991616 0.0053663990918805327 0.068610269468314139 -0.0018346637070147914 0.016089609051114007 0.042775878130118093 0.021021580067481147 0.040872090954653086 0.0011000072687618457 0.0021989488998712136 -0.0044932895842019708 0.045000791849873024 0.022338598665237332 0.021659776299231343 0.0081848373350727963 0.00079371826753913647 -0.00034060620455536448 0.03742069546177932 -0.0044932896990573373 0.032910751961507098 0.0037252934667914889 0.040039495935874879 -0.0044932895804398847 0.0036904504800000216 0.0069817153550173171 0.047678998475571915 -0.0044932896557105216 0.041405661477723829 -0.0044932896560196519 0.027185834482753288 0.01934672939772418 0.0044126975305341801 0.042566541866071853 0.003138512691225461 0.0072642684899379781 -0.00018606102360685311 0.0028959673583064524 -0.0044932895242692323 0.003211046570038136 0.038984120586490652 0.017835038445381729 -0.0010165496851424055 -0.00065470597511976282 -0.001737646524236091 0.0307859015003294 -0.0044932896268378587 0.0071522493304286153 -0.0010307806729895105 0.038420538687110199 0.0056963807547737721 0.00052800404674500662 0.00085039274348884216
leaf_count=2722 4810 115 9 4295 6 42 72 95 6 5 7249 15 5 9 5 1204 1940 13 6 8 6 22 5631 39 8 6 6 35 7 7 439 268 5 16 7 14 7 11 25 11 435 276 47 506 5 392 6 8 13732 16922 15 12 5 30 36 8 6 9325 1577
internal_value=0 0.118931 -0.0665564 0.0835519 0.372481 0.336133 0.227862 0.954237 1.81106 3.65352 -0.0920912 1.1913 1.25681 0.0394539 2.18786 0.18562 0.286597 0.924122 1.11418 2.12375 0.83534 1.72432 0.0993013 0.267402 2.36805 1.10567 0.534634 1.07046 2.26617 1.28293 0.440468 0.500589 0.545495 1.19904 0.790643 1.50262 0.613841 0.505233 0.697283 1.62047 0.353963 0.507116 0.591276 0.0967822 0.174219 0.365328 1.93196 2.74731 -0.0724491 -0.0521642 0.0293769 1.02289 2.06119 0.169497 0.658007 1.27133 2.44688 0.0242131 -0.0177001
internal_count=72544 25741 46803 22621 3120 2991 5293 221 71 16 40657 129 55 17328 11 1616 2770 106 93 20 73 28 6146 45 23 14 150 55 20 13 830 918 846 49 44 28 21 797 351 36 446 715 315 6137 1607 403 11 13 33408 19676 2754 32 17 4375 80 44 14 15712 6387
shrinkage=0.01


Tree=11
num_leaves=60
num_cat=0
split_feature=4 4 0 3 4 5 3 3 0 3 3 1 3 0 4 3 7 0 4 7 3 3 3 4 0 0 3 7 5 1 5 3 3 3 3 5 5 1 4 4 12 3 3 5 0 3 3 0 0 3 3 0 5 4 3 4 4 4 0
split_gain=264.451 98.1922 71.5503 58.9559 28.8171 39.0614 18.8422 41.3709 64.0966 18.5839 18.5072 47.3232 42.1355 16.3445 16.3068 16.173 23.325 15.6737 14.2434 13.4697 13.1443 12.7513 11.8004 13.2882 31.7017 10.9772 10.887 13.7422 10.2432 10.1884 10.0834 14.0693 16.1062 10.9651 11.9073 9.75312 9.01823 9.7739 8.99362 11.3257 16.618 27.6297 31.7991 18.9991 18.1284 30.5604 25.4981 50.2634 19.3894 14.7038 16.8761 44.8577 32.4374 18.0781 25.7042 14.1159 11.3209 10.6111 10.4613
threshold=54.500000000000007 90.500000000000014 259.50000000000006 68.500000000000014 134.00000000000003 10.500000000000002 57.500000000000007 61.500000000000007 493.50000000000006 58.500000000000007 73.500000000000014 1.0000000180025095e-35 82.500000000000014 106.50000000000001 112.50000000000001 56.500000000000007 1.0000000180025095e-35 392.50000000000006 106.50000000000001 1.0000000180025095e-35 82.500000000000014 48.500000000000007 84.500000000000014 72.500000000000014 673.50000000000011 408.50000000000006 63.500000000000007 1.0000000180025095e-35 4.5000000000000009 1.0000000180025095e-35 5.5000000000000009 42.500000000000007 44.500000000000007 29.500000000000004 28.500000000000004 5.5000000000000009 3.5000000000000004 1.0000000180025095e-35 57.500000000000007 63.500000000000007 1.0000000180025095e-35 49.500000000000007 46.500000000000007 10.500000000000002 299.50000000000006 43.500000000000007 47.500000000000007 331.50000000000006 283.50000000000006 58.500000000000007 59.500000000000007 466.50000000000006 9.5000000000000018 85.500000000000014 60.500000000000007 76.500000000000014 62.500000000000007 60.500000000000007 483.50000000000006
decision_type=2 2 2 2 2 2 2 2 2 2 2 2 2 2 2 2 2 2 2 2 2 2 2 2 2 2 2 2 2 2 2 2 2 2 2 2 2 2 2 2 2 2 2 2 2 2 2 2 2 2 2 2 2 2 2 2 2 2 2
left_child=3 2 -2 15 6 19 13 8 9 25 -9 35 18 21 -11 16 -1 29 -13 -6 26 28 23 -22 -25 -8 27 38 -3 -7 31 33 -33 34 -15 -12 -34 -38 -4 40 43 42 -42 57 45 -45 47 -46 -47 -41 51 -51 55 -52 -55 -53 58 -40 -48
right_child=1 4 20 -5 5 17 7 10 -10 14 11 12 -14 30 -16 -17 -18 -19 -20 -21 22 -23 -24 24 -26 -27 -28 -29 -30 -31 -32 32 36 -35 -36 -37 37 -39 39 49 41 -43 -44 44 46 48 56 -49 -50 50 53 52 -54 54 -56 -57 -58 -59 -60
leaf_value=0.00034506279179880278 0.00033535389416898992 -0.0019620085475174085 0.0013018862876842897 -0.0018306892606604528 -0.00072274415829296336 0.033347980243263742 0.010036186245730765 -0.00099620240955655844 0.048030407192387638 0.00042569776043986765 0.013190032991509937 0.021879782539221942 -0.0044932896171606092 0.0050669635229392421 0.020885731335590487 -0.00085353088933604981 -0.00054100866394508418 0.049037825009543907 0.048723271392955 0.010375041536950666 0.0074784812603584383 0.019345482792182612 0.0019428430552783998 0.048256664490789282 0.0054451325205730552 0.031848727000898906 0.00085610418473253645 0.0016327752417984211 0.0042642069096646765 0.0080396808290882325 0.0015293852175596956 0.032363506527539866 -0.004493289585160036 0.00070557859837550626 0.027064899820449455 -0.0044932896153472967 0.004546195136731295 0.024392515897990862 0.0016451361817531604 0.0018889328778083606 0.0077379285532416953 0.0037509763384002987 0.057249508450009826 2.0412218869834397e-05 0.0036315673268978201 0.018146958215257733 -0.0004277950971175909 0.05557750117435363 0.05054110430863986 0.0020868264253194792 0.0025018727805682546 0.028069640924896055 -0.0010597040677108171 0.036773830749532624 0.0029710970303969005 0.054927659163481038 0.02226559029963605 0.0055856853047459611 0.014161801130361799
leaf_count=9467 16370 56 441 7428 32 6 8 94 10 32 8 7 7 17 10 12532 17355 5 9 69 34 11 42 6 8 10 1252 2591 1198 6 1347 7 8 90 7 30 11 9 299 942 5 15 5 9 10 8 60 6 7 34 194 11 6 8 11 6 6 260 12
internal_value=0 0.116472 0.0835092 -0.0646151 0.353723 1.03274 0.326015 0.72025 1.60199 1.04692 0.301346 0.909216 2.50356 0.293537 0.532629 -0.0425378 -0.0226593 2.93317 3.74284 0.690463 0.213386 0.412074 0.756247 1.23389 2.38435 2.22228 0.205481 0.235563 0.398714 2.06532 0.192121 0.543339 1.32766 0.299414 1.15356 -0.0742998 0.843958 1.34497 0.314332 0.356619 0.500648 1.63336 3.39232 0.458157 0.977252 2.08049 0.694823 2.32858 3.32039 0.2729 0.567569 1.25362 2.77665 0.380892 1.71612 3.75776 0.357902 0.348176 0.200146
internal_count=72544 25762 22658 46782 3104 118 2986 225 70 60 155 61 23 2761 42 39354 26822 17 16 101 6288 1265 90 48 14 18 6198 4946 1254 12 1496 149 35 114 24 38 28 20 2355 1914 702 25 10 677 118 24 94 16 15 1212 270 57 23 213 19 17 78 559 72
shrinkage=0.01


Tree=12
num_leaves=60
num_cat=0
split_feature=0 0 9 12 9 5 5 5 2 5 0 0 0 0 5 0 0 0 5 1 0 0 11 0 1 0 0 0 0 0 5 5 1 0 5 5 5 11 7 0 5 5 0 0 0 7 0 2 5 5 0 7 5 0 5 5 0 0 5
split_gain=70.4949 45.4489 31.068 29.9486 28.3346 15.1664 15.71 14.1177 8.74286 10.1464 8.29064 7.64208 7.3416 10.0776 9.83024 13.7996 8.6179 8.72092 7.60655 8.75245 8.61976 7.21204 9.87453 19.9769 14.9999 9.87305 6.85397 6.56518 6.51267 8.93511 6.28466 6.04884 12.0866 7.85134 7.49174 5.7394 5.65494 4.80765 9.27604 8.53271 4.80749 4.74579 5.48804 4.67535 4.64541 8.19384 7.83239 9.51931 23.3621 22.3924 4.55172 5.38398 8.60639 6.40996 4.51562 4.36125 4.31016 6.15456 4.2577
threshold=408.50000000000006 94.500000000000014 1.0000000180025095e-35 1.0000000180025095e-35 1.0000000180025095e-35 5.5000000000000009 9.5000000000000018 10.500000000000002 1.0000000180025095e-35 10.500000000000002 516.50000000000011 392.50000000000006 384.50000000000006 291.50000000000006 6.5000000000000009 153.50000000000003 171.50000000000003 162.50000000000003 7.5000000000000009 1.0000000180025095e-35 400.50000000000006 180.50000000000003 1.0000000180025095e-35 299.50000000000006 1.0000000180025095e-35 315.50000000000006 117.50000000000001 348.50000000000006 267.50000000000006 275.50000000000006 5.5000000000000009 9.5000000000000018 1.0000000180025095e-35 504.50000000000006 8.5000000000000018 3.5000000000000004 3.5000000000000004 1.0000000180025095e-35 1.0000000180025095e-35 67.500000000000014 5.5000000000000009 6.5000000000000009 458.50000000000006 436.50000000000006 127.50000000000001 1.0000000180025095e-35 117.50000000000001 1.0000000180025095e-35 2.5000000000000004 4.5000000000000009 587.50000000000011 1.0000000180025095e-35 5.5000000000000009 633.50000000000011 5.5000000000000009 8.5000000000000018 145.50000000000003 251.50000000000003 10.500000000000002
decision_type=2 2 2 2 2 2 2 2 2 2 2 2 2 2 2 2 2 2 2 2 2 2 2 2 2 2 2 2 2 2 2 2 2 2 2 2 2 2 2 2 2 2 2 2 2 2 2 2 2 2 2 2 2 2 2 2 2 2 2
left_child=1 35 5 12 7 44 27 36 9 21 30 26 13 14 15 -4 17 -17 19 20 54 -8 -23 -24 25 -25 -11 55 40 -30 -6 32 33 34 41 -1 -2 -37 39 -39 -18 -32 -43 -36 45 -3 -47 48 -48 -49 -38 -52 -53 -54 -14 56 -7 -58 -40
right_child=4 2 3 -5 10 6 8 -9 -10 11 -12 -13 18 -15 -16 16 28 -19 -20 -21 -22 22 23 24 -26 -27 -28 -29 29 -31 31 -33 -34 -35 43 37 50 38 58 -41 -42 42 -44 -45 -46 46 47 49 -50 -51 51 52 53 -55 -56 -57 57 -59 -60
leaf_value=-0.001891758909820911 -0.0019145976649194668 -0.0014450911992722353 -0.0044932896294615767 0.028128670044755628 -0.0015392190892602946 0.00056894057952954912 0.0011401455995371527 0.00020264792844254501 -0.00037574229356716492 -0.0024261443384749654 -0.0012548032099175155 0.0034294881754387448 0.0035351544017614275 0.00020834001528112313 0.0021016342371785604 0.0096033101804614603 0.0098175655833554806 0.033656913150976776 0.0017638935516134733 -0.0044932896120451187 0.0039196464746909781 -8.4624151163426687e-05 -0.0044932897002441172 0.0077235865511812805 -0.0044932897250620487 0.032297057257271639 0.0010631925063614991 -0.00070735786992464538 0.031008760518216574 0.0082987638060429709 0.0050463056899915327 0.0027230087886807976 -0.0020577081233410684 0.021306500823132731 0.0080069186200433622 0.0018632001620335918 -0.00069734237044394027 0.026640074275044778 5.1227937415495037e-05 0.0031808462945573032 0.0027237588091619702 0.017807592792341568 0.0083912745638583652 -0.0023790185307358443 0.00068181853557485849 0.0015892792800612568 0.026136214762028091 -0.00057452465748051586 0.00043937807233809058 0.018719390464706342 -0.0013804721972892292 0.018831392484949153 -0.0024168321998551822 0.007090665153474127 0.018173630052587236 -0.00046582734032865917 -0.00042573917427436025 0.00023041012763779889 0.0036334552826418282
leaf_count=94 988 101 19 8 34 2457 1371 3045 2472 119 70 275 5 355 324 7 32 5 48 8 19 5114 16 5 5 10 3822 4664 5 11 23 130 25 9 16 4076 16430 5 670 8 47 23 26 19 4881 236 8 21 75 30 3153 6 40 23 27 5126 5800 6028 75
internal_value=0 0.0304828 0.0155956 0.273654 -0.0648647 0.00989343 -0.000381061 -0.0712079 0.0393871 0.0571133 0.321407 0.111879 0.247814 0.201045 0.341468 0.675953 0.870314 1.98251 0.595222 0.93398 1.14745 0.0215456 -0.00315208 0.742948 1.69423 2.40851 0.0957535 -0.0222548 0.726295 1.54887 0.420704 0.492249 0.69455 0.884134 0.776455 0.160193 -0.0847733 0.166972 0.0624396 1.24851 0.560082 1.03485 1.28086 0.23798 0.0813535 0.217175 0.315864 0.592598 0.293076 1.07957 -0.0794236 -0.129214 0.267365 0.108304 1.59181 -0.0106323 0.00227564 -0.00913579 0.0413741
internal_count=72544 48484 43556 920 24060 42636 37284 23685 13209 10737 375 4216 912 805 450 126 107 12 107 59 51 6521 5150 36 20 15 3941 24075 95 16 305 271 141 116 107 4928 20640 4834 758 13 79 72 49 35 5352 471 370 134 83 51 19652 3222 69 63 32 19411 14285 11828 745
shrinkage=0.01


Tree=13
num_leaves=60
num_cat=0
split_feature=8 0 3 13 11 3 0 3 3 0 0 3 3 3 3 3 0 13 0 0 0 3 3 0 3 0 11 3 0 0 0 11 3 2 0 0 10 0 3 3 0 3 0 3 0 0 0 3 3 0 3 3 11 3 0 3 3 0 0
split_gain=142.086 91.5636 46.8819 17.009 14.675 29.7419 10.6515 9.63704 12.9012 8.7553 16.5401 45.0897 7.27084 6.99932 13.4017 19.4276 18.2537 10.4149 9.82038 21.1406 9.34474 8.04588 6.34745 10.679 6.30587 6.22596 6.09685 6.05036 6.04919 5.49592 13.0094 5.42201 6.95187 5.26502 4.82816 4.76194 4.45203 4.41 6.86256 10.0335 4.20933 4.59624 6.17158 10.2869 5.50373 6.7032 9.92256 16.5705 12.1049 13.9185 11.6463 6.76198 5.0446 4.7996 4.70274 4.16857 10.2878 9.51802 6.79502
threshold=1.0000000180025095e-35 94.500000000000014 61.500000000000007 1.0000000180025095e-35 1.0000000180025095e-35 25.500000000000004 153.50000000000003 47.500000000000007 52.500000000000007 504.50000000000006 516.50000000000011 60.500000000000007 58.500000000000007 64.500000000000014 68.500000000000014 67.500000000000014 504.50000000000006 1.0000000180025095e-35 392.50000000000006 357.50000000000006 474.50000000000006 66.500000000000014 52.500000000000007 384.50000000000006 50.500000000000007 67.500000000000014 1.0000000180025095e-35 49.500000000000007 67.500000000000014 555.50000000000011 504.50000000000006 1.0000000180025095e-35 26.500000000000004 1.0000000180025095e-35 408.50000000000006 49.500000000000007 1.0000000180025095e-35 323.50000000000006 55.500000000000007 56.500000000000007 408.50000000000006 38.500000000000007 299.50000000000006 46.500000000000007 171.50000000000003 233.50000000000003 215.50000000000003 54.500000000000007 55.500000000000007 197.50000000000003 49.500000000000007 48.500000000000007 1.0000000180025095e-35 57.500000000000007 188.50000000000003 51.500000000000007 48.500000000000007 117.50000000000001 127.50000000000001
decision_type=2 2 2 2 2 2 2 2 2 2 2 2 2 2 2 2 2 2 2 2 2 2 2 2 2 2 2 2 2 2 2 2 2 2 2 2 2 2 2 2 2 2 2 2 2 2 2 2 2 2 2 2 2 2 2 2 2 2 2
left_child=1 7 3 6 13 -6 26 31 25 22 11 -11 -10 35 15 17 -17 20 19 -16 -15 29 23 -5 -25 27 55 -9 -14 30 -22 32 -1 40 -24 -2 -37 38 -35 -40 41 54 43 -43 -45 46 48 50 -46 53 51 -48 -47 -50 -8 56 -3 -58 -59
right_child=4 2 -4 9 5 -7 33 8 12 10 -12 -13 28 14 18 16 -18 -19 -20 -21 21 -23 34 24 -26 -27 -28 -29 -30 -31 -32 -33 -34 37 -36 36 -38 -39 39 -41 -42 42 -44 44 45 52 47 -49 49 -51 -52 -53 -54 -55 -56 -57 57 58 -60
leaf_value=0.002253396488859841 0.0084184189355143001 0.00038390845585316129 -0.0010858279898987022 0.001230473371078537 0.030557526137897823 -0.0003463451132541114 -2.7537032334232708e-05 0.018021467951260601 -0.0028647956724900067 -1.9447111821699631e-05 -0.0044932896695028413 0.052010482526637508 4.8507478518066397e-06 -0.0044932896241657661 -0.0044932897109458492 0.035264782899307512 0.010478809767917123 -0.0018220101379267954 -0.00042107504190354848 0.031763027674979426 0.022766281435899614 0.0022780870517024447 -0.0021160844859962179 0.013677601515885755 0.0043852429132645171 0.023606756230903338 -0.0025498674624828827 0.00057033206323638748 0.015729362630201978 0.017388641630150605 0.0011217027150806928 0.00049224319985134897 0.00096555056180415541 -0.00055913093792631454 0.00066810878170189109 0.0019127033436566136 0.00090515544935985243 -0.0015435700534341828 0.023075469019344652 0.0020947160998798478 -0.00053050060134645456 3.9218165246652221e-06 -0.00024963503669868213 -0.0025434665477217784 -0.00019221002089022177 0.00088524838226669393 0.0080629927153376309 -0.0016937476528773767 0.026737981680958488 0.0026099720577902699 0.014470412285699211 -0.0044932897350460788 0.013072711692981694 0.010970469366319187 -0.00080875119749321365 -0.0027806234347643962 0.020186336391121086 -0.0032118396670158013 0.0089531687263581638
leaf_count=2610 21 6375 14478 1228 6 828 2830 8 25 9 10 5 9 12 7 8 23 38 125 6 8 24 181 18 87 10 149 8 11 23 18 729 1268 3108 432 6873 1024 1133 6 22 7576 5622 10083 74 192 1233 28 37 8 35 49 13 7 8 3654 84 9 16 23
internal_value=0 -0.0213842 -0.0369626 -0.0138698 0.169812 -0.0108784 -0.0199833 0.170388 0.690391 0.115929 0.963648 1.9366 0.227352 0.188057 0.404523 0.692326 1.69648 0.438443 0.0812692 1.25443 0.714324 0.905033 0.105217 0.160531 0.597078 1.48426 0.0326746 0.93482 0.865698 1.23342 0.787146 0.16234 0.183479 -0.0298646 -0.0153042 0.18006 0.178214 -0.0772822 -0.049528 0.659548 -0.0234227 -0.01406 -0.00186721 0.0299493 0.128475 0.146112 0.315939 0.641765 0.145829 0.769391 0.974446 0.408536 0.0954603 1.88157 -0.0467518 0.0392274 0.0433819 0.703722 0.394597
internal_count=72544 63500 58822 44344 9044 834 42374 4678 71 1970 24 14 45 8210 292 154 31 123 138 13 85 73 1946 1333 105 26 6656 16 20 49 26 4607 3878 35718 613 7918 7897 4269 3136 28 31449 23873 17389 7306 1684 1610 370 127 243 51 90 41 1240 16 6484 6507 6423 48 39
shrinkage=0.01


Tree=14
num_leaves=60
num_cat=0
split_feature=6 7 3 3 12 1 3 3 2 13 3 3 3 3 3 1 3 2 2 3 2 1 3 13 3 3 1 3 3 3 3 3 13 3 3 3 3 3 2 3 3 3 2 13 1 3 3 3 3 13 3 3 3 3 1 3 3 2 2
split_gain=163.482 123.169 44.469 14.2585 8.00523 8.4033 14.6911 14.0622 15.6951 55.3547 7.99029 7.74729 7.50896 7.4902 6.7655 6.57855 13.7074 5.93594 5.61032 5.09623 4.7808 8.41954 4.45956 4.08089 6.02454 4.17726 6.66952 3.86158 3.82801 3.80906 8.30574 4.31413 3.70804 5.25016 4.73037 3.60189 9.10282 5.69075 5.14531 3.71125 7.00863 3.83749 5.06542 3.57771 3.42815 5.98203 3.41656 3.23901 7.97116 6.86244 3.60302 3.16509 3.00002 4.7601 3.69881 4.14462 14.0511 11.01 5.20045
threshold=1.0000000180025095e-35 1.0000000180025095e-35 26.500000000000004 29.500000000000004 1.0000000180025095e-35 1.0000000180025095e-35 22.500000000000004 58.500000000000007 1.0000000180025095e-35 1.0000000180025095e-35 68.500000000000014 38.500000000000007 67.500000000000014 29.500000000000004 68.500000000000014 1.0000000180025095e-35 47.500000000000007 1.0000000180025095e-35 1.0000000180025095e-35 54.500000000000007 1.0000000180025095e-35 1.0000000180025095e-35 45.500000000000007 1.0000000180025095e-35 51.500000000000007 50.500000000000007 1.0000000180025095e-35 70.500000000000014 75.500000000000014 28.500000000000004 29.500000000000004 25.500000000000004 1.0000000180025095e-35 76.500000000000014 34.500000000000007 26.500000000000004 25.500000000000004 31.500000000000004 1.0000000180025095e-35 56.500000000000007 55.500000000000007 57.500000000000007 1.0000000180025095e-35 1.0000000180025095e-35 1.0000000180025095e-35 24.500000000000004 67.500000000000014 64.500000000000014 61.500000000000007 1.0000000180025095e-35 66.500000000000014 45.500000000000007 36.500000000000007 54.500000000000007 1.0000000180025095e-35 49.500000000000007 51.500000000000007 1.0000000180025095e-35 1.0000000180025095e-35
decision_type=2 2 2 2 2 2 2 2 2 2 2 2 2 2 2 2 2 2 2 2 2 2 2 2 2 2 2 2 2 2 2 2 2 2 2 2 2 2 2 2 2 2 2 2 2 2 2 2 2 2 2 2 2 2 2 2 2 2 2
left_child=1 4 17 -2 5 6 -1 19 28 46 12 -6 35 -4 23 51 -17 -3 32 29 -16 -22 -20 52 25 -25 -27 -23 -9 31 -31 -7 -15 34 -34 36 38 43 -8 40 -39 -41 47 -37 45 -19 -10 48 -43 -49 -51 -13 -5 54 -54 58 57 -57 -56
right_child=3 2 13 14 11 7 10 8 9 -11 -12 15 -14 18 20 16 -18 44 22 -21 21 27 -24 24 -26 26 -28 -29 -30 30 -32 -33 33 -35 -36 37 -38 39 -40 41 -42 42 -44 -45 -46 -47 -48 49 -50 50 -52 -53 53 -55 55 56 -58 -59 -60
leaf_value=0.021659518981570949 0.00090177791925747568 0.0026199892658489324 0.00067906773931943596 -0.0014783305778716678 -0.0044932897499940132 0.0020100285933044252 0.0086312489403114652 0.0034550022479063721 -0.0044932896567107588 0.04542392857267448 -0.00075575186136617872 -0.0044932895950319778 0.0088583699427080016 -5.8438933950652518e-05 -0.0014383322950603339 0.035177779870072777 0.0074707639201606335 0.0010099393684440464 -0.0003108022478129171 -0.00096134707249115401 -0.0023880124190626393 -0.0020923379895663695 -0.0013435073453765278 0.0012323306111049195 -0.0013171471897134586 0.014386489188363055 -0.00076020038979206705 0.0032206120431568716 -0.0044932896628402394 0.0077732261590575868 0.0010478819075626334 -0.0032810042619348672 0.0043060933411482594 0.015222555509522085 0.00048450514706962832 0.0011011942657929243 0.011333719866182687 0.0021964850383166786 -0.0023649279414057235 0.00013804227442236618 0.0044341756946099991 0.0025212491406417783 -0.0030171445020202195 -0.0023169850052088352 0.00080693190142359483 0.0032382916987209937 0.008803202049965023 0.0058903047160240897 -0.00032868383827531177 -0.0044932895636265596 0.0057179169499940166 0.0081111953755235808 -0.00078112664329460393 -0.00099545223167900624 5.3686017744120913e-06 0.0033443287597750343 -0.00052666213866206925 0.016217244099939833 -0.0027960702760686474
leaf_count=7 820 982 2703 1602 9 49 12 250 11 8 203 5 33 26229 7613 5 10 598 3434 306 140 35 1159 277 242 13 11 160 13 38 1807 84 72 5 824 239 29 5310 28 320 299 771 41 84 1279 410 6 105 269 24 10 20 2294 9529 1018 165 351 15 159
internal_value=0 0.0494844 0.0110067 -0.0952816 0.186284 0.183523 0.206792 0.112873 0.409293 1.48324 0.204842 0.750808 0.212259 -0.00435955 -0.101852 1.00905 1.73357 0.169468 -0.0105852 0.075414 -0.136365 0.0329915 -0.0570678 -0.0845066 0.0379369 0.17312 0.745873 0.227033 0.306439 0.101835 0.118669 -0.130409 -0.00271085 0.0875836 0.0792581 0.20928 0.529851 0.206265 0.0954736 0.214604 0.231587 0.152734 0.189044 0.0213985 0.129732 0.191629 0.02618 0.206159 0.178918 0.410189 -0.148813 0.567651 -0.0889378 -0.0819203 -0.04028 0.0104066 0.115899 0.440836 -0.0372508
internal_count=72544 48100 37695 24444 10405 10356 7784 2572 288 25 7777 49 7574 34426 23624 40 15 3269 31723 2284 7948 335 4593 15676 543 301 24 195 263 1978 1845 133 27130 901 896 7541 69 7472 40 7149 5609 1540 1220 323 2287 1008 17 1179 1040 139 34 25 15133 13531 4002 1708 531 180 1177
shrinkage=0.01


Tree=15
num_leaves=60
num_cat=0
split_feature=4 8 4 8 4 7 4 13 13 4 4 4 4 4 1 2 4 4 14 4 13 1 4 1 4 4 13 2 2 4 4 4 4 14 7 7 2 1 2 4 13 4 4 4 8 4 4 1 8 1 4 4 4 2 1 13 4 4 4
split_gain=248.372 103.443 97.4134 48.9857 32.7794 21.5391 20.361 17.9513 17.899 16.5754 14.3887 13.7457 25.194 13.077 13.8977 11.703 10.8784 9.51433 8.77963 28.8264 18.6954 9.79454 8.48658 6.6757 6.33422 6.18211 6.16828 5.74939 5.71445 5.10728 11.5843 6.39154 7.57268 5.42952 8.61051 5.48543 5.47762 5.32819 7.78138 8.49933 6.44886 5.0112 6.87663 5.30494 4.92128 12.5532 14.4579 22.0122 4.91344 4.92481 9.95235 22.8935 4.99517 4.85477 4.77797 6.20711 17.3357 4.708 4.63014
threshold=57.500000000000007 1.0000000180025095e-35 90.500000000000014 1.0000000180025095e-35 134.00000000000003 1.0000000180025095e-35 51.500000000000007 1.0000000180025095e-35 1.0000000180025095e-35 59.500000000000007 51.500000000000007 63.500000000000007 60.500000000000007 53.500000000000007 1.0000000180025095e-35 1.0000000180025095e-35 69.500000000000014 58.500000000000007 1.0000000180025095e-35 61.500000000000007 1.0000000180025095e-35 1.0000000180025095e-35 118.50000000000001 1.0000000180025095e-35 61.500000000000007 165.50000000000003 1.0000000180025095e-35 1.0000000180025095e-35 1.0000000180025095e-35 64.500000000000014 67.500000000000014 63.500000000000007 61.500000000000007 1.0000000180025095e-35 1.0000000180025095e-35 1.0000000180025095e-35 1.0000000180025095e-35 1.0000000180025095e-35 1.0000000180025095e-35 85.500000000000014 1.0000000180025095e-35 73.500000000000014 76.500000000000014 83.500000000000014 1.0000000180025095e-35 106.50000000000001 100.50000000000001 1.0000000180025095e-35 1.0000000180025095e-35 1.0000000180025095e-35 100.50000000000001 106.50000000000001 118.50000000000001 1.0000000180025095e-35 1.0000000180025095e-35 1.0000000180025095e-35 78.500000000000014 88.500000000000014 73.500000000000014
decision_type=2 2 2 2 2 2 2 2 2 2 2 2 2 2 2 2 2 2 2 2 2 2 2 2 2 2 2 2 2 2 2 2 2 2 2 2 2 2 2 2 2 2 2 2 2 2 2 2 2 2 2 2 2 2 2 2 2 2 2
left_child=1 5 3 9 7 8 -3 48 10 23 -1 12 17 14 28 -7 -13 -5 19 20 -14 -21 44 -2 -20 -6 -23 -15 -8 31 -31 32 -11 34 37 -35 -36 -32 57 40 41 -40 -43 -44 45 46 -9 -48 -4 50 -50 -52 -53 -46 -18 58 -57 -39 -56
right_child=2 6 4 11 25 15 13 22 -10 29 -12 16 18 27 -16 -17 54 -19 24 21 -22 26 -24 -25 -26 -27 -28 -29 -30 30 33 -33 -34 35 36 -37 -38 38 39 -41 -42 42 43 -45 53 -47 47 -49 49 -51 51 52 -54 -55 55 56 -58 -59 -60
leaf_value=-0.0013463705065733401 0.003688300300004665 0.00082783523895720577 0.0028453320939460258 0.005273053846768092 0.011674946115561325 -0.00039130857663482581 0.009687625729952758 0.0094916177641321074 0.0007733249801787481 -5.8898100870535914e-05 0.00023485505281169771 0.00041793773029869316 0.048351755555521868 0.0028469069850379004 -6.6373979987166011e-05 -0.0014770068692829819 0.0036012236500265644 0.00041850145193104141 -0.0032358609813839508 0.010250324557068188 0.015438662086626092 -0.0044932896154313128 0.025713719986381636 0.0010158327063363374 0.0064651341364355209 0.0015010345654203328 0.0095127217296738058 -0.0012413333075527232 -0.0044932897042274751 0.0029744954172840773 0.0034339165754850571 -0.00065528210787555276 0.0016019132364135838 -0.00021293364748093004 0.0020211050475898761 0.00062139217862971 -0.00041160692327202645 -0.00040527105031844073 0.0051287738685524857 -0.004493289678462381 -0.0044932895604067671 0.027514424484307031 0.0013620764727786648 0.019000131174694505 0.003905130476801483 -0.0044932896819989887 0.048750770786492606 0.0074004392477350824 0.0038196611371032396 0.0023368671168344747 0.023846545680714346 0.0019181954807964922 0.015185007489667557 0.013563428671138167 -0.0029863886737394514 0.014705264095139763 -0.0026769575656843711 0.0048902478829595296 0.0016445469851410267
leaf_count=18578 489 5738 2613 129 110 19920 125 35 941 1599 1281 485 6 498 46 2301 751 218 16 105 8 17 5 318 88 13 10 81 6 433 454 1516 876 1990 276 8817 603 277 15 12 6 7 7 7 71 9 5 5 98 91 19 28 7 12 54 24 22 39 234
internal_value=0 -0.0555482 0.124671 0.0875129 0.357538 -0.0814668 0.11184 0.327447 -0.115 0.0624168 -0.124366 0.288563 0.471408 0.331032 0.669108 -0.0503561 0.218787 0.223482 0.812885 1.03523 2.9591 0.83116 0.81451 0.263484 0.497446 1.06071 0.0700889 0.227659 0.903826 0.0528658 0.0666602 0.00793252 0.0528869 0.0586984 0.133875 0.0468471 0.035427 0.239264 0.1116 0.613841 0.917389 1.14771 1.59794 1.01676 0.747422 1.07564 1.37453 2.85053 0.302638 0.494614 0.649538 1.13611 0.460045 0.531229 0.297604 0.155955 0.63804 0.0255542 0.0780212
internal_count=72544 49515 23029 19908 3121 43021 6494 2998 20800 17741 19859 2167 597 756 177 22221 1570 347 250 146 14 132 142 807 104 123 27 579 131 16934 12943 3991 2475 12510 1703 10807 879 824 370 54 42 36 21 14 137 54 45 10 2856 243 152 54 35 83 1085 334 46 316 288
shrinkage=0.01


Tree=16
num_leaves=60
num_cat=0
split_feature=4 4 4 9 15 13 13 4 15 5 5 13 4 13 5 9 4 4 4 4 5 4 4 5 4 4 5 12 5 5 4 11 15 4 4 5 5 5 5 4 4 4 4 11 5 15 4 5 5 5 5 4 5 5 5 4 12 5 4
split_gain=267.627 104.658 35.174 32.4888 35.1691 29.7473 20.0956 18.1639 15.9605 11.7018 10.9469 10.6647 10.2805 9.94813 8.80357 38.2471 8.06373 13.4549 7.34991 12.2075 19.9749 11.3942 18.0987 8.67575 8.15674 7.29832 8.46489 8.6402 6.86202 6.55021 6.28435 6.15436 7.28437 5.90789 5.67218 10.6293 9.42911 5.54747 5.33159 5.25012 5.00011 4.92426 4.85055 5.67805 7.51227 6.4544 5.33558 8.11353 13.7685 4.75832 7.69632 4.30517 9.77256 7.05787 4.27351 5.33797 12.033 7.94362 10.1036
threshold=54.500000000000007 90.500000000000014 139.50000000000003 1.0000000180025095e-35 1.0000000180025095e-35 1.0000000180025095e-35 1.0000000180025095e-35 118.50000000000001 1.0000000180025095e-35 10.500000000000002 9.5000000000000018 1.0000000180025095e-35 50.500000000000007 1.0000000180025095e-35 9.5000000000000018 1.0000000180025095e-35 63.500000000000007 57.500000000000007 69.500000000000014 75.500000000000014 7.5000000000000009 72.500000000000014 71.500000000000014 11.500000000000002 72.500000000000014 58.500000000000007 11.500000000000002 1.0000000180025095e-35 7.5000000000000009 2.5000000000000004 63.500000000000007 1.0000000180025095e-35 1.0000000180025095e-35 143.00000000000003 147.50000000000003 6.5000000000000009 8.5000000000000018 3.5000000000000004 12.500000000000002 65.500000000000014 73.500000000000014 52.500000000000007 100.50000000000001 1.0000000180025095e-35 5.5000000000000009 1.0000000180025095e-35 112.50000000000001 8.5000000000000018 6.5000000000000009 6.5000000000000009 8.5000000000000018 61.500000000000007 6.5000000000000009 3.5000000000000004 8.5000000000000018 57.500000000000007 1.0000000180025095e-35 5.5000000000000009 56.500000000000007
decision_type=2 2 2 2 2 2 2 2 2 2 2 2 2 2 2 2 2 2 2 2 2 2 2 2 2 2 2 2 2 2 2 2 2 2 2 2 2 2 2 2 2 2 2 2 2 2 2 2 2 2 2 2 2 2 2 2 2 2 2
left_child=3 5 6 4 11 8 37 14 10 13 54 -1 28 31 -8 -16 17 -12 23 20 21 22 -20 30 -22 -19 27 -27 -6 -14 51 32 34 -11 35 -4 -37 -3 -28 -32 -26 -5 -39 44 -44 -46 -47 48 -48 -41 -51 -10 53 -53 55 56 57 58 -2
right_child=1 2 9 41 12 -7 7 -9 18 33 16 -13 29 -15 15 -17 -18 25 19 -21 24 -23 -24 -25 40 26 38 -29 -30 -31 39 -33 -34 -35 -36 36 -38 42 -40 49 -42 -43 43 -45 45 46 47 -49 -50 50 -52 52 -54 -55 -56 -57 -58 -59 -60
leaf_value=-0.00054267309904884489 0.0062242990542868285 -0.00085361150530928443 0.03560132489739503 0.0020856342017682582 -0.0017310026498584979 0.0029318653454055406 0.010359090990281211 0.029787402323740754 0.0012758397755082583 0.011666957821727497 0.00044195638000658097 0.00034941132576228433 0.013894727680110389 -0.0044932896595106468 -0.00091478740418101854 0.037827099860340142 0.00077196159216828971 0.0061985018274912373 0.024387326966770165 0.002004190331857733 -0.00020178506300712738 0.022790727352734477 0.0041079744994761344 0.020259002334067668 0.015945073352357623 0.0021845996960866412 0.021221874066415698 0.01644543259725759 -0.001065968268922704 0.00064959693945336461 -0.0027176754490233134 0.0015566778755981071 -0.0044932896950938672 0.025988051828022093 0.0096030390268649294 0.0065003747181310483 0.024085059545212228 0.0026600430957827792 0.0041642217264570127 -0.003827037795446023 0.0038990007465347161 -0.0033400858357271941 0.008324963721222 0.00067560766594481627 0.0035091515542750419 0.012213121672560586 -0.0044932896201379342 -0.0044932896970697129 0.022076991459786068 0.0080414197903950733 0.00017835575462786849 -0.0044932897243910013 0.0017625015366517273 0.0099342856560038426 -0.00013419608989785045 0.00060071738235251658 0.016117241428873295 -0.0012106858686282025 -1.259220064587385e-05
leaf_count=29299 71 72 5 947 6750 1265 76 7 637 9 696 3021 8 10 50 5 4855 131 12 382 67 17 36 5 12 753 8 8 6320 407 128 13 5 12 37 14 10 1684 7 31 17 35 81 101 845 32 7 13 9 36 88 8 178 58 2984 9046 9 899 216
internal_value=0 0.116275 0.360264 -0.0657612 -0.0714212 0.0822238 0.329802 0.849576 0.069468 1.10874 0.0579462 -0.0458033 -0.133778 0.89112 0.72913 0.301054 0.10626 0.194344 0.202357 0.339897 0.670402 1.28266 0.922554 0.138104 0.255274 0.309016 0.256023 0.234974 -0.140931 0.0903932 0.129997 1.04417 1.20332 2.00002 1.32274 1.77738 1.3869 0.303722 1.31843 -0.056094 0.887541 0.189302 0.313822 0.387548 0.42033 0.383209 0.82693 0.3842 1.06033 0.121174 0.246465 0.189826 0.351765 0.821285 0.0343255 0.0482184 -0.0420206 -0.0545785 0.15318
internal_count=72544 25757 3097 46787 45805 22660 2982 138 21395 115 19683 32320 13485 94 131 55 6458 1603 1712 543 161 65 48 1169 96 907 776 761 13070 415 1164 84 71 21 66 29 24 2844 15 283 29 982 2772 1088 987 906 61 29 16 155 124 881 244 66 13225 10241 1195 1186 287
shrinkage=0.01


Tree=17
num_leaves=60
num_cat=0
split_feature=4 4 0 3 0 4 0 3 0 3 0 1 3 14 2 0 4 4 4 3 7 4 0 3 0 3 3 0 3 1 4 2 3 7 4 0 3 3 1 7 7 3 1 4 4 7 4 3 4 3 3 3 14 4 3 1 2 4 0
split_gain=268.749 95.2736 65.1741 63.3495 37.0389 31.5417 49.0699 29.6319 21.6377 21.0627 38.9021 18.8083 18.1949 19.5963 17.3561 16.7516 14.117 12.7372 23.861 29.0165 20.9322 15.0663 12.1236 12.02 11.5227 11.6295 21.2113 10.528 10.3133 11.8045 11.9613 9.75458 9.63014 16.168 9.38099 8.33247 8.24361 9.45537 8.23879 7.72667 7.53923 7.41555 7.69607 14.3177 27.4908 7.31678 11.6582 46.18 23.7782 11.0074 11.1759 8.87661 8.78881 9.17297 12.0449 8.27582 7.30669 7.14814 8.88937
threshold=54.500000000000007 90.500000000000014 275.50000000000006 68.500000000000014 466.50000000000006 143.00000000000003 331.50000000000006 25.500000000000004 106.50000000000001 61.500000000000007 493.50000000000006 1.0000000180025095e-35 56.500000000000007 1.0000000180025095e-35 1.0000000180025095e-35 516.50000000000011 139.50000000000003 72.500000000000014 75.500000000000014 36.500000000000007 1.0000000180025095e-35 73.500000000000014 67.500000000000014 78.500000000000014 633.50000000000011 71.500000000000014 74.500000000000014 162.50000000000003 45.500000000000007 1.0000000180025095e-35 73.500000000000014 1.0000000180025095e-35 29.500000000000004 1.0000000180025095e-35 164.50000000000003 82.500000000000014 38.500000000000007 51.500000000000007 1.0000000180025095e-35 1.0000000180025095e-35 1.0000000180025095e-35 50.500000000000007 1.0000000180025095e-35 64.500000000000014 58.500000000000007 1.0000000180025095e-35 112.50000000000001 32.500000000000007 118.50000000000001 31.500000000000004 47.500000000000007 38.500000000000007 1.0000000180025095e-35 134.00000000000003 22.500000000000004 1.0000000180025095e-35 1.0000000180025095e-35 71.500000000000014 180.50000000000003
decision_type=2 2 2 2 2 2 2 2 2 2 2 2 2 2 2 2 2 2 2 2 2 2 2 2 2 2 2 2 2 2 2 2 2 2 2 2 2 2 2 2 2 2 2 2 2 2 2 2 2 2 2 2 2 2 2 2 2 2 2
left_child=3 2 17 12 5 8 7 11 45 10 39 -7 13 -1 16 -12 24 35 19 31 27 -22 -9 38 25 -11 -27 -21 29 30 -29 -19 33 -15 -13 -2 -37 41 -10 -6 -33 -38 43 44 -43 -3 49 52 51 -47 -51 -49 -48 54 55 -54 -34 -39 -59
right_child=1 4 -4 -5 9 6 -8 22 23 14 15 34 -14 32 -16 -17 -18 18 -20 20 21 -23 -24 -25 -26 26 -28 28 -30 -31 -32 40 56 -35 -36 36 37 57 -40 -41 -42 42 -44 -45 -46 46 47 48 -50 50 -52 -53 53 -55 -56 -57 -58 58 -60
leaf_value=0.00056388420466615551 0.0026009170794575099 0.001941539736328059 0.0021653148102016664 -0.0018947438287720414 0.013427299738068579 0.035995885428594526 0.048336490805657169 0.016554839167553622 0.0025595227354193871 0.0028303169370812583 0.050380118248678739 0.021362564639766098 -0.0008886219497081199 0.021587658568588006 0.02410841351021193 0.020127706149479303 0.027422424488669623 -0.0015303797272380772 0.00069338217639584052 0.0036025814866377684 0.02386054997585459 0.0016845927535323432 -0.0013162154030453468 0.023790633276786606 -0.0044932895655861041 0.037040845204315623 0.0078482342315965899 0.030769390408708738 0.042377657169071992 0.039395971275755691 0.0030390498452811917 -0.0044932896392299365 -0.00034149093688013105 0.0020204958299641297 -0.0044932897504466347 -0.00029481617416550964 0.0010136349053637083 -0.0030136746238327446 0.00047940992767247712 -0.0044932897449983375 0.016096057804059663 0.0057361782395852958 -0.00014995268502142686 -0.004493289611860015 0.048421175916463846 0.0045213765304325405 8.4330534442966445e-05 0.027294242778069484 0.0038910098498883068 -0.0025378594295942061 0.019200409243126059 0.048304315123552537 0.0059658663159919802 0.021309149915728291 0.0035179491818909526 0.019471633399596733 -0.0012118612512631247 -0.0044932896449590967 0.010539223462968057
leaf_count=5195 246 222 5660 7424 14 9 6 9 949 53 7 6 12517 10 11 6 5 69 8004 5 8 30 37 5 23 6 24 5 6 5 8 5 19350 57 5 6704 1632 194 647 7 13 8 14 6 5 754 48 12 7 72 5 6 17 8 94 19 2238 14 19
internal_value=0 0.116245 0.0837508 -0.0661302 0.348759 0.312789 1.21329 0.855596 0.288912 1.01473 1.95572 2.22387 -0.0432956 -0.0222561 0.732223 3.71693 0.562548 0.0393871 0.0800735 0.636955 1.34146 0.63482 0.227595 0.178702 0.445521 0.690685 1.38265 2.24056 2.62674 2.09452 1.38691 0.091334 -0.0414475 0.501061 0.963633 0.00163814 -0.00585622 0.0776071 0.171813 0.74837 1.02967 0.115009 0.784624 1.37844 2.22066 0.426296 0.475844 0.771162 2.56996 0.400539 -0.11017 3.43627 0.530137 0.709489 0.617165 1.30869 -0.0431483 -0.196491 0.418967
internal_count=72544 25753 22660 46791 3093 2937 72 66 2865 156 34 20 39367 26850 122 13 111 17000 8158 154 67 38 46 1601 106 83 30 29 24 18 13 87 21655 67 11 8842 8596 1892 1596 21 18 1665 33 19 13 1264 1042 211 25 831 77 18 186 138 130 36 21588 227 33
shrinkage=0.01


Tree=18
num_leaves=60
num_cat=0
split_feature=6 7 5 5 15 5 5 12 5 5 5 1 5 1 5 10 5 10 1 12 5 14 5 14 10 15 5 1 15 12 14 5 14 5 5 1 14 5 5 5 15 5 14 12 5 5 5 14 14 1 10 5 1 14 5 5 5 5 5
split_gain=154.521 114.661 14.1756 12.908 10.0364 11.2175 6.28567 6.22865 8.57302 4.36591 5.29839 4.12622 4.94823 4.10702 4.19924 4.08879 3.41858 3.13653 3.02169 10.2021 10.6437 7.03116 3.23836 3.17589 2.79802 2.73075 3.27838 6.36549 2.64147 2.99248 2.76588 2.71232 2.3904 3.51923 3.97408 2.31252 2.47252 2.12386 3.2 2.04683 2.11944 2.08674 3.32861 1.90555 1.8676 3.41629 1.85621 4.8215 3.60122 1.71015 2.819 2.66995 1.68383 8.63193 1.90015 1.68117 4.41388 1.62641 1.5588
threshold=1.0000000180025095e-35 1.0000000180025095e-35 10.500000000000002 9.5000000000000018 1.0000000180025095e-35 6.5000000000000009 5.5000000000000009 1.0000000180025095e-35 5.5000000000000009 5.5000000000000009 3.5000000000000004 1.0000000180025095e-35 6.5000000000000009 1.0000000180025095e-35 4.5000000000000009 1.0000000180025095e-35 5.5000000000000009 1.0000000180025095e-35 1.0000000180025095e-35 1.0000000180025095e-35 8.5000000000000018 1.0000000180025095e-35 10.500000000000002 1.0000000180025095e-35 1.0000000180025095e-35 1.0000000180025095e-35 11.500000000000002 1.0000000180025095e-35 1.0000000180025095e-35 1.0000000180025095e-35 1.0000000180025095e-35 10.500000000000002 1.0000000180025095e-35 8.5000000000000018 6.5000000000000009 1.0000000180025095e-35 1.0000000180025095e-35 4.5000000000000009 3.5000000000000004 3.5000000000000004 1.0000000180025095e-35 4.5000000000000009 1.0000000180025095e-35 1.0000000180025095e-35 10.500000000000002 8.5000000000000018 9.5000000000000018 1.0000000180025095e-35 1.0000000180025095e-35 1.0000000180025095e-35 1.0000000180025095e-35 6.5000000000000009 1.0000000180025095e-35 1.0000000180025095e-35 12.500000000000002 8.5000000000000018 7.5000000000000009 4.5000000000000009 7.5000000000000009
decision_type=2 2 2 2 2 2 2 2 2 2 2 2 2 2 2 2 2 2 2 2 2 2 2 2 2 2 2 2 2 2 2 2 2 2 2 2 2 2 2 2 2 2 2 2 2 2 2 2 2 2 2 2 2 2 2 2 2 2 2
left_child=1 4 6 7 5 9 17 32 13 10 35 12 -6 14 -9 -11 -13 39 22 21 -21 58 46 -24 28 52 27 -27 29 30 31 -5 -2 34 37 36 -1 38 -34 -3 41 42 -41 -12 45 -18 48 -48 -7 -8 -51 -52 -4 -54 -55 56 -50 -15 -20
right_child=3 2 25 24 11 18 49 8 -10 15 43 16 -14 57 -16 -17 44 -19 19 20 -22 -23 23 -25 -26 26 -28 -29 -30 -31 -32 -33 33 -35 -36 -37 -38 -39 -40 40 -42 -43 -44 -45 -46 -47 47 -49 55 50 51 -53 53 54 -56 -57 -58 -59 -60
leaf_value=-0.00086981097419855608 -0.0013433508765139292 -7.5598564841642334e-05 0.0006425242075827058 -1.4036954136048977e-05 0.0054952002624047928 0.0016514740580488461 -0.0001702043109010282 -0.003664183292813632 -0.00062185128731276763 2.8227598112988488e-05 0.001981565855697409 -0.00449328955007346 0.0029308446066819939 0.0070168936393234186 0.0053115476063412548 0.0025410601285115555 0.0029079291106444429 -0.0044932896914806992 0.0013398220389166757 -0.0012004485130713189 0.023218222921728874 0.00042774873240530978 0.00078953137482265653 0.0022822791080189318 -0.0034980325991105484 0.003004439224772179 -0.0044932896661711999 0.018969007847416341 -0.00069350995226652944 -0.0018891944924121207 -0.00017569620057797681 0.0032036451459839517 -0.0015480532064559092 -0.0016251381523879175 -0.00030240033426195441 -0.0030352992755956149 0.0028821818011744993 -0.0016112122786508677 0.00061232881813517851 0.0041543775643974644 0.0091588227143062743 0.00042704955462147622 0.00095774875216298903 -0.0044932896703968597 0.0056047025175780139 -0.00237014790055306 0.0035271241164183688 0.0017399041135661519 0.0026487135403951466 6.7916691582222972e-05 0.0028333445849457062 -0.0041382450748582043 0.004957380116084994 0.00099883187275264548 -0.0044932896571434596 0.002028759265506848 0.0057330331496027722 0.0023363851070495388 0.0026399052737359776
leaf_count=112 10819 975 2230 115 198 1542 16152 25 425 1229 969 20 627 55 19 147 71 26 270 6 8 870 638 520 63 19 6 7 4173 199 3457 101 304 1241 2008 56 52 1135 269 71 6 2686 1101 9 22 38 711 530 614 12772 14 58 118 1423 13 471 110 21 598
internal_value=0 0.0474559 0.0102274 -0.0934034 0.178848 0.164666 0.000856502 -0.116908 0.0345157 0.0844249 0.147201 0.315588 0.354833 0.372274 0.0214737 0.029674 0.0993964 0.0485627 0.19448 0.143479 1.31524 0.133437 0.21181 0.145855 -0.046316 0.0930462 0.508962 0.727521 -0.0439418 -0.0169617 -0.0076495 0.149626 -0.122196 -0.0959992 -0.0737705 -0.0526195 0.0324104 -0.124944 -0.053351 0.0512275 0.0660348 0.064707 0.11528 0.19201 0.182776 0.106542 0.231052 0.276525 0.210388 -0.00717321 0.00519207 -0.277851 0.08951 0.125722 0.0948828 0.268998 0.311971 0.572669 0.223648
internal_count=72544 48115 37677 24429 10438 9462 33861 16321 545 2574 1198 976 825 120 44 1376 151 4865 6888 1752 14 1738 5136 1158 8108 3816 32 26 8045 3872 3673 216 15776 4957 3716 220 164 1708 573 4839 3864 3858 1172 978 131 109 3978 1241 2737 28996 12844 72 3784 1554 1436 1195 724 76 868
shrinkage=0.01


Tree=19
num_leaves=60
num_cat=0
split_feature=6 8 12 0 0 13 0 0 2 0 0 1 0 10 0 13 0 0 0 0 10 12 0 1 0 2 0 0 0 0 0 0 0 0 0 0 0 0 1 2 0 0 1 0 1 0 0 0 1 0 0 0 10 2 0 0 10 0 0
split_gain=160.696 84.2605 48.7707 40.3769 15.1474 13.132 8.45619 7.71946 7.38015 7.15719 6.73194 5.33243 9.96526 12.4645 6.68885 6.04346 11.5387 5.54108 9.23174 8.72461 5.10501 5.02516 6.36139 4.56297 5.18581 5.80374 4.36593 12.3473 5.13928 11.7049 6.94149 6.65709 4.95993 4.32035 7.78879 7.39884 8.24991 7.2229 7.21305 7.28478 6.52959 4.75607 5.146 4.61916 4.47863 4.12345 5.06905 3.55293 3.46764 5.2642 3.43839 9.27619 11.5488 12.0241 4.01274 3.4286 4.08075 3.33552 11.1278
threshold=1.0000000180025095e-35 1.0000000180025095e-35 1.0000000180025095e-35 94.500000000000014 82.500000000000014 1.0000000180025095e-35 400.50000000000006 136.50000000000003 1.0000000180025095e-35 67.500000000000014 323.50000000000006 1.0000000180025095e-35 587.50000000000011 1.0000000180025095e-35 259.50000000000006 1.0000000180025095e-35 474.50000000000006 493.50000000000006 474.50000000000006 483.50000000000006 1.0000000180025095e-35 1.0000000180025095e-35 251.50000000000003 1.0000000180025095e-35 49.500000000000007 1.0000000180025095e-35 493.50000000000006 516.50000000000011 188.50000000000003 153.50000000000003 117.50000000000001 171.50000000000003 180.50000000000003 384.50000000000006 392.50000000000006 291.50000000000006 242.50000000000003 259.50000000000006 1.0000000180025095e-35 1.0000000180025095e-35 275.50000000000006 436.50000000000006 1.0000000180025095e-35 251.50000000000003 1.0000000180025095e-35 516.50000000000011 541.50000000000011 444.50000000000006 1.0000000180025095e-35 82.500000000000014 331.50000000000006 315.50000000000006 1.0000000180025095e-35 1.0000000180025095e-35 323.50000000000006 633.50000000000011 1.0000000180025095e-35 283.50000000000006 299.50000000000006
decision_type=2 2 2 2 2 2 2 2 2 2 2 2 2 2 2 2 2 2 2 2 2 2 2 2 2 2 2 2 2 2 2 2 2 2 2 2 2 2 2 2 2 2 2 2 2 2 2 2 2 2 2 2 2 2 2 2 2 2 2
left_child=1 2 3 48 -2 7 20 -5 55 23 -10 14 15 -14 -11 17 -17 18 21 -20 57 50 -23 24 -3 -26 28 -28 29 30 -7 -31 -33 35 -35 36 -30 43 39 40 -39 42 -36 -38 -45 -18 -47 -43 -1 -50 51 -13 53 -53 -54 -9 -57 -6 -59
right_child=4 9 -4 5 6 26 -8 8 10 11 -12 12 13 -15 -16 16 45 -19 19 -21 -22 22 -24 -25 25 -27 27 -29 33 31 -32 32 -34 34 41 -37 37 38 -40 -41 -42 47 -44 44 -46 46 -48 -49 49 -51 -52 52 54 -55 -56 56 -58 58 -60
leaf_value=0.002066002450100678 0.001840351806815365 0.020783971092178284 0.02865575725955178 0.00060966743026018408 -0.00082392284220863751 0.0059302122342600261 -0.0011626340686941557 5.1551906009654321e-06 -0.00033944864064012012 0.0026944140060567363 -0.0017583566458256085 0.00066472719590542431 0.016952684007119322 -0.0044932896723289149 0.0016596065375298083 0.0018010082994326304 0.013736394210269971 -0.0037684580588513857 0.015095459607649355 0.00057037595313699123 -0.0038582148417583098 -0.0044932897675289086 0.015123038024874342 0.0037287905208754774 0.01846223939023936 -0.00017516807870436753 0.010234519686941968 0.00049591438208261823 -0.00058587917261418096 0.0098340316605344362 -0.0027665707543404316 -0.0015080567411954705 0.006868419621264046 0.0088792467725158069 0.0040987305012665162 -0.0012118950086057135 0.0036084860828697143 -0.0013257503526655251 -0.002562990628627746 0.019275324843228313 0.0066472294632341023 -0.0044932896857646934 -0.0010241370354735261 0.0055377404825037845 0.015873712101013297 -0.0044932897014067141 0.012472465174908909 0.0006484362952437387 0.0015547201138325477 -5.4182410496276264e-05 -0.00029967276330658473 0.0003086806687239642 0.021682055063945337 0.01808083836220829 0.0081742967160106979 0.0072767653474140057 -0.0044932897019363226 0.001870780230333575 -0.00052827545313159749
leaf_count=1601 396 7 10 3758 4323 25 15754 25601 3167 1663 891 983 17 8 5106 393 23 56 17 16 99 5 10 43 5 9 40 74 197 54 71 27 30 30 161 403 35 38 53 6 45 33 53 16 18 7 7 158 1973 521 601 55 10 9 8 26 8 456 3335
internal_value=0 0.0520124 0.0228745 0.021971 -0.0917651 0.00600665 -0.0964914 -8.16993e-05 -0.00789767 0.175156 -0.0649318 0.171718 0.111244 1.0028 0.191488 0.101073 0.251674 0.0641379 0.0785393 0.81742 -0.0590557 0.0637516 0.876164 0.638488 1.1576 0.654821 0.13324 0.401018 0.112179 0.319136 -0.0469554 0.630147 0.291103 0.0775793 0.191797 0.016065 0.150944 0.346271 0.16294 0.407921 0.299775 0.139816 0.284789 0.723924 1.09709 1.00509 0.402405 -0.0239796 0.155201 0.121989 0.0562842 0.104853 0.565129 0.280782 1.57006 0.00112471 0.455626 -0.0550991 -0.0237732
internal_count=72544 48181 39123 39113 24363 35018 23967 33451 29693 9058 4058 8994 2225 25 6769 2200 430 1770 1714 33 8213 1681 15 64 21 14 1567 114 1453 207 96 111 57 1246 435 811 408 211 142 89 83 405 214 69 34 37 14 191 4095 2494 1666 1065 82 64 18 25635 34 8114 3791
shrinkage=0.01


Tree=20
num_leaves=60
num_cat=0
split_feature=8 3 3 5 13 5 14 3 5 5 5 3 3 1 5 3 3 3 5 13 13 3 5 3 5 14 1 1 12 3 3 3 3 7 13 3 3 1 5 5 1 5 3 7 3 5 14 3 3 3 3 1 5 5 5 3 3 7 5
split_gain=150.034 76.0639 44.2693 18.5903 17.4911 17.3314 12.398 15.9513 9.16335 9.91281 7.22441 7.10772 6.89752 6.48199 8.0153 6.18855 14.872 11.4976 23.2586 13.7296 11.1781 7.4691 6.41013 7.26354 7.94694 30.9365 8.24638 6.00346 5.95233 5.8495 18.0877 5.44277 6.30126 9.13115 5.49288 5.34485 5.22896 5.13547 4.88775 9.15693 4.74576 5.85378 4.66584 4.66399 7.76626 10.0896 4.71406 4.46244 4.36763 4.35013 9.28741 4.24398 6.2954 10.51 6.64029 14.5926 5.8921 11.6415 5.27571
