tree
version=v2
num_class=1
num_tree_per_iteration=1
label_index=0
max_feature_idx=17
objective=poisson
feature_names=LicAge Gender MariStat DrivAge HasKmLimit BonusMalus RiskArea VehUsage_Private VehUsage_Private+trip_to_office VehUsage_Professional VehUsage_Professional_run SocioCateg_CSP1 SocioCateg_CSP2 SocioCateg_CSP3 SocioCateg_CSP4 SocioCateg_CSP5 SocioCateg_CSP6 SocioCateg_CSP7
feature_infos=[2:940] [0:1] [0:1] [20:99] [0:1] [50:185] [1:13] [0:1] [0:1] [0:1] [0:1] [0:1] [0:1] [0:1] [0:1] [0:1] [0:1] [0:1]
tree_sizes=4596 4718 4803 4726 4711 4757 4701 4832 4822 4872 4719 4741 4721 4707 4831 4696 4680 4826 4724 4681 4774 4781 4699 4820 4882 4727 4884 4729 4986 4860 4794 4847 4776 4794 3370 4710 4776 4795 4765 4706 4824 5138 4828 2646 4743 4850 4856 4749 4753 4812 4872 4717 4823 4781 4852 4680 4908 4837 4761 4815 4862 4715 4722 4817 4736 4537 4748 4720 4764 4854 4734 4835 4856 4730 4826 4771 4711 4861 4758 4867 4779 4827 4759 4725 4751 4816 4772 4784 4759 4720 4773 4765 4759 4914 4742 4860 4775 4760 4724 4821 4741 4792 4894 4802 4854 4929 4725 4725 4800 4792 4723 5006 4894 4799 4749 4778 4811 4831 4915 4790 4882 4870 4789 4809 4914 4868 4760 4754 4888 4774 4765 4756 4834 4803 4777 4727 4834 4788 4887 4872 4803 4844 4789 4976 4907 4783 4811 4743 4906 4763 4826 4884 4878 4820 4808 4808 4738 4778 4732 4718 4773 4825 4770 4872 5120 4914 4923 4903 4749 4069 4054 4875 4730 4827 4854 4802 4820 4789 4893 4798 4815 4000 4812 4898 4865 4755 4771 4983 4825 4688 4866 4784 4751 4754 4740 4720 4785 4805 4812 4811 4734 4849 4850 4840 4891 4868 4873 5010 4714 4872 4793 4774 4789 4852 4748 4911 4862 4844 4806 4914 4862 4879 4793 4770 4896 4791 4822 4851 4781 4849 4851 4851 4806 4908 4695 4942 4750 4803 4793 4664 4727 4827 5009 4895 4814 4840 4692 4783 4795 4800 4765 4855 4838 4838 4708 4885 4893 4760 4887 4962 4808 4888 4897 4860 4791 4872 4933 4900 4806 5046 4894 4922 4807 4827 4824 4771 4749 4770 4727 4798 5007 4930 4810 4826 4919 5029 4796 4902 4818 4870 4940 4792 4880 4825 4778 4764 4750 4722 4783 4727 4726 4912 4989 4769 4725 4791 4820 4793 4781 4721 4724 4892 4900 4870 4786 4811 4781 4873 4833 4840 4743 4824 4848 4988 4908 4824 4779 4910 4866 4842 4907 4837 4840 4792 4752 4771 4755 4808 4786 4895 4881 4938 4848 4764 4840 4899 4863 4812 4900 4924 4844 4849 4882 4795 4745 4861 4916 4744 4758 4781 4789 4779 4881 4789 4911 4810 4799 4831 4753 4913 4953 4723 4844 4807 4978 4847 4740 4766 4836 4740 4908 4807 4759 4847 4868 4793 4916 4888 5037 4931 4766 4715 4798 4920 4860 4998 4752 4844 4800 4764 4894 4896 4736 4848 4914 4802 4846 4773 4853 4909 4769 4803 4795 4857 4900 4902 4772 4839 4793 4741 4773 4909 4929 4920 4933 4781 4800 4791 5027 3594 4872 4773 4827 4739 4852 4781 4878 4898 4763 4834 5045 4797 4761 4819 4979 4791 4777 4842 4730 4745 4919 4881 4820 4835 4785 4768 5029 4903 4886 4878 4763 4930 4791 4855 4896 4787 5022 4775 4867 4766 4787 4853 4791 4676 4798 4834 4912 4817 4783 4904 4860 4783 4705 4744 4888 4833 4750 4938 4795 4847 4790 4715 4799 5054 4870 4776 4865 4916 3350 4865 4716 4800 4784 4830 4877 4842 4741 4918 4816 4713 4935 4864 4874 4770 5028 5064 4801 4898 4781 4726 4956 4915 4911 4933 4858 4754 4909 5058 4749 4782 4835 4894 5070 4735 4840 4766 4885 4809 4730 4812 4883 4759 4774 4949 4708 4728 4875 4801 4879 4794 4963 4838 4739 4825 4716 4987 4848 4719 5084 4847 4815 4993 4769 4711 4823 4765 4034 4884 4907 4818 4728 5009 4791 5052 4827 4740 4861 4915 4958 4896 4902 4823 5001 4748 4832 4878 4778 4699 4906 4836 4743 5047 4889 4794 4718 4756 4914 4924 4755 5085 4833 4812 4970 4898 4878 5082 4729 4727 4862 4714 4772 4853 4831 4728 4918 4732 4811 4837 4862 4793 4770 4898 4852 4746 4822 4774 4723 4770 4785 3173 4940 4730 4908 4947 4796 4792 4917 4876 4811 4745 4908 4714 5063 4867 4920 4735 4764 4898 4921 4854 4858 4918 4780 4962 4775 4685 4892 4759 4808 4753 4882 4760 4801 4736 4741 4731 4753 4896 4783 5048 4864 4887 5059 5063 4881 4796 4762 4812

Tree=0
num_leaves=60
num_cat=0
split_feature=5 5 0 10 5 0 8 0 0 13 0 6 5 15 0 0 0 0 0 15 6 8 5 0 0 6 6 5 6 6 8 6 0 0 6 6 0 0 0 8 8 5 6 12 6 5 0 8 5 0 5 0 6 0 0 5 0 8 6
split_gain=280.01 91.8749 61.9854 52.22 24.5096 26.5142 47.6479 23.5842 23.304 17.748 17.3242 41.8514 28.9687 20.6673 16.8118 15.9434 15.3212 38.7544 12.9441 14.3337 12.7011 13.4738 18.1908 12.9302 15.7569 19.0219 11.3442 12.9039 17.4839 11.1689 9.74571 9.24709 9.12521 10.594 18.8296 10.0331 27.4557 30.8922 17.8852 10.4004 8.89262 8.88028 8.92775 8.64894 10.7642 12.302 8.19804 9.16922 8.19643 10.8597 8.13776 7.67197 7.57657 7.55118 17.7265 46.066 7.88696 7.55848 16.4792
threshold=57.500000000000007 90.500000000000014 259.50000000000006 1.0000000180025095e-35 132.50000000000003 504.50000000000006 1.0000000180025095e-35 408.50000000000006 528.50000000000011 1.0000000180025095e-35 331.50000000000006 7.5000000000000009 143.00000000000003 1.0000000180025095e-35 94.500000000000014 82.500000000000014 587.50000000000011 555.50000000000011 106.50000000000001 1.0000000180025095e-35 4.5000000000000009 1.0000000180025095e-35 51.500000000000007 224.50000000000003 233.50000000000003 10.500000000000002 9.5000000000000018 106.50000000000001 10.500000000000002 8.5000000000000018 1.0000000180025095e-35 10.500000000000002 233.50000000000003 188.50000000000003 5.5000000000000009 10.500000000000002 283.50000000000006 251.50000000000003 259.50000000000006 1.0000000180025095e-35 1.0000000180025095e-35 50.500000000000007 6.5000000000000009 1.0000000180025095e-35 7.5000000000000009 63.500000000000007 94.500000000000014 1.0000000180025095e-35 100.50000000000001 408.50000000000006 112.50000000000001 474.50000000000006 9.5000000000000018 415.50000000000006 374.50000000000006 106.50000000000001 392.50000000000006 1.0000000180025095e-35 4.5000000000000009
decision_type=2 2 2 2 2 2 2 2 2 2 2 2 2 2 2 2 2 2 2 2 2 2 2 2 2 2 2 2 2 2 2 2 2 2 2 2 2 2 2 2 2 2 2 2 2 2 2 2 2 2 2 2 2 2 2 2 2 2 2
left_child=3 2 -2 7 5 18 16 20 -8 -5 14 -12 -13 -14 15 52 17 29 19 -3 -1 22 -22 -24 25 -25 40 28 -28 -7 -4 -23 33 -20 -35 53 37 -37 -39 48 -21 -9 -43 -32 45 -45 47 50 -38 -50 -29 -51 -6 54 57 56 -56 -34 -59
right_child=1 4 30 9 10 6 8 41 -10 -11 11 12 13 -15 -16 -17 -18 -19 32 26 21 31 23 24 -26 -27 27 46 -30 -31 43 -33 35 34 -36 36 39 38 -40 -41 -42 42 -44 44 -46 -47 -48 -49 49 51 -52 -53 -54 -55 55 -57 -58 58 -60
leaf_value=-1.5251821153994309 -1.525468266443103 -1.5253221498696619 -1.5231057652298809 -1.5235403955041358 -1.5194081339157617 -1.5282872476445346 -1.4643272738026967 -1.5270504656459478 -1.5063508622118245 -1.502045166668005 -1.5304627568876521 -1.5166845311679613 -1.4973950151603941 -1.4560603385556625 -1.5245578030077847 -1.4960171927424086 -1.5249514666545256 -1.4908503580590287 -1.5237287307510079 -1.5255500288886288 -1.5262386797822174 -1.5267835041093627 -1.5259860771420968 -1.5195212247800067 -1.5235954450982725 -1.4960171927424086 -1.517566337655905 -1.5097954182421227 -1.5268541740026176 -1.5128955193953144 -1.5244600754026989 -1.5255663224357638 -1.5207580935787544 -1.5144925406495626 -1.5284534323370362 -1.524384127957076 -1.5241035758099462 -1.4875382847967324 -1.5113852138203627 -1.5288729616794243 -1.5213133229318492 -1.5280041887844451 -1.5249927188299413 -1.4891280799133599 -1.5278793396999459 -1.5186528491279172 -1.5235736440996659 -1.5090299614263443 -1.5235736439764789 -1.4891280799133599 -1.5304627568876521 -1.5132399749176861 -1.5060377204265594 -1.5275518641516588 -1.5097954185134275 -1.4725942090497308 -1.5241726972998824 -1.5038904644942412 -1.5264031011089918
leaf_count=1816 14810 197 2989 1036 43 19 5 20284 6 8 9 6 5 5 56 9 45 12 844 122 7892 14706 554 34 632 9 125 7 63 20 2145 1414 115 22 216 17 26 13 13 39 637 269 835 5 8 7 15 54 9 5 9 6 11 71 12 5 23 7 168
internal_value=0 0.133086 0.0973762 -0.0587339 0.363725 0.335427 1.03795 -0.0655892 3.87202 0.259379 0.942846 2.03075 3.4258 4.92418 0.714294 1.22374 0.713209 1.25269 0.308959 0.420078 -0.0373877 -0.0457423 -0.00158573 0.161106 0.294695 1.13677 0.487911 0.739232 0.529072 0.557541 0.233166 -0.0707269 0.224188 0.148534 -0.119346 0.378927 0.729355 1.66547 2.65077 0.255792 0.397515 -0.101266 0.0242975 0.159713 1.10072 1.96186 1.20406 1.41073 0.718825 1.41073 0.454867 2.36894 0.928494 0.26707 0.358576 1.25573 0.672612 0.234831 0.0466872
internal_count=72544 23055 19964 49489 3091 2947 107 48445 11 1044 144 25 16 10 119 63 96 51 2840 1229 27057 25241 9121 1229 675 43 1032 273 188 39 5154 16120 1611 1082 238 529 128 43 26 85 759 21388 1104 2165 20 12 85 70 46 20 16 11 54 401 330 40 35 290 175
shrinkage=1


Tree=1
num_leaves=60
num_cat=0
split_feature=5 5 9 9 5 0 6 15 0 0 0 0 0 0 0 0 2 8 6 5 5 8 5 2 0 0 0 5 6 11 5 6 6 6 6 0 12 5 6 5 5 6 5 0 0 0 6 15 11 6 6 11 6 0 0 2 0 8 0
split_gain=267.934 120.104 116.088 59.4005 43.2506 38.4596 25.209 37.9031 24.7238 21.6613 21.0496 21.0126 19.8827 19.1945 17.1847 26.5734 15.7164 18.1448 14.8516 21.3398 14.2883 13.4946 9.21185 9.09577 9.03816 8.96471 21.7158 27.8984 14.0239 15.4973 15.4621 8.60672 8.4998 8.2879 9.87719 8.96836 8.26844 7.78732 7.59554 10.2084 17.9629 33.4823 15.3458 14.7834 11.9981 10.7833 31.6856 7.42716 7.41015 16.5766 7.14009 17.3884 9.04825 9.88853 57.2035 40.2327 8.98608 7.721 7.12203
threshold=57.500000000000007 90.500000000000014 1.0000000180025095e-35 1.0000000180025095e-35 134.00000000000003 483.50000000000006 10.500000000000002 1.0000000180025095e-35 259.50000000000006 106.50000000000001 384.50000000000006 673.50000000000011 408.50000000000006 49.500000000000007 233.50000000000003 94.500000000000014 1.0000000180025095e-35 1.0000000180025095e-35 8.5000000000000018 106.50000000000001 51.500000000000007 1.0000000180025095e-35 95.500000000000014 1.0000000180025095e-35 392.50000000000006 587.50000000000011 555.50000000000011 76.500000000000014 9.5000000000000018 1.0000000180025095e-35 83.500000000000014 4.5000000000000009 4.5000000000000009 7.5000000000000009 6.5000000000000009 67.500000000000014 1.0000000180025095e-35 95.500000000000014 6.5000000000000009 62.500000000000007 60.500000000000007 8.5000000000000018 69.500000000000014 366.50000000000006 291.50000000000006 366.50000000000006 8.5000000000000018 1.0000000180025095e-35 1.0000000180025095e-35 10.500000000000002 8.5000000000000018 1.0000000180025095e-35 10.500000000000002 251.50000000000003 259.50000000000006 1.0000000180025095e-35 283.50000000000006 1.0000000180025095e-35 315.50000000000006
decision_type=2 2 2 2 2 2 2 2 2 2 2 2 2 2 2 2 2 2 2 2 2 2 2 2 2 2 2 2 2 2 2 2 2 2 2 2 2 2 2 2 2 2 2 2 2 2 2 2 2 2 2 2 2 2 2 2 2 2 2
left_child=2 3 12 8 5 9 7 -6 -2 31 13 16 32 -5 15 33 17 18 22 -20 36 -14 -7 -23 47 26 28 -28 29 30 -12 -3 -1 34 35 -9 -4 -19 -15 40 -40 -42 -41 44 -43 -44 -47 -8 49 -46 51 -11 -52 -54 55 -55 -56 -58 -10
right_child=1 4 20 10 6 11 24 14 58 50 25 -13 21 38 -16 -17 -18 37 19 -21 -22 23 -24 -25 -26 -27 27 -29 -30 -31 -32 -33 -34 -35 -36 -37 -38 -39 39 42 41 43 45 -45 48 46 -48 -49 -50 -51 52 -53 53 54 56 -57 57 -59 -60
leaf_value=0.00042338245957563702 0.00030000927545412322 -0.00099543625678047876 0.0011599399018493567 0.019114688431321237 -0.0044932896259330668 0.014122855317427485 0.030792226339461194 0.0091948274724415018 0.0024519221096826992 0.0028497541313029741 0.0083632248207995957 -0.0044932896054491675 -0.0014239516281322623 0.00042233244776770896 0.033597603892817768 0.001285401450964743 0.031695268546259391 0.035929158573770582 0.0089568427839921954 0.030987226803068545 0.0030885503396437114 -0.00039758174131069289 -0.002113477941912393 -0.003010595176025014 0.041721925363699223 -0.0044932895116579002 0.0078716522717748854 0.047027301457369795 0.0024144991941704714 -1.3238158651044898e-05 0.027563966781931303 0.0049152206730142195 -0.00065606113384418551 0.0082373998662448756 0.039355978878952834 0.029370804068814288 -0.00053544590741719624 0.015465232253249838 0.0027902313687851584 -0.00048946911365402778 -0.0022828425477650263 0.013393913994530809 0.0029773858227070842 -0.0044932895116579002 0.042343610773714388 0.044966477622073259 0.002866794853996219 0.00909615051894881 0.011993299369139596 0.012680240674868375 0.00026877490365175688 0.016115868227614027 0.0014595567921667646 0.061800496934233361 0.014326984794366532 0.0075269619283128307 0.0055532425815577194 -0.0029766481393124116 0.0011673900434796504
leaf_count=1617 13532 53 5066 14 28 10 7 9 1292 671 218 15 14504 378 9 25 9 8 35 12 735 4637 26 293 6 17 10 6 179 46 9 1192 22044 8 7 9 674 7 204 330 28 30 666 6 11 5 14 6 5 6 598 21 222 6 13 5 47 41 2863
internal_value=0 0.128519 -0.059227 0.0874011 0.390934 0.357758 1.2555 0.953029 0.0597965 0.324086 0.311013 1.14432 -0.0862061 0.235522 1.53615 1.24831 1.36551 1.19908 0.934771 1.46214 0.120279 -0.120299 0.238723 -0.0552886 2.75115 0.574709 0.611907 2.2555 0.553727 0.75848 0.912449 0.466384 -0.0582203 2.08762 2.49338 1.93356 0.0960872 2.63152 0.221591 0.273533 0.5112 1.06167 0.205593 1.68421 1.9306 0.328214 1.39457 2.07262 2.73558 3.18742 0.214771 0.325246 0.132704 0.321922 0.668649 3.72288 0.325389 0.159941 0.156669
internal_count=72544 22974 49570 19869 3105 2991 114 95 17687 2869 2182 122 43095 1697 67 58 107 98 83 47 6475 19434 36 4930 19 485 468 16 452 273 227 1245 23661 33 25 18 5740 15 1683 1305 290 86 1015 58 52 685 19 13 22 17 1624 692 932 334 112 11 101 88 4155
shrinkage=0.01


Tree=2
num_leaves=60
num_cat=0
split_feature=5 5 7 8 5 14 14 6 5 8 7 1 6 12 14 1 12 6 8 5 6 5 5 5 6 5 6 6 5 5 6 5 5 5 5 14 6 8 6 6 5 5 6 12 11 5 5 11 5 5 6 6 6 5 5 5 5 6 7
split_gain=275.863 112.271 98.0808 86.0285 43.0209 30.4251 21.4386 14.4386 18.6405 12.6822 42.2414 13.7598 15.7505 10.7308 9.73935 12.5326 14.1596 12.7714 9.50644 9.27547 7.5365 9.69941 7.42362 11.9949 9.36202 7.31076 10.7016 8.78481 8.12012 11.062 7.63909 8.56356 7.59656 12.4223 7.1417 13.9875 6.65527 12.158 40.1099 13.5452 9.75034 6.64191 5.9877 5.51036 5.78233 5.49712 5.46985 5.2366 5.27559 7.13759 9.69393 8.52616 7.5167 6.1025 6.12385 5.12195 9.58811 15.0339 5.08866
threshold=54.500000000000007 90.500000000000014 1.0000000180025095e-35 1.0000000180025095e-35 132.50000000000003 1.0000000180025095e-35 1.0000000180025095e-35 10.500000000000002 134.00000000000003 1.0000000180025095e-35 1.0000000180025095e-35 1.0000000180025095e-35 7.5000000000000009 1.0000000180025095e-35 1.0000000180025095e-35 1.0000000180025095e-35 1.0000000180025095e-35 9.5000000000000018 1.0000000180025095e-35 118.50000000000001 10.500000000000002 50.500000000000007 76.500000000000014 78.500000000000014 10.500000000000002 67.500000000000014 9.5000000000000018 9.5000000000000018 56.500000000000007 57.500000000000007 5.5000000000000009 68.500000000000014 58.500000000000007 63.500000000000007 53.500000000000007 1.0000000180025095e-35 5.5000000000000009 1.0000000180025095e-35 7.5000000000000009 7.5000000000000009 149.00000000000003 147.50000000000003 4.5000000000000009 1.0000000180025095e-35 1.0000000180025095e-35 85.500000000000014 143.00000000000003 1.0000000180025095e-35 59.500000000000007 57.500000000000007 10.500000000000002 7.5000000000000009 7.5000000000000009 55.500000000000007 56.500000000000007 57.500000000000007 56.500000000000007 5.5000000000000009 1.0000000180025095e-35
decision_type=2 2 2 2 2 2 2 2 2 2 2 2 2 2 2 2 2 2 2 2 2 2 2 2 2 2 2 2 2 2 2 2 2 2 2 2 2 2 2 2 2 2 2 2 2 2 2 2 2 2 2 2 2 2 2 2 2 2 2
left_child=2 5 3 13 6 9 58 14 -9 10 11 22 -13 -1 15 16 17 36 -17 -8 42 -22 25 -24 45 26 32 30 -28 -30 -27 -32 -2 -34 35 -23 40 38 -38 -39 -6 46 -5 44 -33 -25 -20 48 49 51 52 -12 -51 -53 -55 56 57 -11 -3
right_child=1 4 -4 20 7 -7 19 8 -10 55 47 12 -14 -15 -16 18 -18 -19 41 -21 21 34 23 24 -26 27 28 -29 29 -31 31 43 33 -35 -36 -37 37 39 -40 -41 -42 -43 -44 -45 -46 -47 -48 -49 -50 50 -52 53 -54 54 -56 -57 -58 -59 -60
leaf_value=0.0014423661407021099 0.00044015487687871883 0.0033986025917368602 -0.0014401829194305993 0.00029040421822557793 0.043707169371503013 0.0030186807903129389 0.0081296470867224802 -0.0044932896544049115 0.026019481161358278 0.0090124063556655028 -0.0013361012666138446 -0.00098556351506493131 0.0033115259201941215 -0.00043973106779505024 -0.00449328952364375 -0.0044932895314277101 -0.0044932897083516917 -0.0044932896060561819 0.0090532880034414637 0.027857660252479561 -5.9445265991879704e-05 0.0042304639968890412 0.017147357016342405 0.0079712640069679805 0.000413597208646995 -0.0031629165062433962 0.013061057536859176 -0.0011082443931481657 -0.00037786069701411227 0.0073753769743943876 -0.00029218124130820896 0.0086288735514692214 0.0065818720672568068 -0.00022377608539136441 4.3853509514619984e-05 0.023925572825272468 -0.0044932896058147379 0.018020437405072653 0.046882440923308469 -0.00449328958305117 0.015686449857721853 0.0013481548909546803 -0.00072879321265734978 -0.0027802892198185341 -0.0006316086656733298 0.002827930595238184 0.024265197512653471 -0.0044932896408629202 0.00030270582922955282 0.0044534530464922957 0.0097255070053550753 0.0048951716769280217 -0.00048359512417212421 -0.0036670163799430305 0.0019712152464683962 0.0005787100281198571 -0.0010074634783796303 0.00055975121121183691 0.0018595446189260481
leaf_count=6442 171 2291 19066 1278 5 1261 135 5 22 49 262 323 385 694 10 15 7 5 15 5 1684 109 18 155 67 31 34 146 50 156 54 105 169 82 82 8 5 17 8 8 5 14 17435 12 16 59 7 43 3775 145 42 110 113 50 195 13044 1110 389 546
internal_value=0 0.120631 -0.0645456 -0.00997441 0.374976 0.0852808 0.33725 1.12338 2.0537 0.0724674 0.123819 0.296724 0.13521 0.125963 0.911131 1.03137 1.47077 1.71919 0.509981 0.884469 -0.0571729 0.0295474 0.382963 0.581708 0.50894 0.324963 0.414728 0.161593 0.656554 0.549385 0.344007 0.453272 0.277184 0.43604 0.329707 0.557733 1.94325 1.67197 2.77825 1.08914 2.97303 0.906083 -0.0659048 0.648637 0.740595 0.655404 1.39243 0.0494183 0.0539917 0.151755 0.333212 0.0632023 0.229131 0.208323 0.0820184 0.0486077 -0.0296312 0.150579 0.310242
internal_count=72544 25746 46798 27732 3125 22621 2977 148 27 21360 6768 2033 708 7136 121 111 60 53 51 140 20596 1883 1325 299 281 1026 662 364 240 206 218 187 422 251 199 117 48 38 13 25 10 36 18713 133 121 214 22 4735 4692 917 300 617 258 355 245 14592 1548 438 2837
shrinkage=0.01


Tree=3
num_leaves=60
num_cat=0
split_feature=9 0 10 3 6 6 6 16 6 0 3 0 0 3 0 0 6 3 3 3 6 0 3 2 14 6 1 0 0 14 3 6 14 0 0 0 6 0 1 3 0 3 6 0 3 6 6 3 3 6 6 6 0 3 3 0 6 6 3
split_gain=160.452 94.6983 79.7895 44.3349 14.7724 15.1085 14.3236 15.3135 14.0342 13.0063 10.2779 14.0737 9.71351 9.66397 12.2892 45.8087 13.7727 9.54963 9.50684 14.6602 26.1462 20.9208 8.20877 8.16694 7.99497 7.91038 7.48688 18.221 23.2526 11.3416 10.5275 9.57958 8.51625 7.81187 10.1322 7.63872 7.47133 7.4474 7.32201 9.44225 41.9024 9.35609 6.9214 6.50358 12.6578 11.5202 23.1008 10.7596 10.3532 11.4242 10.0417 15.484 14.9322 8.37076 10.2934 10.1388 24.3067 52.8597 16.1431
threshold=1.0000000180025095e-35 94.500000000000014 1.0000000180025095e-35 56.500000000000007 5.5000000000000009 9.5000000000000018 6.5000000000000009 1.0000000180025095e-35 10.500000000000002 458.50000000000006 58.500000000000007 67.500000000000014 516.50000000000011 57.500000000000007 444.50000000000006 408.50000000000006 10.500000000000002 24.500000000000004 61.500000000000007 60.500000000000007 8.5000000000000018 504.50000000000006 33.500000000000007 1.0000000180025095e-35 1.0000000180025095e-35 10.500000000000002 1.0000000180025095e-35 474.50000000000006 493.50000000000006 1.0000000180025095e-35 64.500000000000014 10.500000000000002 1.0000000180025095e-35 587.50000000000011 607.50000000000011 516.50000000000011 7.5000000000000009 127.50000000000001 1.0000000180025095e-35 49.500000000000007 384.50000000000006 50.500000000000007 5.5000000000000009 291.50000000000006 50.500000000000007 5.5000000000000009 4.5000000000000009 50.500000000000007 51.500000000000007 6.5000000000000009 5.5000000000000009 7.5000000000000009 384.50000000000006 31.500000000000004 45.500000000000007 171.50000000000003 6.5000000000000009 5.5000000000000009 37.500000000000007
decision_type=2 2 2 2 2 2 2 2 2 2 2 2 2 2 2 2 2 2 2 2 2 2 2 2 2 2 2 2 2 2 2 2 2 2 2 2 2 2 2 2 2 2 2 2 2 2 2 2 2 2 2 2 2 2 2 2 2 2 2
left_child=1 10 3 4 9 22 7 42 -5 24 -1 -12 13 25 15 -15 -17 36 19 -16 -21 -22 -6 -7 37 43 -19 32 30 33 31 -29 -28 -30 -35 -31 -8 -3 39 -9 41 -41 -2 47 45 46 -45 53 50 -50 -46 52 -52 -4 55 56 57 -55 -58
right_child=6 2 12 8 5 23 17 38 -10 -11 11 -13 -14 14 18 16 -18 26 -20 20 21 -23 -24 -25 -26 -27 27 28 29 35 -32 -33 -34 34 -36 -37 -38 -39 -40 40 -42 -43 -44 44 48 -47 -48 -49 49 -51 51 -53 -54 54 -56 -57 58 -59 -60
leaf_value=0.0016597018288000214 0.0013676089756035901 0.0022037197465534252 -0.00074876779349903797 -0.0011772666546377936 -6.0355644148944356e-06 0.00031305892984382933 0.0046204543290533197 0.0025498361850770745 -3.6058356644262489e-05 0.012754395362540215 0.001105502676158428 0.02529518670185843 -0.0021384727334581781 -0.0030244751624210003 0.0035160217253361555 0.022995799722273981 0.052615217544032006 0.0023670678681092581 -0.0029089126308755988 -0.00074413664667754968 0.01022968987294417 0.044168558003442028 -0.00068907852238588117 -0.00066625061118717602 0.0037657348437528959 -0.0002348872322651711 0.00035320961760105455 0.020827917352215321 -0.0044932896174435816 0.019866258475824339 0.035454509990968192 -0.0010701575963094222 0.0031194736027827879 0.024417648216281229 -0.004493289627693675 0.0029666641905336287 0.019566766152140518 0.00020669362822871371 -0.0010579599060027533 0.019071481839737815 0.0044730501520263647 0.041790842247669463 -0.00022155903963141284 -0.0017492773263404042 -0.0044932895788289701 -0.00069960105963652141 0.026408196122048824 0.021249525067520123 -0.00164017170457116 0.0053604140045314169 0.0091911485920935128 0.0040858643919088663 0.039084567201995261 0.0023346363758558184 -0.0030231606115602057 0.0051020200225552004 -0.00037821256344103992 0.065406607550532236 0.028443871418187286
leaf_count=4639 1055 425 55 18077 4660 8832 18 76 2545 18 11 9 70 14 72 9 5 4948 26 11 7 8 16501 2196 150 145 1236 13 34 11 6 6 281 5 5 11 11 4115 36 7 62 8 1216 15 6 255 10 8 65 184 6 12 8 6 28 266 20 5 5
internal_value=0 -0.0264441 -0.0421108 -0.0501569 -0.0203361 -0.0313424 0.177858 0.0843644 -0.103631 0.0548609 0.170395 1.19635 0.306519 0.33561 0.674682 1.53231 3.36475 0.212723 0.480631 0.685258 1.60843 2.8381 -0.053839 0.0117915 0.0501851 0.288709 0.209079 0.124035 0.746871 0.299199 1.91917 1.39047 0.0865941 -0.121679 0.994302 1.13965 1.03152 0.0393952 0.476824 0.613757 0.967914 3.12018 0.0516732 0.336172 0.237 0.0211461 0.950685 0.477689 0.452223 0.353313 1.21944 1.60565 2.628 0.44348 0.529813 0.606959 1.32105 3.09466 0.538389
internal_count=72544 63499 58840 57519 36897 32189 9045 2460 20622 4708 4659 20 1321 1251 152 28 14 6585 124 98 26 15 21161 11028 4690 1099 6556 1608 91 66 25 19 1517 44 10 22 29 4540 189 153 77 15 2271 954 561 280 25 393 281 249 32 26 14 385 330 302 36 11 25
shrinkage=0.01


Tree=4
num_leaves=60
num_cat=0
split_feature=5 5 3 10 3 5 14 3 3 3 3 13 3 3 14 3 3 5 5 3 5 3 3 3 5 5 3 3 5 5 5 14 2 3 14 5 5 3 3 5 3 3 3 13 3 3 12 3 5 5 5 3 5 3 3 3 3 3 3
split_gain=289.334 119.58 80.4253 57.1533 43.7148 35.1426 22.6481 36.2593 41.0578 20.95 17.2633 16.4613 15.2655 14.509 14.3963 13.7514 13.2943 12.1999 11.9009 12.7957 11.3567 11.3053 17.2466 12.7717 15.2885 14.4826 11.6333 10.9342 14.1212 14.8757 33.1236 10.7593 11.4709 10.5086 10.4788 18.7064 21.3552 17.1254 15.0082 13.996 11.9222 10.738 9.26443 9.14005 58.521 7.98091 7.79066 14.4015 21.4431 16.8113 27.1868 8.17836 7.60299 7.38084 7.08937 18.0406 18.212 7.75423 11.5875
threshold=51.500000000000007 90.500000000000014 46.500000000000007 1.0000000180025095e-35 68.500000000000014 134.00000000000003 1.0000000180025095e-35 57.500000000000007 61.500000000000007 64.500000000000014 26.500000000000004 1.0000000180025095e-35 55.500000000000007 24.500000000000004 1.0000000180025095e-35 61.500000000000007 54.500000000000007 165.50000000000003 57.500000000000007 47.500000000000007 106.50000000000001 40.500000000000007 25.500000000000004 46.500000000000007 143.00000000000003 147.50000000000003 60.500000000000007 82.500000000000014 78.500000000000014 72.500000000000014 75.500000000000014 1.0000000180025095e-35 1.0000000180025095e-35 22.500000000000004 1.0000000180025095e-35 76.500000000000014 78.500000000000014 42.500000000000007 31.500000000000004 80.500000000000014 29.500000000000004 33.500000000000007 57.500000000000007 1.0000000180025095e-35 47.500000000000007 56.500000000000007 1.0000000180025095e-35 22.500000000000004 95.500000000000014 95.500000000000014 100.50000000000001 22.500000000000004 147.50000000000003 28.500000000000004 71.500000000000014 77.500000000000014 75.500000000000014 66.500000000000014 64.500000000000014
decision_type=2 2 2 2 2 2 2 2 2 2 2 2 2 2 2 2 2 2 2 2 2 2 2 2 2 2 2 2 2 2 2 2 2 2 2 2 2 2 2 2 2 2 2 2 2 2 2 2 2 2 2 2 2 2 2 2 2 2 2
left_child=3 2 34 4 16 6 10 -8 -9 -10 13 -5 -12 46 18 20 -1 21 19 -4 -14 22 33 -23 -25 -26 -27 43 29 -29 -31 -18 -33 52 40 38 -37 -38 -36 -39 -2 -42 -22 -20 -45 -34 47 48 -3 -49 -51 -48 -7 -24 57 56 -56 58 -17
right_child=1 5 14 11 -6 17 7 8 9 -11 12 -13 15 -15 -16 54 31 -19 27 -21 42 23 53 24 25 26 -28 28 -30 30 -32 32 45 -35 35 36 37 39 -40 -41 41 -43 -44 44 -46 -47 51 49 -50 50 -52 -53 -54 -55 55 -57 -58 -59 -60
leaf_value=-0.00038155811635302655 0.00078435905040364468 0.031200669818079518 0.0061666669326229566 0.002567360256870317 -0.0018415475695401685 -0.0044932896940771804 0.0064109859337482689 0.062125171684697778 -0.0044932897153050809 0.034570833335128136 0.0020128025919660688 0.022904989505555071 0.007152407136688986 0.0073874295396214474 0.0044424770357176201 -0.00015756254547322359 -0.0010425126489191092 -0.0044932897054325354 0.0022191429987208052 0.00068425467311779926 0.0077759851475205912 0.03443983586750049 -0.0044932897071076269 0.0021641946514119239 0.036534096514274361 -0.0044932896513445357 0.02586110163384113 0.00606111328106591 -0.004493289599748586 0.053297719688596208 0.010228505948079121 0.00024921863917520836 0.017758328870216104 0.027341330529973767 -0.0034575714897453445 0.028719608910248461 0.0027213641824678793 0.028285215129338334 0.0017804682578448159 0.0079972619684561021 -0.00055613832083036289 0.00032261264992283165 0.025743763316379543 0.050174141952811377 0.0034919315719060674 0.0027974816221959333 -0.0029895567962434284 -0.00292576204844155 0.0069848757785161107 0.011694161006609301 0.0002898164816419797 0.0041325126025357432 0.018500831113959958 0.0078862244674208631 0.0096485308855002727 0.00011618008779859415 0.039458875983455356 -0.0044932897034946412 0.017645412976343075
leaf_count=21111 5758 8 93 937 7227 5 125 5 6 5 1788 8 81 307 536 28 14062 9 3852 1613 10 8 14 12 8 5 5 39 15 5 14 927 13 13 139 8 145 10 589 23 4603 7621 14 6 67 17 68 78 110 73 102 64 7 31 23 40 5 39 10
internal_value=0 0.111912 0.0789285 -0.074166 -0.0818305 0.376266 0.345817 0.902874 2.8954 1.36208 0.31802 0.274484 0.247689 0.494215 0.220138 0.578053 -0.0614168 1.13492 0.198943 0.0983367 0.972704 1.2661 0.926297 1.87978 1.45718 2.26724 1.13194 0.241665 0.791979 1.11292 2.15507 -0.0941744 0.0532045 1.86572 0.0322174 0.181864 0.587131 0.484075 0.0781815 1.41522 0.0245747 -0.000818276 1.83197 0.231442 0.734205 0.927962 0.344922 0.450675 0.862422 0.258729 0.504084 0.0463952 0.89971 0.400157 0.293937 0.6304 1.50483 -0.00155031 0.454581
internal_count=72544 28242 25136 44302 43357 3106 2989 141 16 11 2848 945 2038 810 6240 250 36130 117 5704 1706 105 108 70 38 30 18 10 3998 73 58 19 15019 957 25 18896 914 186 178 728 33 17982 12224 24 3925 73 30 503 371 118 253 175 132 12 45 145 68 28 77 38
shrinkage=0.01


Tree=5
num_leaves=60
num_cat=0
split_feature=3 0 10 13 10 3 3 3 16 0 3 0 0 0 16 0 0 0 0 16 2 3 3 3 11 3 0 0 11 0 1 2 3 3 3 3 3 0 0 12 3 1 0 16 3 1 16 3 11 1 0 0 0 16 3 0 3 3 3
split_gain=106.712 47.5178 33.3742 35.7489 30.1251 22.1143 15.5571 16.7722 15.075 12.6393 10.8378 10.477 9.02379 8.97157 11.1207 8.63667 28.0413 8.97906 11.7079 7.89802 22.9322 20.0642 8.48104 15.3843 7.58234 10.5268 7.42708 7.3982 7.26081 10.2974 15.2769 6.96894 7.20215 6.43101 5.50689 18.7211 6.7267 6.34141 5.4347 5.40218 5.38997 5.31845 5.19541 4.81127 15.0063 7.9318 4.46743 6.80805 12.275 5.71064 4.69852 9.79751 4.83529 4.45264 7.23687 29.1013 11.8927 4.37759 9.57034
threshold=56.500000000000007 94.500000000000014 1.0000000180025095e-35 1.0000000180025095e-35 1.0000000180025095e-35 68.500000000000014 61.500000000000007 57.500000000000007 1.0000000180025095e-35 94.500000000000014 55.500000000000007 291.50000000000006 555.50000000000011 67.500000000000014 1.0000000180025095e-35 444.50000000000006 408.50000000000006 493.50000000000006 516.50000000000011 1.0000000180025095e-35 1.0000000180025095e-35 42.500000000000007 45.500000000000007 43.500000000000007 1.0000000180025095e-35 33.500000000000007 233.50000000000003 444.50000000000006 1.0000000180025095e-35 571.50000000000011 1.0000000180025095e-35 1.0000000180025095e-35 29.500000000000004 60.500000000000007 47.500000000000007 49.500000000000007 26.500000000000004 49.500000000000007 607.50000000000011 1.0000000180025095e-35 38.500000000000007 1.0000000180025095e-35 504.50000000000006 1.0000000180025095e-35 53.500000000000007 1.0000000180025095e-35 1.0000000180025095e-35 67.500000000000014 1.0000000180025095e-35 1.0000000180025095e-35 483.50000000000006 436.50000000000006 541.50000000000011 1.0000000180025095e-35 48.500000000000007 366.50000000000006 49.500000000000007 50.500000000000007 51.500000000000007
decision_type=2 2 2 2 2 2 2 2 2 2 2 2 2 2 2 2 2 2 2 2 2 2 2 2 2 2 2 2 2 2 2 2 2 2 2 2 2 2 2 2 2 2 2 2 2 2 2 2 2 2 2 2 2 2 2 2 2 2 2
left_child=1 34 31 10 5 9 7 -6 15 13 11 19 46 -2 -15 16 -9 -17 33 22 21 -21 23 24 -4 -26 -27 -8 38 30 -30 32 -3 -19 36 37 39 -36 -14 41 -28 -1 -35 -34 45 57 47 -11 49 50 51 -49 -52 -13 -55 56 -56 -45 -59
right_child=4 2 3 -5 6 -7 27 8 -10 12 -12 53 28 14 -16 17 -18 18 -20 20 -22 -23 -24 -25 25 26 40 -29 29 -31 -32 -33 43 42 35 -37 -38 -39 -40 -41 -42 -43 -44 44 -46 -47 -48 48 -50 -51 52 -53 -54 54 55 -57 -58 58 -60
leaf_value=0.0029879526029708827 0.0010844392576231611 0.0011534780153942181 0.0023918258196324294 0.032247121286323399 -0.00055050355648681901 -0.0014634399984390304 0.015617678057388725 -0.0010579245806132181 0.0021561882067382041 -0.00046023718046141074 0.0096535406399069611 0.00015639586975297701 0.00041267051715720591 0.0035876791593222536 0.032234413109877819 0.005719328568443832 0.039556768071542944 0.013558570814169351 -0.004493289690223853 0.0016543232970635076 0.031348496203092269 0.031882246833572207 -0.0033856889864521205 0.019074512403040436 -0.0044932896163959006 0.017989776480989341 -0.0044932896589357273 -0.0021760840770287003 0.026169968714631495 -0.0013721564791392784 -0.0044932897152143566 -0.00025145728338141817 0.00016977834191295911 0.01592873879839923 0.031727915538913999 0.00063172372898691364 0.00081051694884349645 0.012877085728670426 0.010586991738406375 0.00089904178071740647 0.011871208753079756 0.0017133426349621777 0.034855580991431927 0.002602155652011265 -0.0014670352407936511 -0.00048360254756291902 -0.00095196678918102256 -0.004493289732227239 0.02193769323434943 -0.004493289693314563 -0.004493289615513406 0.016106455253767055 0.0076009104666670589 -0.0012265387435922302 0.01324680936603329 0.0016130098040084563 0.039834779412213771 0.011002782460470905 0.0026429767459748188
leaf_count=1229 11 1700 297 8 52 8410 5 6 43 7127 42 410 1053 5 6 38 8 17 5 40 8 5 37 13 10 20 7 80 10 13 5 7065 34254 5 5 40 1366 13 11 724 10 1477 7 342 287 139 5767 7 7 20 16 15 12 44 8 57 6 45 75
internal_value=0 0.0368223 0.022185 0.27775 -0.0821095 -0.0878464 0.396253 0.632216 0.907157 -0.0529946 0.253453 0.222709 -0.0547187 1.02553 1.92729 1.251 2.26606 1.05006 1.58134 0.383564 0.902021 0.505479 0.313849 0.381338 0.323588 0.857686 1.20858 -0.11056 0.0710064 0.788598 1.59854 0.016183 0.0241151 1.92569 0.171391 0.609638 0.166081 1.81893 0.0517914 0.199914 0.513374 0.229271 2.71404 0.0196889 0.124022 0.252689 -0.0652948 -0.041428 0.384105 0.201744 0.461318 0.957478 0.0693354 0.0854926 0.334333 0.616381 2.45826 0.342914 0.578514
internal_count=72544 49783 44929 1022 22761 22495 266 181 129 14085 1014 972 14063 22 11 86 14 72 34 447 53 45 394 357 344 47 37 85 1092 28 15 43907 36842 29 4854 58 4796 18 1064 3430 17 2706 12 35142 888 601 12971 7204 77 70 50 22 28 525 115 71 14 462 120
shrinkage=0.01


Tree=6
num_leaves=60
num_cat=0
split_feature=5 5 9 0 3 5 0 3 6 9 6 15 0 0 2 3 5 3 3 9 0 5 5 3 3 5 3 5 14 6 5 3 3 0 5 3 0 5 3 0 9 3 2 5 3 0 0 0 0 15 14 3 5 0 3 3 6 3 0
split_gain=263.722 119.973 98.3957 64.717 37.3849 36.9519 25.8262 65.3668 27.802 24.7396 21.5677 21.7396 19.6155 18.422 16.4954 16.2617 25.9524 20.2905 41.6615 15.2858 17.4413 14.0406 13.2973 12.8939 12.5864 12.4318 12.1769 11.7191 10.6173 10.4798 11.9138 23.3609 22.9654 22.2207 34.0449 22.5044 10.4555 10.793 25.5407 14.842 9.69356 27.7695 9.3533 9.17318 13.0659 10.8441 37.4145 13.2129 11.3803 9.01385 8.91282 8.90316 8.8492 9.97828 25.6777 19.8806 14.8501 14.0271 12.7065
threshold=54.500000000000007 90.500000000000014 1.0000000180025095e-35 259.50000000000006 68.500000000000014 134.00000000000003 483.50000000000006 61.500000000000007 9.5000000000000018 1.0000000180025095e-35 10.500000000000002 1.0000000180025095e-35 392.50000000000006 153.50000000000003 1.0000000180025095e-35 25.500000000000004 147.50000000000003 34.500000000000007 50.500000000000007 1.0000000180025095e-35 49.500000000000007 51.500000000000007 139.50000000000003 26.500000000000004 52.500000000000007 68.500000000000014 75.500000000000014 55.500000000000007 1.0000000180025095e-35 10.500000000000002 50.500000000000007 41.500000000000007 47.500000000000007 283.50000000000006 51.500000000000007 45.500000000000007 633.50000000000011 106.50000000000001 73.500000000000014 607.50000000000011 1.0000000180025095e-35 25.500000000000004 1.0000000180025095e-35 53.500000000000007 29.500000000000004 267.50000000000006 259.50000000000006 323.50000000000006 197.50000000000003 1.0000000180025095e-35 1.0000000180025095e-35 65.500000000000014 88.500000000000014 422.50000000000006 67.500000000000014 57.500000000000007 10.500000000000002 58.500000000000007 307.50000000000006
decision_type=2 2 2 2 2 2 2 2 2 2 2 2 2 2 2 2 2 2 2 2 2 2 2 2 2 2 2 2 2 2 2 2 2 2 2 2 2 2 2 2 2 2 2 2 2 2 2 2 2 2 2 2 2 2 2 2 2 2 2
left_child=2 3 4 19 28 6 23 8 -8 -5 11 -7 13 -12 36 16 -13 22 -19 25 -21 -4 -17 40 -11 -2 -16 49 29 -1 -31 -32 33 -33 -35 -36 37 39 -39 51 -3 -42 -34 45 -45 46 48 -47 -23 -22 -25 -9 53 54 55 56 58 -55 -26
right_child=1 5 21 9 -6 10 7 14 -10 24 12 15 -14 -15 26 17 -18 18 -20 20 27 43 -24 50 52 -27 -28 -29 -30 30 31 32 42 34 35 -37 -38 38 -40 -41 41 -43 -44 44 -46 47 -48 -49 -50 -51 -52 -53 -54 57 -56 -57 -58 -59 -60
leaf_value=-0.00086354346589204828 -0.00034579935205051226 0.0043494633640386955 0.00086291199245936887 0.0015732125823166971 -0.0018636418970469841 -0.0017667109943298228 0.018324666501384583 0.0074042594254825102 0.056262433341278194 0.0024349042980192077 0.026143255216963229 0.0052795428227428165 0.041815723388719389 -0.0044932895329049495 0.0094261615464815811 0.022018665190173453 0.044711264607123706 0.047727174993677582 0.0051382408962904668 0.016942868936092374 0.022053486962930264 -0.0044932896274676015 -0.0010511278528602685 0.0023191974951291567 -0.0044932897036478155 0.00050095934093943872 0.037845925901165603 0.0014133963417048531 0.00045702834285976397 -0.00027888758374537286 -0.00094829165570949547 0.0027805551788745953 0.0014714407779358441 0.053887330714339189 0.0034400748774726657 0.034014653884764101 -0.0044932896450022393 0.0022244443567439385 0.034698281578723518 0.020389540195168605 0.0043777591283506523 0.033415514138601284 0.016193322815564761 0.018316357198768601 0.00059987766708284053 -0.0044932896141265206 0.048720853809807528 0.0064024316388423185 0.011559743786284847 0.0023290514954805806 0.0063564944313429681 -0.0044932896662739702 0.017458128036600677 0.0011632781900947423 0.039494510647109814 -0.00229087369174121 -0.00041747533157762592 0.0065671798566841457 0.013212267473450537
leaf_count=28736 5912 783 5724 5116 7241 30 8 22 7 618 10 6 7 6 7 6 7 7 12 15 10 12 29 1916 9 9050 5 1347 1509 2920 163 17 83 6 13 8 23 12 8 9 25 9 10 9 169 30 5 94 37 9 117 30 12 198 5 37 25 193 101
internal_value=0 0.114233 -0.0666754 0.0778022 -0.0922889 0.376998 0.345228 0.960055 3.69043 0.200936 1.13918 0.841402 2.32529 1.46295 0.5933 1.27889 2.67199 0.936965 2.08412 0.0300511 0.174148 0.103541 0.291696 0.316554 0.385362 0.0166759 2.13542 0.157116 -0.0720312 -0.0776182 0.000227413 0.27275 0.709803 1.56393 2.373 1.51188 0.407424 0.64505 1.54332 0.346201 0.467326 1.20901 0.305044 0.379289 0.149422 0.608922 1.14442 0.375986 0.763551 1.27215 0.255456 0.0555677 0.536179 0.510522 0.791406 0.697996 0.951641 0.38329 1.17683
internal_count=72544 25758 46786 22657 40706 3101 2981 131 15 6314 120 97 23 16 116 67 13 54 19 16343 1381 6080 35 2850 1198 14962 12 1366 33465 31956 3220 300 137 44 27 21 104 81 20 61 817 34 93 356 178 178 54 124 49 19 2033 52 580 568 177 172 135 391 110
shrinkage=0.01


Tree=7
num_leaves=60
num_cat=0
split_feature=5 9 5 4 9 5 6 15 4 7 15 5 5 5 12 5 5 5 5 5 6 5 6 6 11 15 5 5 6 12 2 7 7 6 5 6 6 5 9 12 5 2 15 5 5 6 6 5 5 4 5 6 6 15 6 6 6 11 12
split_gain=258.976 121.571 105.68 72.3547 54.2964 39.3847 19.5925 25.2337 17.8633 16.4554 19.9959 13.8947 14.2698 12.3952 9.86432 8.64297 16.0297 15.7539 9.74131 8.50998 8.46065 12.7173 12.507 7.89546 7.90211 10.0993 15.0383 7.82326 8.36344 7.67843 7.21595 6.93554 6.85129 6.83122 6.76378 6.75342 6.75016 6.76615 9.70525 6.21642 6.18893 6.03677 7.20661 5.96703 16.5274 12.1791 9.81141 5.78061 16.3645 29.6866 5.59864 12.4615 5.72382 9.35873 11.0375 5.59449 5.53729 7.66215 5.72874
threshold=57.500000000000007 1.0000000180025095e-35 90.500000000000014 1.0000000180025095e-35 1.0000000180025095e-35 143.00000000000003 10.500000000000002 1.0000000180025095e-35 1.0000000180025095e-35 1.0000000180025095e-35 1.0000000180025095e-35 51.500000000000007 53.500000000000007 147.50000000000003 1.0000000180025095e-35 63.500000000000007 60.500000000000007 73.500000000000014 75.500000000000014 59.500000000000007 9.5000000000000018 59.500000000000007 10.500000000000002 6.5000000000000009 1.0000000180025095e-35 1.0000000180025095e-35 61.500000000000007 61.500000000000007 9.5000000000000018 1.0000000180025095e-35 1.0000000180025095e-35 1.0000000180025095e-35 1.0000000180025095e-35 10.500000000000002 58.500000000000007 7.5000000000000009 3.5000000000000004 134.00000000000003 1.0000000180025095e-35 1.0000000180025095e-35 56.500000000000007 1.0000000180025095e-35 1.0000000180025095e-35 72.500000000000014 75.500000000000014 9.5000000000000018 3.5000000000000004 112.50000000000001 106.50000000000001 1.0000000180025095e-35 52.500000000000007 7.5000000000000009 8.5000000000000018 1.0000000180025095e-35 10.500000000000002 10.500000000000002 6.5000000000000009 1.0000000180025095e-35 1.0000000180025095e-35
decision_type=2 2 2 2 2 2 2 2 2 2 2 2 2 2 2 2 2 2 2 2 2 2 2 2 2 2 2 2 2 2 2 2 2 2 2 2 2 2 2 2 2 2 2 2 2 2 2 2 2 2 2 2 2 2 2 2 2 2 2
left_child=1 3 4 9 8 31 7 -7 19 10 39 14 29 -9 -3 16 33 -17 -19 -2 -10 22 32 -18 25 26 -25 -27 -29 50 -12 36 -22 -6 -35 -11 -4 -38 -39 -1 -37 42 -21 -44 45 46 -45 48 -33 55 -13 -52 -53 -54 -55 -50 57 58 -43
right_child=2 11 5 -5 15 6 -8 13 20 35 30 12 -14 -15 -16 17 23 18 -20 41 21 -23 -24 24 -26 27 -28 28 -30 -31 -32 47 -34 34 -36 40 37 38 -40 -41 -42 56 43 44 -46 -47 -48 -49 49 -51 51 52 53 54 -56 -57 -58 -59 -60
leaf_value=0.0012720362540323089 0.002234003497127446 0.0012012305475107234 -0.00089951340280261017 -0.0023212773929468587 0.0016003673701899316 -0.0012196987203001632 0.029784157033838566 0.027892314159461255 -0.0018974627047280651 -0.0012869930876549431 -0.00042280500947365743 0.0038647554466289401 0.0019345640153711299 0.011846175757836079 -0.00064532409378534827 0.00088589470079320322 0.0029063182389161592 0.011727946921133001 0.0034625893054946134 0.0018122434828530688 0.026335597280482587 -0.00018762753226886676 -0.0015756561546477498 0.029494275366498707 0.0011825617500781159 -0.0031351122827878316 0.010994384426287036 0.013325372830551937 0.0031090653717715517 0.017540167054627031 -0.0013268273648062699 0.0016608621821870085 0.0092080069947823723 0.012510772782058035 0.0028645481382615517 -0.00073890243221685903 0.0037778183394236997 0.01592712462748164 -0.0044932895813401532 -0.0013991887275594417 0.0022377680492628614 0.0013570035583180496 0.00036619402538615495 0.018641999643030437 0.00094724206750980812 0.01321974668439892 0.002054234413353583 -0.0010212014013817349 0.0029352568604949958 0.034705493346009246 -0.0002135437538433705 0.028096413346799496 0.0027561362205976948 0.0096508039373866279 0.030928040675901138 0.014076596513953302 -1.842599375888872e-05 0.015987566662441985 -0.0013377374025907609
leaf_count=1766 745 5109 62 6158 301 25 11 13 801 7954 17618 112 572 32 677 730 66 30 801 1422 8 731 14 10 25 15 73 33 32 12 2044 407 12 25 36 7083 2387 19 6 201 147 1147 4744 8 3999 36 88 105 38 8 19 5 14 13 8 12 3779 7 189
internal_value=0 -0.0594308 0.124737 -0.0874049 0.0859991 0.367767 1.32683 1.04209 0.0596274 -0.0632467 -0.0377806 0.122591 0.304762 1.65209 0.0986095 0.298652 0.441578 0.242042 0.376216 0.0738041 -0.086657 0.0211869 0.877076 0.715417 0.863699 0.977787 1.32425 0.616053 0.829537 0.651275 -0.0516736 0.341157 1.60589 0.248426 0.683316 -0.0996823 0.373734 0.385656 1.10745 0.100099 -0.0677823 0.0665599 0.0865777 0.0713576 0.111215 0.610593 0.343736 0.199377 0.267716 0.971739 0.573865 0.92933 1.38111 1.17739 1.78033 0.559965 0.0262969 0.105412 0.0975497
internal_count=72544 49512 23032 42971 19907 3125 81 70 17730 36813 21629 6541 755 45 5786 2177 616 1561 831 16164 1566 765 34 254 188 163 83 80 65 183 19662 3044 20 362 61 15184 2474 2412 25 1967 7230 15419 10297 8875 4131 132 96 570 465 58 171 59 40 35 21 50 5122 1343 1336
shrinkage=0.01


Tree=8
num_leaves=60
num_cat=0
split_feature=7 15 0 4 4 6 4 6 0 6 6 0 6 0 2 1 6 4 0 15 0 0 2 6 6 0 1 6 0 1 6 6 0 0 6 0 1 1 0 0 0 1 0 6 0 0 6 0 1 0 0 0 6 6 0 0 6 6 0
split_gain=157.056 50.289 60.6279 44.3991 22.5419 16.0725 15.778 14.8806 13.8958 13.7296 12.8492 10.7062 10.9885 10.3269 9.23731 7.90722 11.2229 11.7584 7.8555 7.6304 7.54159 9.29237 14.0909 21.807 20.2802 7.28105 7.77587 9.6058 7.49222 6.98624 7.16452 6.58777 6.27233 5.20575 5.14897 5.11556 10.1159 5.84654 8.23898 5.0395 4.69873 8.49221 6.49454 4.50058 6.0899 4.49201 4.37114 5.94703 4.29836 5.5658 7.67587 4.89009 5.35465 4.26961 7.46403 4.18816 7.98538 6.12908 4.01608
threshold=1.0000000180025095e-35 1.0000000180025095e-35 94.500000000000014 1.0000000180025095e-35 1.0000000180025095e-35 5.5000000000000009 1.0000000180025095e-35 10.500000000000002 82.500000000000014 12.500000000000002 9.5000000000000018 555.50000000000011 9.5000000000000018 171.50000000000003 1.0000000180025095e-35 1.0000000180025095e-35 9.5000000000000018 1.0000000180025095e-35 127.50000000000001 1.0000000180025095e-35 127.50000000000001 117.50000000000001 1.0000000180025095e-35 4.5000000000000009 2.5000000000000004 136.50000000000003 1.0000000180025095e-35 9.5000000000000018 117.50000000000001 1.0000000180025095e-35 10.500000000000002 9.5000000000000018 493.50000000000006 587.50000000000011 8.5000000000000018 516.50000000000011 1.0000000180025095e-35 1.0000000180025095e-35 587.50000000000011 82.500000000000014 224.50000000000003 1.0000000180025095e-35 145.50000000000003 3.5000000000000004 331.50000000000006 162.50000000000003 10.500000000000002 67.500000000000014 1.0000000180025095e-35 267.50000000000006 299.50000000000006 374.50000000000006 3.5000000000000004 3.5000000000000004 291.50000000000006 127.50000000000001 6.5000000000000009 8.5000000000000018 307.50000000000006
decision_type=2 2 2 2 2 2 2 2 2 2 2 2 2 2 2 2 2 2 2 2 2 2 2 2 2 2 2 2 2 2 2 2 2 2 2 2 2 2 2 2 2 2 2 2 2 2 2 2 2 2 2 2 2 2 2 2 2 2 2
left_child=1 6 15 8 5 20 18 11 -2 13 -10 25 -13 19 32 -3 39 46 -1 29 21 -4 24 -24 -23 26 27 -7 -29 -5 55 43 -9 -14 -15 36 -34 -37 -39 -17 41 42 -33 44 -20 -44 -18 -48 58 -50 53 -52 -53 -51 -55 57 -57 -31 -22
right_child=3 2 4 9 -6 7 -8 14 10 -11 -12 12 33 34 -16 16 17 -19 31 -21 48 22 23 -25 -26 -27 -28 28 -30 30 -32 40 35 -35 -36 37 -38 38 -40 -41 -42 -43 45 -45 -46 -47 47 -49 49 50 51 52 -54 54 -56 56 -58 -59 -60
leaf_value=0.00037424341222933494 0.0022117278283594753 0.0028665426866256037 0.0011792690941562934 -0.0044932896054591161 -0.0013812009110809762 0.00072127457914042045 -0.0023531811043098921 0.0010989560512954803 -0.00093119510929785517 0.019667678838270652 -0.0001181815645219116 0.0018725668385496728 0.019040225749759637 -0.0028017906156126838 -0.00058856109901806396 0.0012863398325222816 0.0048332986912182716 -0.0040068998452022072 0.0017928969975746457 -0.00061686037191414033 0.0016771529825309727 0.02278315760119384 -0.00016253962246029285 0.019343704584614502 0.00013173784329900925 -0.00019370233722836001 -0.0002100677914777633 0.00565724080010932 0.0010475003902751 -0.0019659890591748226 -0.0044932896269058329 0.0074362814210001084 0.011022766400485915 0.0059234033930619769 -0.0018802925217422551 0.00014254126128041675 -0.0044932895807215066 0.0032281558429540559 0.022939970761070013 -0.00070480728929678597 0.0025594241210328077 -0.0024805414603961307 -0.0030066298704087479 0.0014750401045342642 -0.0035497448774772628 0.0022000721651860024 0.005542588233205397 -5.7721091841882751e-05 -0.00060804524092371748 -0.00027422861042849096 -0.000952991799817895 0.0056641930628663307 0.00062594312733134383 0.0028687979985478106 0.010574694315913229 0.029935858759689106 0.0073309380835899444 0.015610125774440948 0.00050280337277988901
leaf_count=1064 347 1416 235 11 2105 1171 222 2761 12777 6 5896 78 13 2268 697 1163 326 42 88 351 1365 9 19 31 80 22629 1336 164 130 8 7 41 41 12 2852 71 11 16 6 335 2094 112 41 5030 87 189 61 106 829 39 292 57 186 87 37 6 7 8 1076
internal_value=0 0.046515 0.0241587 -0.095047 0.0064173 0.0154741 0.143109 0.003312 -0.0620444 -0.208936 -0.0674016 -0.00891408 0.453651 -0.211313 0.0896221 0.204866 0.147681 0.32529 0.152635 0.0112884 0.097026 0.291437 0.585303 1.19413 0.243222 -0.0107879 0.0581736 0.1303 0.362049 0.55245 0.856199 0.168605 0.125179 1.28136 -0.228813 0.415911 0.775958 0.21438 0.860706 0.0841721 0.229282 0.0837818 0.220213 0.13965 -0.0860959 0.126868 0.387094 0.199018 0.0785803 0.0187692 0.113397 0.0300757 0.180871 0.386241 0.516912 1.1677 1.77735 0.684713 0.115995
internal_count=72544 48000 39032 24544 35583 33478 8968 29136 19020 5524 18673 25533 103 5518 3603 3449 2033 535 8746 398 4342 374 139 50 89 25430 2801 1465 294 47 36 7682 2906 25 5120 145 52 93 22 1498 2477 383 271 5205 175 230 493 167 3968 1527 698 535 243 163 124 29 13 16 2441
shrinkage=0.01


Tree=9
num_leaves=60
num_cat=0
split_feature=7 16 4 14 4 6 2 6 11 1 6 14 6 6 6 6 6 6 6 6 6 6 2 1 6 6 6 6 2 2 6 16 6 1 6 6 2 6 14 6 1 6 6 6 12 1 2 6 6 6 6 6 1 6 6 6 6 6 6
split_gain=161.393 52.659 49.9268 46.832 34.5764 13.504 11.7796 15.9514 10.1712 9.4707 11.9106 7.88391 9.73922 7.7381 7.26391 6.66259 12.9589 6.50142 6.43325 5.35253 4.73972 6.91744 4.85652 12.9663 32.9921 4.73385 4.17358 4.74295 7.43336 4.01026 5.46271 3.71088 5.72872 3.50324 4.90829 10.6222 5.33141 7.099 4.27024 3.29956 3.81162 4.37018 4.23348 3.04927 3.03238 3.5165 3.95706 6.49162 3.60645 3.28154 3.22843 2.86225 2.82515 3.37559 2.72408 2.7141 2.66261 3.01097 2.51609
threshold=1.0000000180025095e-35 1.0000000180025095e-35 1.0000000180025095e-35 1.0000000180025095e-35 1.0000000180025095e-35 12.500000000000002 1.0000000180025095e-35 9.5000000000000018 1.0000000180025095e-35 1.0000000180025095e-35 5.5000000000000009 1.0000000180025095e-35 5.5000000000000009 9.5000000000000018 9.5000000000000018 6.5000000000000009 8.5000000000000018 4.5000000000000009 8.5000000000000018 9.5000000000000018 6.5000000000000009 5.5000000000000009 1.0000000180025095e-35 1.0000000180025095e-35 4.5000000000000009 10.500000000000002 5.5000000000000009 6.5000000000000009 1.0000000180025095e-35 1.0000000180025095e-35 2.5000000000000004 1.0000000180025095e-35 8.5000000000000018 1.0000000180025095e-35 4.5000000000000009 3.5000000000000004 1.0000000180025095e-35 6.5000000000000009 1.0000000180025095e-35 9.5000000000000018 1.0000000180025095e-35 10.500000000000002 10.500000000000002 2.5000000000000004 1.0000000180025095e-35 1.0000000180025095e-35 1.0000000180025095e-35 4.5000000000000009 4.5000000000000009 3.5000000000000004 4.5000000000000009 5.5000000000000009 1.0000000180025095e-35 10.500000000000002 3.5000000000000004 11.500000000000002 6.5000000000000009 8.5000000000000018 3.5000000000000004
decision_type=2 2 2 2 2 2 2 2 2 2 2 2 2 2 2 2 2 2 2 2 2 2 2 2 2 2 2 2 2 2 2 2 2 2 2 2 2 2 2 2 2 2 2 2 2 2 2 2 2 2 2 2 2 2 2 2 2 2 2
left_child=1 3 13 4 8 11 9 15 19 10 17 18 -13 31 -14 -8 -17 43 29 26 21 22 -5 24 54 -6 44 28 -28 -4 -31 32 33 -2 35 -35 37 -36 -39 -10 41 -41 -42 -3 45 46 48 58 -1 -46 -51 -11 53 -16 -24 -15 -12 -58 -48
right_child=2 6 5 20 25 -7 7 -9 39 51 56 12 14 55 52 16 -18 -19 -20 -21 -22 -23 23 -25 -26 -27 27 -29 -30 30 -32 -33 -34 34 36 -37 -38 38 -40 40 42 -43 -44 -45 49 -47 47 -49 -50 50 -52 -53 -54 -55 -56 -57 57 -59 -60
leaf_value=0.0013783484234118385 -0.00059123073654167237 -0.0044932897460964686 -0.0030069300546481078 0.0019192124971686656 -0.001714189902056622 0.019197131825502978 0.0077124922504583898 0.0010569888891758467 0.00099371362674519569 -0.0044932896537015895 0.005197581638896393 0.019586421343519379 -0.003547416999224326 -0.00013986462149285473 0.012964970415599462 0.035815768029428159 0.012052167110408381 0.012903157152573742 -0.0018319027868903606 0.00059007953490806616 0.0021118993112746298 6.6164601976247467e-05 -0.0044932897444680091 -0.0030355795630876742 0.042766181605276586 6.2659597057035686e-05 -0.00045041047761600273 0.0002545036195455692 0.00079451805678289796 0.012786965917248611 -0.0012025937415957927 -0.00099969515862004883 -0.0013827893205780367 -0.00081436557467763659 -0.0011344055998355111 0.0048712909815650015 -0.0027238114185204119 0.0014677711952503056 -0.0031143808902416139 0.0034352576608979173 0.0015081909031834306 0.00026121140511972511 0.0057759097095691006 0.0065302083200734252 -0.0037697302731770229 0.00021511979941815065 0.0022340101443328402 0.0035600290383135391 0.00024981836199183463 0.0022832921787614893 -0.00079910643613235772 0.00092271307106533637 0.0009115574616859022 0.0023956683836333053 0.0082642363799495973 -0.0025687164131254297 0.0014294255152817342 0.0035391015096098437 -0.0012205579991727926
leaf_count=1077 2280 6 2166 472 1986 6 10 22 955 23 126 6 44 5894 13 8 11 42 3061 10541 3153 652 6 14 6 368 5090 16716 1223 6 164 7945 1165 135 463 137 140 647 45 147 82 223 113 35 57 1952 70 284 1275 91 301 159 23 12 8 97 193 485 113
internal_value=0 0.0479489 -0.095724 0.0405787 0.026104 -0.2169 0.354002 1.02273 0.0359541 0.321915 0.382627 -0.219297 0.18546 -0.0606767 0.0692406 1.71478 2.20773 0.89651 -0.22669 0.0314198 0.182508 0.104181 0.229563 0.750936 1.48887 -0.143584 0.0211043 0.0127821 -0.0207801 -0.283854 -0.0708376 -0.0805219 -0.0498847 -0.0230861 0.0292982 0.204945 -0.00764867 0.0245794 0.11691 0.150686 0.237191 0.15201 0.398875 0.492533 0.0577382 0.0683529 0.100767 0.220953 0.0767142 -0.0549909 -0.00825872 0.0241224 0.45552 0.78961 0.281608 -0.0179159 0.32936 0.293889 0.0103691
internal_count=72544 48095 24449 46975 42664 5501 1120 51 40310 1069 887 5495 98 18948 92 29 19 83 5397 38790 4311 1158 506 34 20 2354 28249 23029 6313 2336 170 12957 5012 3847 1567 272 1295 1155 692 1520 565 370 195 41 5220 4771 2819 467 2352 449 392 182 48 25 14 5991 804 678 183
shrinkage=0.01


Tree=10
num_leaves=60
num_cat=0
split_feature=5 5 7 8 0 5 0 7 0 14 0 5 5 16 5 16 0 0 7 5 0 12 0 5 5 5 0 0 0 0 10 5 0 0 5 14 0 7 0 8 7 0 5 5 0 0 14 7 0 5 0 0 0 0 11 5 5 0 0
split_gain=272.081 107.903 88.9481 86.3408 68.6703 42.2362 39.8276 37.4265 40.8076 19.5444 15.7886 26.0628 50.6121 15.1392 13.7059 16.009 16.3422 12.4009 11.3101 14.7499 11.2654 11.219 10.912 12.385 10.2473 17.8865 27.571 31.063 10.0065 9.90383 9.49363 9.42105 9.24104 19.3224 13.8042 13.801 19.4375 11.3288 9.29507 13.0456 9.02305 8.34571 8.33994 22.3447 7.94281 11.0046 7.54461 8.97681 8.79412 10.8648 7.82526 12.7348 11.7552 18.4891 13.3681 9.09806 15.0556 7.40458 7.38805
threshold=54.500000000000007 90.500000000000014 1.0000000180025095e-35 1.0000000180025095e-35 275.50000000000006 134.00000000000003 493.50000000000006 1.0000000180025095e-35 516.50000000000011 1.0000000180025095e-35 299.50000000000006 76.500000000000014 80.500000000000014 1.0000000180025095e-35 68.500000000000014 1.0000000180025095e-35 251.50000000000003 339.50000000000006 1.0000000180025095e-35 85.500000000000014 106.50000000000001 1.0000000180025095e-35 587.50000000000011 106.50000000000001 75.500000000000014 72.500000000000014 283.50000000000006 555.50000000000011 673.50000000000011 587.50000000000011 1.0000000180025095e-35 50.500000000000007 233.50000000000003 153.50000000000003 139.50000000000003 1.0000000180025095e-35 451.50000000000006 1.0000000180025095e-35 94.500000000000014 1.0000000180025095e-35 1.0000000180025095e-35 162.50000000000003 100.50000000000001 112.50000000000001 315.50000000000006 384.50000000000006 1.0000000180025095e-35 1.0000000180025095e-35 153.50000000000003 95.500000000000014 153.50000000000003 180.50000000000003 251.50000000000003 259.50000000000006 1.0000000180025095e-35 112.50000000000001 100.50000000000001 267.50000000000006 307.50000000000006
decision_type=2 2 2 2 2 2 2 2 2 2 2 2 2 2 2 2 2 2 2 2 2 2 2 2 2 2 2 2 2 2 2 2 2 2 2 2 2 2 2 2 2 2 2 2 2 2 2 2 2 2 2 2 2 2 2 2 2 2 2
left_child=2 4 3 13 14 6 20 8 -8 24 11 40 -13 21 -2 -16 -17 31 19 -12 -3 41 23 -10 25 30 -27 -28 42 -19 -6 58 33 34 -7 36 37 -34 39 -36 -11 -1 -9 -44 -32 -46 50 48 49 -48 -22 55 54 -54 -53 56 -52 -18 -15
right_child=1 5 -4 -5 9 32 7 28 22 10 18 12 -14 17 15 16 57 29 -20 -21 46 -23 -24 -25 -26 26 27 -29 -30 -31 44 -33 35 -35 38 -37 -38 -39 -40 -41 -42 -43 43 -45 45 -47 47 -49 -50 -51 51 52 53 -55 -56 -57 -58 -59 -60
leaf_value=0.0057280046641431624 -0.00011768244297561927 0.0039711434087839649 -0.0014215898518373494 -0.00061727584121487003 0.0020106334198561971 0.030376876600905975 0.056237485502103328 0.0051049894870123236 -0.00019452826384446217 0.0043630619622006435 0.0040168533508630581 0.048743877526317619 -0.0044932896794709614 0.0027740599611431678 0.00065600636106079096 0.0045326772381511877 0.036079722268170682 0.0014606029090573098 -0.0024919364318893552 0.016473073482760076 0.00064457994671957041 -0.00072001014867187645 0.034518619441310731 0.023328773183743094 0.00078026777799168005 0.04013406466744468 0.003460476555846709 0.024022181816161545 -0.0044932895754038783 0.013280544012272646 0.019365013073494114 0.013497924431289735 0.043030831206636345 -0.0044932896520128813 -0.0044932895557596433 -0.0044932895464599738 0.010454690544126777 0.017217788646333866 0.0017344269866767605 0.015794757277143079 0.021703546149235132 0.0011333798034126859 0.024250209194199512 -0.0044932895386617577 -0.004493289654766584 0.010630323294841291 -0.0044932894902926226 0.021472627288091996 0.0025716045523397858 0.019742652409592085 0.0045507189760346295 -0.00079411146959088908 0.013873933890428743 0.0026058247395183026 0.012909370629612791 -0.0026428772118820627 0.014085608562605276 0.011613642317570181 0.0082056725876943452
leaf_count=82 6947 1262 19084 20590 3699 7 6 44 9 48 376 9 6 140 9959 81 5 469 51 20 590 706 5 8 1215 5 118 17 14 15 10 28 8 17 7 5 15 5 19 46 7 5609 17 8 15 28 5 7 73 14 126 309 31 380 15 22 46 5 80
internal_value=0 0.117603 -0.0660611 -0.0142046 0.0828394 0.364721 0.329513 1.15637 2.5192 0.219765 0.482635 1.1108 2.76555 0.121325 0.0372947 0.0711022 0.66592 0.315653 0.384624 0.465064 0.297005 0.0989397 1.63239 1.11219 0.192713 0.228567 0.729443 0.607263 0.66641 0.182474 0.209758 0.574675 1.13916 0.918495 1.20265 1.76087 2.11474 3.30987 1.0199 1.31324 0.655752 0.11997 0.883942 1.53123 0.806494 0.539004 0.218071 0.594967 0.478831 1.33516 0.192958 0.274444 0.188808 0.348165 -0.0149709 0.599613 0.710081 2.38004 0.475106
internal_count=72544 25741 46803 27719 22621 3120 2991 111 28 5624 517 70 15 7129 16997 10050 91 732 447 396 2880 6397 22 17 5107 3892 140 135 83 484 3752 248 129 96 79 33 28 13 72 53 55 5691 69 25 53 43 1618 99 92 19 1519 929 735 411 324 194 172 10 220
shrinkage=0.01


Tree=11
num_leaves=60
num_cat=0
split_feature=5 5 7 8 14 5 6 5 5 5 6 1 14 5 5 15 5 7 6 6 5 15 15 6 8 7 5 13 5 1 6 11 5 6 6 6 5 5 5 1 6 7 6 8 7 5 5 1 15 6 14 6 6 5 6 5 6 6 5
split_gain=259.505 94.2085 93.5814 83.5315 36.0913 26.6899 17.9776 23.7464 10.8886 12.6255 15.1889 16.528 10.8148 14.2707 10.501 9.82018 14.4549 12.322 13.0546 10.4603 10.3473 9.26646 8.3279 8.76981 7.61921 13.1845 14.5619 49.9934 20.8957 17.6798 11.5309 16.7706 11.4624 8.41792 7.01147 6.67872 6.20808 7.2606 17.216 13.2795 22.5268 6.15013 6.07319 6.01152 5.9935 7.31897 15.2582 19.7425 27.0197 37.4925 7.20369 6.38613 6.35108 5.7433 5.62991 6.12392 6.14178 5.61279 9.75499
threshold=54.500000000000007 90.500000000000014 1.0000000180025095e-35 1.0000000180025095e-35 1.0000000180025095e-35 132.50000000000003 10.500000000000002 134.00000000000003 51.500000000000007 53.500000000000007 7.5000000000000009 1.0000000180025095e-35 1.0000000180025095e-35 52.500000000000007 147.50000000000003 1.0000000180025095e-35 134.00000000000003 1.0000000180025095e-35 7.5000000000000009 6.5000000000000009 139.50000000000003 1.0000000180025095e-35 1.0000000180025095e-35 11.500000000000002 1.0000000180025095e-35 1.0000000180025095e-35 62.500000000000007 1.0000000180025095e-35 60.500000000000007 1.0000000180025095e-35 8.5000000000000018 1.0000000180025095e-35 65.500000000000014 9.5000000000000018 9.5000000000000018 10.500000000000002 88.500000000000014 75.500000000000014 72.500000000000014 1.0000000180025095e-35 8.5000000000000018 1.0000000180025095e-35 10.500000000000002 1.0000000180025095e-35 1.0000000180025095e-35 112.50000000000001 106.50000000000001 1.0000000180025095e-35 1.0000000180025095e-35 8.5000000000000018 1.0000000180025095e-35 3.5000000000000004 9.5000000000000018 118.50000000000001 9.5000000000000018 56.500000000000007 10.500000000000002 9.5000000000000018 63.500000000000007
decision_type=2 2 2 2 2 2 2 2 2 2 2 2 2 2 2 2 2 2 2 2 2 2 2 2 2 2 2 2 2 2 2 2 2 2 2 2 2 2 2 2 2 2 2 2 2 2 2 2 2 2 2 2 2 2 2 2 2 2 2
left_child=2 4 3 8 22 44 14 -8 -1 10 -10 12 13 -12 15 16 -7 18 19 20 -17 -9 23 24 25 26 27 28 54 30 31 -30 -27 -31 -20 -5 37 38 -34 40 -40 -6 -42 -16 51 46 50 -48 49 -49 -46 -3 -50 -47 -2 56 -56 -24 -59
right_child=1 5 -4 35 41 6 7 21 9 -11 11 -13 -14 -15 43 17 -18 -19 34 -21 -22 -23 57 -25 -26 32 -28 -29 29 33 -32 -33 36 -35 -36 -37 -38 -39 39 -41 42 -43 -44 -45 45 53 47 48 52 -51 -52 -53 -54 -55 55 -57 -58 58 -60
leaf_value=0.0010858498477272524 0.0015045387279687872 -0.0012581250075070114 -0.0014222461675601542 -0.00065924507202085264 0.0035095715904847787 0.023209716968925903 -0.0044932896346429217 0.037291480388118477 0.0013119891636726828 0.00083012986347298743 0.010181967972159509 0.00040551797905352709 0.0039194533379029763 0.023745605523444784 -0.0044932896434620893 0.0083501761465910596 -0.0044932896004889382 -0.0044932896226931836 0.03493963446348132 0.002757248897903828 0.034851940289196824 0.017572229116539179 0.00038819966286257981 0.014089126653080793 0.00017002766880055883 -1.3044259261828157e-06 0.0016762955347236674 0.049076275838414063 0.033872488028258915 -0.0044932896333134556 0.010110154221932238 0.0055715024644286057 0.0021653075897668339 0.01559119304932066 0.014608034933398064 0.00024354207261229695 0.0061178540850577324 0.00042204179859791204 0.033817382775190398 0.0026462820269983283 -0.0044932895504680151 0.00022612233677348948 0.015789205993492803 0.0056646535649063105 0.0012821884832622196 -0.0039024742272791681 0.002185403811013164 0.011122162189762766 -0.0044932897173214905 0.061594790299109116 0.013403709794177196 0.0035897021835558313 0.015356559335135031 0.004317615460188079 0.024035608144236456 0.0044393389640179828 0.0035143181755022158 0.0019189634176321347 0.00058904276319788934
leaf_count=6719 159 56 19088 18708 1124 5 6 9 87 191 44 33 24 24 17 6 15 6 9 13 5 8 12058 11 894 975 453 5 14 14 19 6 265 6 5 1864 81 326 11 17 6 130 6 36 397 69 33 6 7 5 10 2352 6 23 7 61 5 1516 4489
internal_value=0 0.115175 -0.0641202 -0.0109044 0.0827979 0.346389 0.937281 2.02811 0.122359 0.349459 0.587512 0.904139 1.21252 1.50071 0.711022 1.08865 0.255985 1.44431 1.72435 1.11241 2.08866 2.79412 0.0688538 0.134444 0.130229 0.171586 0.328215 0.573033 0.494424 1.24474 1.795 2.54522 0.100956 0.156133 2.77824 -0.0577126 0.239005 0.191042 0.349613 1.21813 1.92185 0.317272 0.566722 0.250069 0.317168 0.183959 0.256382 0.936093 1.88905 3.43214 0.158593 0.347715 0.477143 -0.183849 0.301168 0.627154 1.54972 0.0566677 0.0924587
internal_count=72544 25762 46782 27694 22658 3104 140 23 7122 403 212 125 92 68 117 64 20 44 38 24 11 17 21404 3341 3330 2436 749 296 291 59 39 20 1687 20 14 20572 712 631 305 40 23 1254 12 53 2964 556 464 57 24 11 407 2408 13 92 232 73 12 18063 6005
shrinkage=0.01


Tree=12
num_leaves=60
num_cat=0
split_feature=5 5 4 0 7 8 5 6 16 0 8 8 4 0 0 7 13 15 0 5 5 0 0 5 0 6 6 5 5 0 6 0 5 5 0 0 6 5 0 6 0 0 6 5 15 6 5 6 16 5 0 0 0 5 5 5 0 5 4
split_gain=240.747 102.844 94.5517 65.3047 51.7476 72.7129 30.0415 34.4271 21.8499 21.6913 23.9586 18.7494 18.5459 17.3903 16.7931 13.5465 33.994 25.8646 14.2633 16.9662 11.9934 15.4843 11.1343 10.6819 25.5483 18.4316 10.5143 10.2984 16.3366 13.101 36.5211 10.0802 10.0532 9.94448 9.34077 27.4211 14.4526 9.28225 9.25285 9.19217 9.02881 15.2455 25.8995 12.0398 8.66846 10.9182 15.8692 11.999 9.67699 8.09869 18.8376 33.0902 34.8997 13.1158 7.88275 7.69689 9.87469 7.57899 7.55569
threshold=54.500000000000007 90.500000000000014 1.0000000180025095e-35 275.50000000000006 1.0000000180025095e-35 1.0000000180025095e-35 134.00000000000003 10.500000000000002 1.0000000180025095e-35 483.50000000000006 1.0000000180025095e-35 1.0000000180025095e-35 1.0000000180025095e-35 106.50000000000001 392.50000000000006 1.0000000180025095e-35 1.0000000180025095e-35 1.0000000180025095e-35 315.50000000000006 80.500000000000014 50.500000000000007 357.50000000000006 673.50000000000011 85.500000000000014 366.50000000000006 8.5000000000000018 10.500000000000002 71.500000000000014 69.500000000000014 348.50000000000006 9.5000000000000018 307.50000000000006 95.500000000000014 68.500000000000014 555.50000000000011 587.50000000000011 10.500000000000002 95.500000000000014 233.50000000000003 10.500000000000002 291.50000000000006 299.50000000000006 9.5000000000000018 62.500000000000007 1.0000000180025095e-35 9.5000000000000018 106.50000000000001 10.500000000000002 1.0000000180025095e-35 50.500000000000007 283.50000000000006 299.50000000000006 291.50000000000006 51.500000000000007 164.50000000000003 55.500000000000007 224.50000000000003 53.500000000000007 1.0000000180025095e-35
decision_type=2 2 2 2 2 2 2 2 2 2 2 2 2 2 2 2 2 2 2 2 2 2 2 2 2 2 2 2 2 2 2 2 2 2 2 2 2 2 2 2 2 2 2 2 2 2 2 2 2 2 2 2 2 2 2 2 2 2 2
left_child=2 3 4 12 5 8 9 11 -1 13 22 54 33 44 -9 16 17 23 19 40 -10 38 34 27 -25 -26 -27 28 -5 -30 -31 -29 -12 -2 36 -36 -11 -37 -22 -7 -17 42 -42 -44 48 -46 47 58 -3 -41 -51 52 -52 -53 -8 56 -14 -40 -47
right_child=1 6 -4 15 -6 39 7 14 20 10 32 -13 55 -15 -16 18 -18 -19 -20 -21 21 -23 -24 24 25 26 -28 31 29 30 -32 -33 -34 -35 35 37 -38 -39 57 49 41 -43 43 -45 45 46 -48 -49 -50 50 51 53 -54 -55 -56 -57 -58 -59 -60
leaf_value=0.00096301717830410167 7.4280314774800614e-06 0.001083546604226445 -0.0023385858493302262 0.0047887263219884794 -0.001073184875841628 -0.00056411062202751851 -0.0044932896503902678 0.017391359270217593 0.0030493300959234895 0.00087277506135561851 0.036901597588409392 0.011150685693053188 -0.0044932896902967461 0.0019765413662626618 0.043401542880600774 0.0026302324641810592 0.029456643354949678 0.001809831059844074 0.00075634478017502771 -0.0032642617139843305 0.0076947053720006452 0.0010066723046442488 -0.0044932897135942377 -0.001988853391049416 0.036801238853585494 0.00047707224534151576 0.025119545429718688 0.0080176707794060824 0.0044924604586165547 0.051539481382971521 0.0022298764470317384 0.00049633682186446797 0.013979994405186614 0.00073743454430618381 0.030218238575215592 0.015142644064471283 0.02225096426004957 -0.00028218892014791137 0.034563928511767858 0.00021311624025599886 0.0066136229776815481 0.0051386999621188759 0.046108338992946356 0.020117431441791116 0.0038646913061800353 0.0083183763340165529 0.012096110249022265 -0.0002861935265552057 0.017770524599874073 -3.8271714195451789e-05 0.010204424549809119 0.020097304363441423 0.059391497624693416 0.0011200676304910038 0.011871814540174717 -0.0015534350851502698 0.022867249076968802 0.015510186937452321 -0.0044932895563938096
leaf_count=6308 6476 212 5942 622 14660 17425 30 13 686 41 7 66 5 1614 6 95 9 2538 1895 50 13 22 16 16 9 8 6 43 9 6 6 205 7 9406 12 13 7 19 7 1485 24 87 6 9 773 116 87 62 7 111 7 9 5 40 7 1153 6 10 10
internal_value=0 0.109568 -0.0630028 0.0756569 -0.0383808 -0.000170005 0.349791 1.0163 0.123651 0.32093 0.898468 0.685569 0.0312811 0.295839 2.62223 0.208678 0.263648 0.256241 0.119631 0.426541 0.355317 1.00903 0.666468 0.457645 1.17917 2.12265 1.10807 0.425751 0.520311 1.74948 2.71274 0.180754 2.55545 0.0440414 0.848997 1.30928 0.417068 0.605313 1.66324 -0.0466322 0.596674 0.847166 1.58846 3.04815 0.419303 0.472559 0.713624 0.482513 0.16317 0.0556474 0.34974 0.985163 3.10614 0.464696 -0.12661 -0.143919 1.05239 2.3467 0.731095
internal_count=72544 25814 46730 22689 40788 26128 3125 122 7046 3003 122 103 17046 2881 19 5643 3477 3468 2166 271 738 52 108 930 39 23 14 891 643 21 12 248 14 15882 92 44 48 32 30 19082 221 126 39 15 1267 1048 275 188 219 1657 172 61 12 49 37 1164 11 17 126
shrinkage=0.01


Tree=13
num_leaves=60
num_cat=0
split_feature=5 5 7 3 16 5 0 6 10 0 3 0 3 5 6 6 0 3 5 0 5 5 5 7 3 6 6 0 3 7 7 0 7 6 3 5 3 0 0 0 5 6 3 5 6 16 6 3 6 0 0 3 6 6 6 3 3 6 5
split_gain=267.569 105.511 93.4057 73.0833 54.5271 38.4866 22.9442 55.3477 20.3586 18.6514 69.1784 22.2941 16.4328 16.2841 25.1959 18.3742 15.8974 15.2903 15.5362 18.7025 26.521 14.1625 13.5817 12.9174 12.582 12.3759 12.1088 11.7426 11.555 11.0929 10.711 10.3487 10.3175 12.8439 10.3315 12.4361 23.7721 10.1845 10.8875 9.87706 12.8595 9.18979 9.12156 15.5153 12.1707 9.00729 22.0697 39.5798 8.92409 14.6424 17.3544 14.5303 12.5712 11.2951 10.5906 11.2392 12.0588 13.4598 8.9212
threshold=57.500000000000007 90.500000000000014 1.0000000180025095e-35 45.500000000000007 1.0000000180025095e-35 132.50000000000003 331.50000000000006 7.5000000000000009 1.0000000180025095e-35 504.50000000000006 61.500000000000007 106.50000000000001 82.500000000000014 50.500000000000007 6.5000000000000009 5.5000000000000009 94.500000000000014 84.500000000000014 60.500000000000007 673.50000000000011 73.500000000000014 73.500000000000014 55.500000000000007 1.0000000180025095e-35 51.500000000000007 9.5000000000000018 6.5000000000000009 451.50000000000006 39.500000000000007 1.0000000180025095e-35 1.0000000180025095e-35 673.50000000000011 1.0000000180025095e-35 4.5000000000000009 26.500000000000004 100.50000000000001 27.500000000000004 67.500000000000014 259.50000000000006 82.500000000000014 143.00000000000003 9.5000000000000018 38.500000000000007 51.500000000000007 6.5000000000000009 1.0000000180025095e-35 8.5000000000000018 60.500000000000007 10.500000000000002 384.50000000000006 400.50000000000006 44.500000000000007 7.5000000000000009 5.5000000000000009 6.5000000000000009 61.500000000000007 55.500000000000007 7.5000000000000009 51.500000000000007
decision_type=2 2 2 2 2 2 2 2 2 2 2 2 2 2 2 2 2 2 2 2 2 2 2 2 2 2 2 2 2 2 2 2 2 2 2 2 2 2 2 2 2 2 2 2 2 2 2 2 2 2 2 2 2 2 2 2 2 2 2
left_child=2 3 4 29 8 9 16 -8 42 11 -11 24 30 -6 15 -15 23 18 -14 20 -20 -21 -17 39 32 -16 -12 -9 -27 -2 45 -28 33 -3 -34 -36 41 -31 -39 40 -7 -37 -1 -44 -45 -5 47 -47 49 51 52 -10 53 -51 -52 56 57 -56 -4
right_child=1 5 58 12 13 6 7 27 48 10 26 -13 17 14 25 22 -18 -19 19 21 -22 -23 -24 -25 -26 28 31 -29 -30 37 -32 -33 34 -35 35 36 -38 38 -40 -41 -42 -43 43 44 -46 46 -48 -49 -50 50 54 -53 -54 -55 55 -57 -58 -59 -60
leaf_value=-0.00078640742957700193 0.00058931416281554237 -0.0020882909959201463 -0.0014310427772870032 0.0027625440791489157 0.0026641255800620967 0.003284873926877738 -0.0044932896804402581 0.054718524377300258 0.003285959369759416 0.046632207758823235 -0.0028785881333516471 0.0020230070857498944 -0.0044932895525401674 0.0030671728791215802 -0.00097463306540046719 0.018761940887375608 0.0031357952118123773 0.0029054915387271467 0.015959581017875236 0.023202396276960881 0.058636461913481458 -0.004493289679421442 0.044319370628748279 -0.0044932897221900102 0.024689942172358155 0.02406022452816222 0.010557682521021985 0.02950375921095115 0.0062823606416082039 0.0031015505233176867 0.0015070097820166352 -0.0044932897808596176 -0.0024988598628915247 0.0052559447219887945 -0.000465840732804417 0.015743893028811351 0.0033512119366059085 -0.0010689806914321507 0.0024586201160289494 0.028954338749735742 0.018256706442236065 0.042845106163315071 -0.00022937153048674806 -0.00098885243424548259 0.001807601035388941 0.0076095551088203863 0.0019460441929626485 0.042739747368302508 -0.0015897890135262225 0.0023313699587591752 -0.001048661545040748 -0.0019352817061925856 3.4373444854488286e-05 0.024669936915260614 0.01151538874514132 -0.0029219781133223554 0.011236543691240887 -0.0017290916920682645 -0.00018783102170318502
leaf_count=5213 13019 50 18425 2701 782 17 9 5 250 8 25 1611 6 8 40 10 61 36 7 8 5 7 7 7 6 9 64 8 37 151 1821 11 80 1037 40 5 23 1957 197 8 29 5 20992 417 1377 26 59 8 119 6 65 191 9 20 24 26 74 44 1282
internal_value=0 0.129335 -0.0574156 0.090775 -0.00672911 0.370892 1.06116 2.31203 -0.0176895 0.335136 0.904412 0.313036 0.246545 0.339372 0.845216 2.08817 0.822313 0.937815 1.63501 2.09196 3.4117 1.03274 2.90605 1.30692 0.454107 0.480748 0.572216 3.93991 0.978425 0.0427456 0.236219 0.848795 0.444157 0.492163 0.100021 0.486219 1.12847 -0.0490456 -0.0743791 1.52963 1.28288 2.94684 -0.0243302 -0.0119121 0.115931 0.291437 0.721868 1.61319 0.202345 0.262854 0.524983 0.103085 1.45908 1.95852 0.384661 0.572606 0.728857 0.29528 -0.134932
internal_count=72544 23117 49427 20008 29720 3109 144 22 28827 2965 108 2857 4684 893 111 25 122 69 33 27 12 15 17 61 1246 86 100 13 46 15324 4615 75 1240 1087 153 73 33 2305 2154 54 46 10 27999 22786 1794 2794 93 34 828 709 268 441 35 26 233 168 142 68 19707
shrinkage=0.01


Tree=14
num_leaves=60
num_cat=0
split_feature=5 9 5 4 9 10 5 4 5 7 5 16 16 5 5 5 10 5 5 5 15 16 16 5 5 11 16 9 5 5 5 5 10 15 5 5 15 5 5 5 11 5 15 5 5 5 5 4 5 16 5 5 9 11 7 5 5 16 5
split_gain=250.862 107.764 89.0217 73.2754 49.126 46.8208 33.1981 19.6929 16.3632 15.5267 14.2817 12.7202 12.5122 12.3141 12.1491 9.44843 9.37961 9.83588 9.13144 8.41555 12.5004 8.35447 7.92267 7.73093 7.00259 6.79553 6.46327 6.45088 9.16417 6.34661 8.04885 5.90187 5.24489 10.8498 10.9271 5.15385 7.40199 4.98076 4.31203 8.61304 5.25387 4.16393 4.10994 8.53347 13.7395 5.13118 4.05048 4.00072 3.93817 7.26742 15.8675 4.99429 3.47434 3.30431 3.28629 3.11744 2.91852 2.91477 2.87449
threshold=57.500000000000007 1.0000000180025095e-35 90.500000000000014 1.0000000180025095e-35 1.0000000180025095e-35 1.0000000180025095e-35 134.00000000000003 1.0000000180025095e-35 51.500000000000007 1.0000000180025095e-35 63.500000000000007 1.0000000180025095e-35 1.0000000180025095e-35 58.500000000000007 73.500000000000014 53.500000000000007 1.0000000180025095e-35 59.500000000000007 75.500000000000014 147.50000000000003 1.0000000180025095e-35 1.0000000180025095e-35 1.0000000180025095e-35 51.500000000000007 61.500000000000007 1.0000000180025095e-35 1.0000000180025095e-35 1.0000000180025095e-35 118.50000000000001 60.500000000000007 58.500000000000007 143.00000000000003 1.0000000180025095e-35 1.0000000180025095e-35 106.50000000000001 52.500000000000007 1.0000000180025095e-35 60.500000000000007 72.500000000000014 71.500000000000014 1.0000000180025095e-35 50.500000000000007 1.0000000180025095e-35 85.500000000000014 76.500000000000014 83.500000000000014 88.500000000000014 1.0000000180025095e-35 112.50000000000001 1.0000000180025095e-35 95.500000000000014 100.50000000000001 1.0000000180025095e-35 1.0000000180025095e-35 1.0000000180025095e-35 52.500000000000007 50.500000000000007 1.0000000180025095e-35 54.500000000000007
decision_type=2 2 2 2 2 2 2 2 2 2 2 2 2 2 2 2 2 2 2 2 2 2 2 2 2 2 2 2 2 2 2 2 2 2 2 2 2 2 2 2 2 2 2 2 2 2 2 2 2 2 2 2 2 2 2 2 2 2 2
left_child=1 3 4 5 7 9 27 16 22 -1 12 15 29 -14 -12 35 17 -2 -16 20 52 54 47 -11 -23 -21 55 32 48 30 -6 -22 -4 34 -34 53 -37 -15 39 -18 -41 -24 -20 44 -44 -46 -40 -3 49 51 -51 -29 57 -10 -19 56 -7 -8 -57
right_child=2 8 6 -5 10 26 19 -9 11 23 14 -13 13 37 18 -17 38 21 42 25 31 24 41 -25 -26 -27 -28 28 -30 -31 -32 -33 33 -35 -36 36 -38 -39 46 40 -42 -43 43 -45 45 -47 -48 -49 -50 50 -52 -53 -54 -55 -56 58 -58 -59 -60
leaf_value=-0.00042579298766251105 0.0023765159754114838 0.00075561753057281278 0.0028443840253444077 -0.002298250654152189 0.0056736823609239454 0.0018594883547977973 -0.0044932896479219541 -0.00091208806665305181 0.0048871545698005664 -0.0011231809993848189 0.00085030608820055201 0.0095292974888928142 -0.0044932895668789944 0.009198926037396124 0.010821896989156404 0.0016391080170250331 0.003888112160418553 0.00067406224860899853 0.0020346339980685376 0.0053726529424215751 0.013596764054001533 -0.0019048242068897207 0.0025019141518229549 0.00018986709719552193 0.0025948573449257736 0.020764023529593969 0.00441723208254998 0.0032661510944515539 0.015938734763975303 0.0058762737557537664 0.00110294974664805 0.023800891775979757 0.018966707215200086 -0.0044932896983640672 -0.0044932895465493537 0.0036504159768616477 0.013909595904423823 0.018985200232135926 0.00024976882092937828 0.0089688597677681347 0.026985938758848867 0.015463073868772603 0.00081891935056422043 3.8869540288932134e-05 0.0053707114135048773 0.0098237973425788251 0.012327426253582916 -0.003566999816792754 -0.00016539041275339951 -0.0044932895848284618 0.027527339667517886 0.0074913207153160487 0.014353637077585496 -0.0014812142705349269 8.7162915670431599e-05 -0.004493289689562213 0.0062525093241048999 0.0082768878526938636 0.0011349276617177103
leaf_count=20622 710 5254 2641 6185 124 695 8 1560 90 14108 755 56 8 19 31 525 144 12134 405 57 24 79 468 996 673 5 239 184 14 234 206 17 17 9 5 27 29 22 85 9 5 5 103 85 133 86 6 45 32 5 8 79 5 20 2337 29 32 6 50
internal_value=0 -0.0571061 0.123754 -0.083613 0.0881801 -0.0592728 0.344831 0.062894 0.11384 -0.0682199 0.287431 0.311359 0.470701 1.14809 0.216463 0.257877 0.0776632 0.0733146 0.333243 1.03524 1.39297 0.0656136 0.0878915 -0.103562 0.212345 0.682464 0.237194 0.314183 0.502071 0.410438 0.283185 1.79563 0.291329 0.859674 1.37633 0.551722 0.899194 1.45595 0.350834 0.492322 1.55116 0.264064 0.304154 0.405323 0.510949 0.711933 0.104511 0.0719552 0.45055 0.504744 1.53216 0.454003 0.455385 0.37283 0.0579444 0.176083 0.205309 0.0989958 -0.0918282
internal_count=72544 49475 23069 42956 19953 36771 3116 17742 6519 35726 2211 747 613 49 1598 691 16182 15933 843 122 60 15223 5772 15104 752 62 1045 2994 322 564 330 41 2672 31 22 166 56 41 249 158 14 473 812 407 322 219 91 5299 308 276 13 263 19 110 14471 806 727 14 79
shrinkage=0.01


Tree=15
num_leaves=60
num_cat=0
split_feature=5 7 5 3 15 5 3 14 6 15 3 3 3 3 5 3 5 5 3 3 13 5 5 15 6 5 5 5 6 3 3 3 5 3 7 3 6 6 3 14 6 5 6 5 14 3 5 5 6 6 3 3 3 6 3 5 3 3 5
split_gain=238.76 96.5098 89.9869 62.2396 44.1549 27.9581 27.3126 34.9055 24.1208 19.9512 16.9832 72.6135 21.1922 16.2938 14.361 14.2266 14.1727 17.4611 43.0712 15.3215 37.0102 45.3134 22.9393 18.7574 21.1503 23.2483 17.696 18.103 19.85 12.6892 11.9959 11.8505 11.4476 10.5382 10.0586 10.8696 10.3063 10.0434 17.9043 9.90589 9.45963 22.9118 9.38799 9.17872 8.84411 13.5585 22.8191 16.5576 16.0449 9.75165 8.72183 9.29715 20.016 8.70015 13.9227 14.0133 8.54137 9.24942 8.12522
threshold=57.500000000000007 1.0000000180025095e-35 90.500000000000014 45.500000000000007 1.0000000180025095e-35 134.00000000000003 57.500000000000007 1.0000000180025095e-35 10.500000000000002 1.0000000180025095e-35 50.500000000000007 38.500000000000007 25.500000000000004 62.500000000000007 139.50000000000003 68.500000000000014 75.500000000000014 72.500000000000014 82.500000000000014 51.500000000000007 1.0000000180025095e-35 61.500000000000007 67.500000000000014 1.0000000180025095e-35 9.5000000000000018 65.500000000000014 60.500000000000007 63.500000000000007 10.500000000000002 47.500000000000007 26.500000000000004 58.500000000000007 59.500000000000007 50.500000000000007 1.0000000180025095e-35 24.500000000000004 5.5000000000000009 6.5000000000000009 48.500000000000007 1.0000000180025095e-35 9.5000000000000018 50.500000000000007 11.500000000000002 53.500000000000007 1.0000000180025095e-35 42.500000000000007 76.500000000000014 80.500000000000014 9.5000000000000018 10.500000000000002 33.500000000000007 61.500000000000007 60.500000000000007 9.5000000000000018 34.500000000000007 95.500000000000014 36.500000000000007 45.500000000000007 95.500000000000014
decision_type=2 2 2 2 2 2 2 2 2 2 2 2 2 2 2 2 2 2 2 2 2 2 2 2 2 2 2 2 2 2 2 2 2 2 2 2 2 2 2 2 2 2 2 2 2 2 2 2 2 2 2 2 2 2 2 2 2 2 2
left_child=1 4 3 44 40 6 30 31 9 -7 11 12 -11 -9 -14 43 17 19 -19 20 23 -22 -23 24 32 26 -26 28 -28 -18 34 -8 37 -10 35 58 -37 -5 -39 -32 -1 -42 -21 -3 -2 -46 49 -48 -49 -47 -43 52 -52 54 -41 -56 -55 -58 -4
right_child=2 15 5 16 -6 8 7 13 33 10 -12 -13 14 -15 -16 -17 29 18 -20 42 21 22 -24 -25 25 -27 27 -29 -30 -31 39 -33 -34 -35 -36 36 -38 38 -40 53 41 50 -44 -45 45 46 47 48 -50 -51 51 -53 -54 56 55 -57 57 -59 -60
leaf_value=0.00067985785159785004 0.00034315945025147824 -0.0011406873949466852 -0.00025206191586448829 0.0021876688514281756 -0.0003149587723526656 -0.0021435066879960962 0.016350329159750158 0.043905608557753252 0.015213742046988998 0.022425742420089715 -0.0044932895841095525 0.059647920154262658 0.024630578941623873 0.015736450032385611 4.759588784428579e-05 -0.0018502476798503578 -0.002134008134017676 0.0061237374135885139 0.046541668880207103 0.0019016800112254468 0.05768473008694848 -0.0044932896943303416 0.029637887560203559 0.0026260502437268941 0.0095669199697070058 0.0030700808882471245 0.024278222472104507 0.013642329526665574 0.057853286769377656 0.0016777127065207061 0.0019050581844253442 0.0051700057429832046 0.0015553862676930413 0.034070341046083745 -0.00055642624299960498 0.00030189861510250451 0.0078915665912559826 0.038498572161915233 0.0076190173573204983 0.018570017222363965 0.0012444778053727927 -0.0044932896307229783 0.015703356485423831 0.00049626300980557458 0.001176406881044832 0.00051991133580423486 0.03069607491146141 0.022252291202675922 -0.0044932896579438142 0.018053504227889421 0.0066330000837589113 -0.001991480774887366 0.035106338279501735 -0.0044932896096023644 -0.0044932896819761805 0.011847789576091013 0.012900791566560774 -0.0044932895810489192 0.0043021853699420146
leaf_count=4248 14620 11808 98 12 23673 34 21 6 14 14 11 5 5 9 33 7191 207 136 5 2162 5 9 7 669 17 24 8 10 6 1253 1831 182 86 7 81 41 246 6 10 22 1574 16 10 755 550 60 11 9 9 7 221 24 5 23 18 24 18 9 369
internal_value=0 -0.0546281 0.12184 0.0859516 -0.00316038 0.343468 0.31531 0.790122 0.97319 0.684139 1.09009 1.3829 0.882264 2.74379 0.336348 -0.133457 0.230125 0.283351 0.769512 0.260488 0.420191 2.25437 1.05218 0.373153 0.778839 1.42097 2.06086 2.83451 3.84533 0.113852 0.277195 0.630806 0.411086 2.20972 0.417438 0.467517 0.681349 1.19769 1.93238 0.215969 0.105119 0.190464 0.196546 -0.104096 0.0416153 0.204318 0.693534 1.73414 0.888157 0.23787 0.573969 0.638101 0.726889 0.615999 0.957426 0.484114 0.178154 0.71199 0.335116
internal_count=72544 49515 23029 19908 29761 3121 2998 218 123 102 68 57 52 15 38 19754 4642 3182 141 3041 869 21 16 848 179 65 41 24 14 1460 2780 203 114 21 835 754 287 28 16 1945 6088 1840 2172 12563 15266 646 96 29 18 67 266 250 226 114 64 42 50 27 467
shrinkage=0.01


Tree=16
num_leaves=60
num_cat=0
split_feature=5 5 4 3 3 5 4 3 3 3 0 3 3 3 5 0 8 3 3 3 3 3 13 3 0 0 5 0 5 5 8 0 5 5 0 5 5 3 8 3 3 0 5 1 5 0 5 5 15 5 0 5 0 5 5 4 0 15 5
split_gain=257.927 96.8412 96.5582 64.0683 30.7138 29.9478 21.61 19.0708 18.4011 45.9258 59.1061 17.3531 16.9816 15.8106 15.1434 14.2308 24.0711 15.3047 14.8866 30.0877 18.5405 13.9424 22.3999 31.038 15.3668 14.1973 23.0077 15.0499 13.3578 25.4527 12.078 13.1654 11.7981 21.3365 11.4478 11.1458 10.6561 11.5518 9.57357 27.419 9.49134 23.68 12.892 10.5855 20.5162 31.9041 14.0018 9.34799 12.043 10.2089 11.558 10.0039 16.1788 9.97046 9.08564 8.94932 14.6765 11.3447 9.24459
threshold=54.500000000000007 90.500000000000014 1.0000000180025095e-35 46.500000000000007 68.500000000000014 139.50000000000003 1.0000000180025095e-35 82.500000000000014 57.500000000000007 61.500000000000007 493.50000000000006 58.500000000000007 84.500000000000014 26.500000000000004 112.50000000000001 331.50000000000006 1.0000000180025095e-35 58.500000000000007 25.500000000000004 24.500000000000004 30.500000000000004 51.500000000000007 1.0000000180025095e-35 47.500000000000007 180.50000000000003 384.50000000000006 83.500000000000014 323.50000000000006 78.500000000000014 59.500000000000007 1.0000000180025095e-35 408.50000000000006 67.500000000000014 75.500000000000014 366.50000000000006 149.00000000000003 147.50000000000003 43.500000000000007 1.0000000180025095e-35 56.500000000000007 49.500000000000007 171.50000000000003 71.500000000000014 1.0000000180025095e-35 67.500000000000014 291.50000000000006 67.500000000000014 63.500000000000007 1.0000000180025095e-35 58.500000000000007 392.50000000000006 73.500000000000014 392.50000000000006 61.500000000000007 51.500000000000007 1.0000000180025095e-35 283.50000000000006 1.0000000180025095e-35 72.500000000000014
decision_type=2 2 2 2 2 2 2 2 2 2 2 2 2 2 2 2 2 2 2 2 2 2 2 2 2 2 2 2 2 2 2 2 2 2 2 2 2 2 2 2 2 2 2 2 2 2 2 2 2 2 2 2 2 2 2 2 2 2 2
left_child=2 3 4 55 38 8 7 21 13 10 11 30 32 -3 -13 16 -7 -17 19 35 -20 22 25 -24 -23 27 47 28 29 -5 31 -10 -9 -34 -25 -18 37 -22 39 54 42 -42 -31 44 45 -43 -45 48 53 -50 -51 -49 -53 -27 -1 58 -57 -58 -2
right_child=1 5 -4 6 -6 15 -8 12 9 -11 -12 14 -14 -15 -16 17 18 -19 20 -21 36 24 23 34 -26 26 -28 -29 -30 40 -32 -33 33 -35 -36 -37 -38 -39 -40 -41 41 43 -44 46 -46 -47 -48 51 49 50 -52 52 -54 -55 -56 56 57 -59 -60
leaf_value=0.00043526223614621809 0.00014326940891778539 0.0044893728613522718 -0.0023844881103439667 0.00086613789667636153 -0.0014367024676238862 -0.0025625831404344351 -0.00021233196082442202 0.0099642523418414959 0.011245969546328276 0.0028631275363552628 0.046651894688587714 0.00072219235265846339 0.0016152045152758587 0.0021564051485209608 0.020453506560967148 0.03408321452777445 0.004833206230867697 0.011123018048201903 -0.0044932896563969864 0.047593337618723003 0.035345944772763524 -0.003230037748333121 0.042464310028402091 -0.0012007599695437565 0.0021267350536614553 0.012539009578848733 0.035241511767709024 0.0012844097925574971 0.0011676330812497816 0.0093346880308389051 0.0053327116487558359 0.039990935124757071 0.049647622296797173 0.012550374137321853 0.019807920672629736 0.023336381363135757 0.0025122298542411127 0.0097144340914465666 -0.0004707030222428832 -0.00060940222755222922 0.00059231542381981512 0.045881687679248877 0.0014009229730589494 0.0012777534107873262 0.0067430796254461349 0.0034402187481827589 0.020235566464666316 -0.0030544395512400618 -0.0014366251861901165 0.023395559018136784 0.00055219796768439424 0.031381716670297453 -0.0044932895036651765 0.034022302125833417 0.0022755901573436859 -0.0012193597326441181 0.026887096124261385 0.0044901885695506809 0.00082699663168095752
leaf_count=8032 8520 811 5923 133 5259 30 680 14 5 162 9 30 20 1941 10 7 14 13 16 5 6 113 6 12 3227 14 6 552 165 126 6 8 5 7 9 10 8 6 19000 7988 24 12 62 14 9 5 18 28 20 10 8 5 5 6 585 1057 5 41 7722
internal_value=0 0.113724 -0.0648041 0.0807994 -0.0400333 0.346158 0.217329 0.251857 0.317644 0.695345 1.64037 1.09592 1.15726 0.285293 0.572567 1.0151 0.785275 1.97976 1.23111 1.93942 0.652127 0.242666 0.370756 1.62089 0.19469 0.341773 0.84713 0.295277 0.458309 0.598063 2.18606 2.92677 1.89778 2.88882 0.776984 1.2859 1.49488 2.25209 -0.0249483 0.000286094 0.848661 1.2522 0.672192 1.74169 2.41309 3.32591 1.19337 0.678305 1.0355 0.561391 1.33164 0.13181 1.34052 1.91263 0.056186 0.0384629 -0.0870077 0.701819 0.0468933
internal_count=72544 25757 46787 22660 40864 3097 5315 4635 2982 230 68 59 46 2752 40 115 95 20 65 29 36 4589 1249 27 3340 1222 102 1120 568 403 19 13 26 12 21 24 20 12 35605 16605 270 82 188 58 26 17 32 96 58 38 18 38 10 20 8617 17345 1103 46 16242
shrinkage=0.01


Tree=17
num_leaves=60
num_cat=0
split_feature=5 7 5 15 14 5 6 15 1 12 14 5 6 15 12 7 5 5 5 5 6 6 1 5 6 1 6 5 10 10 5 1 6 6 7 1 5 5 6 6 5 5 6 1 12 5 5 1 5 5 6 6 5 5 10 6 10 5 6
split_gain=259.02 101.734 87.8373 30.8331 28.8692 28.6156 18.3621 13.711 13.5052 13.1374 12.8628 10.5511 10.2086 9.79472 10.4308 11.0899 14.3471 12.6955 8.8924 12.4261 8.80412 15.2175 8.02628 7.96751 8.51113 7.85886 13.5013 7.78215 7.74544 7.5884 10.0917 17.9186 10.3633 7.47816 10.0344 9.87695 9.42071 13.6873 9.47641 8.88072 8.84214 9.81668 6.85632 6.76845 6.49927 6.4575 6.37771 6.34217 6.31822 10.2125 10.7867 7.15655 5.97446 22.8498 5.63648 7.18445 5.58838 5.5679 5.48324
threshold=54.500000000000007 1.0000000180025095e-35 90.500000000000014 1.0000000180025095e-35 1.0000000180025095e-35 143.00000000000003 10.500000000000002 1.0000000180025095e-35 1.0000000180025095e-35 1.0000000180025095e-35 1.0000000180025095e-35 147.50000000000003 9.5000000000000018 1.0000000180025095e-35 1.0000000180025095e-35 1.0000000180025095e-35 62.500000000000007 65.500000000000014 149.00000000000003 156.50000000000003 4.5000000000000009 5.5000000000000009 1.0000000180025095e-35 100.50000000000001 3.5000000000000004 1.0000000180025095e-35 8.5000000000000018 60.500000000000007 1.0000000180025095e-35 1.0000000180025095e-35 61.500000000000007 1.0000000180025095e-35 8.5000000000000018 9.5000000000000018 1.0000000180025095e-35 1.0000000180025095e-35 69.500000000000014 80.500000000000014 5.5000000000000009 6.5000000000000009 65.500000000000014 55.500000000000007 5.5000000000000009 1.0000000180025095e-35 1.0000000180025095e-35 63.500000000000007 100.50000000000001 1.0000000180025095e-35 57.500000000000007 58.500000000000007 11.500000000000002 12.500000000000002 72.500000000000014 75.500000000000014 1.0000000180025095e-35 10.500000000000002 1.0000000180025095e-35 51.500000000000007 9.5000000000000018
decision_type=2 2 2 2 2 2 2 2 2 2 2 2 2 2 2 2 2 2 2 2 2 2 2 2 2 2 2 2 2 2 2 2 2 2 2 2 2 2 2 2 2 2 2 2 2 2 2 2 2 2 2 2 2 2 2 2 2 2 2
left_child=1 3 4 9 13 10 7 -7 18 54 23 -10 20 14 15 16 27 -17 -9 -20 -12 -22 -8 -4 -25 46 -27 42 -5 30 -29 32 -32 34 35 36 38 56 40 -39 41 -15 -2 -19 -26 48 -23 -14 -35 -50 -51 -52 -47 -54 58 -56 -38 -3 -1
right_child=2 57 5 28 -6 6 22 8 11 -11 12 -13 47 33 -16 17 -18 43 19 -21 21 25 -24 24 44 26 -28 29 -30 -31 31 -33 -34 45 -36 -37 37 39 -40 -41 -42 -43 -44 -45 -46 52 -48 -49 49 50 51 -53 53 -55 55 -57 -58 -59 -60
leaf_value=0.00053377805374178267 -0.0027420133940479845 -0.001517794235027293 0.0023013473803578299 -0.00037261863448205144 0.0028993466207335446 -0.00088426395763554892 0.014581696832589046 0.02712757773963162 0.01466578604230514 -0.00078338686165557822 -0.0044932896176214793 -0.0044932896526813136 0.0055392435364647217 0.011369871665605531 9.9006262424248612e-05 0.00017486551414570142 0.0017903011593681962 0.0040664619498637783 0.0036991247848707203 0.028459415681825161 0.0277215881018891 0.00078063927723740823 0.036346236026227635 -0.004493289610432669 0.0043247331252268539 0.009070224388659183 0.033862854858449074 0.026249668525227622 0.0024795284580328243 -0.00449328959993408 0.022223076535026733 -0.0044932896017985573 0.0058413050337747666 0.00071691902162181187 -0.00069986515917064068 4.3042384055585835e-05 0.0021748491659312062 0.0018875010843007912 -7.7325755748783022e-05 -0.00085043395587257504 0.0054824395032921211 0.00058479702203127087 0.0054252160636576374 0.0012505846188945674 0.00058873244092211611 4.5665855021814212e-05 0.011776663994459492 -0.0044932896421695494 0.0063902475688815477 0.0017096420611162888 0.024532023207771453 0.0041735094844059578 0.009562163104849258 0.00091870544966122483 0.0027767938836558447 -0.0010965140017437966 0.013374556433069227 -0.00013327887163348907 0.0016413123191349041
leaf_count=2729 23 18425 1726 21780 1263 22 5 11 9 885 7 12 51 18 907 968 476 357 11 5 10 22 5 24 1017 14 6 8 195 6 17 13 13 643 1595 4800 1848 387 2249 645 119 395 204 336 101 1725 19 16 122 717 7 7 63 2720 669 113 9 628 1367
internal_value=0 -0.0651671 0.113699 -0.00987483 0.0823345 0.334787 1.11807 0.850064 1.22974 0.0829186 0.311573 0.411468 0.713512 0.0697991 0.140753 0.189346 0.330187 0.123522 1.83218 1.19219 1.05547 1.1998 2.63058 0.290635 0.381285 0.938154 1.64565 0.579305 -0.0346703 1.03607 1.20853 0.940079 1.5181 0.0566041 0.036044 0.0521218 0.0925342 0.14964 0.0329804 0.0177036 0.204636 0.105644 0.460889 0.270389 0.398906 0.0978361 0.587879 0.319029 0.179221 0.259509 0.195286 1.43289 0.0708032 0.111742 0.111749 0.221956 0.223003 -0.147175 0.0904139
internal_count=72544 46791 25753 27738 22660 3093 80 70 48 5763 3013 21 145 21397 3328 2421 760 1661 27 16 78 71 10 2868 1142 61 20 284 21975 57 51 43 30 18069 12065 10470 5670 2889 2781 1032 532 413 227 693 1118 6004 41 67 1496 853 731 14 4508 2783 4878 782 1857 19053 4096
shrinkage=0.01


Tree=18
num_leaves=60
num_cat=0
split_feature=5 9 5 0 9 7 8 5 0 8 13 0 5 5 0 5 9 0 0 12 5 0 0 0 5 12 1 0 0 0 0 1 0 0 11 12 0 0 0 0 5 1 0 0 5 9 0 0 0 0 0 0 11 0 0 5 0 0 5
split_gain=256.056 97.0334 94.1308 67.2867 42.782 42.7774 28.7556 19.5611 18.9252 41.6027 16.0084 14.6859 13.3215 30.4833 19.7736 11.6001 11.1789 11.1256 10.4412 9.99271 9.70981 8.97952 8.96982 8.57651 8.50541 10.3696 9.8336 8.19939 16.4058 11.3547 17.4769 7.44967 17.829 13.1377 10.6613 8.76812 12.349 16.6403 20.1308 12.6776 9.56444 7.25154 7.18451 7.06953 6.85592 6.79643 8.92922 25.7586 12.0046 15.5303 6.41883 6.48458 6.41454 6.36776 7.42254 34.671 6.32381 8.94948 8.79049
threshold=54.500000000000007 1.0000000180025095e-35 90.500000000000014 275.50000000000006 1.0000000180025095e-35 1.0000000180025095e-35 1.0000000180025095e-35 125.50000000000001 504.50000000000006 1.0000000180025095e-35 1.0000000180025095e-35 106.50000000000001 72.500000000000014 75.500000000000014 251.50000000000003 51.500000000000007 1.0000000180025095e-35 673.50000000000011 82.500000000000014 1.0000000180025095e-35 112.50000000000001 117.50000000000001 49.500000000000007 528.50000000000011 53.500000000000007 1.0000000180025095e-35 1.0000000180025095e-35 197.50000000000003 267.50000000000006 400.50000000000006 436.50000000000006 1.0000000180025095e-35 67.500000000000014 49.500000000000007 1.0000000180025095e-35 1.0000000180025095e-35 94.500000000000014 215.50000000000003 275.50000000000006 331.50000000000006 147.50000000000003 1.0000000180025095e-35 82.500000000000014 504.50000000000006 83.500000000000014 1.0000000180025095e-35 233.50000000000003 242.50000000000003 291.50000000000006 283.50000000000006 251.50000000000003 233.50000000000003 1.0000000180025095e-35 587.50000000000011 555.50000000000011 76.500000000000014 283.50000000000006 291.50000000000006 76.500000000000014
decision_type=2 2 2 2 2 2 2 2 2 2 2 2 2 2 2 2 2 2 2 2 2 2 2 2 2 2 2 2 2 2 2 2 2 2 2 2 2 2 2 2 2 2 2 2 2 2 2 2 2 2 2 2 2 2 2 2 2 2 2
left_child=1 5 3 12 52 6 10 8 11 17 -1 -4 18 14 21 19 -15 20 -2 -3 -10 -14 44 -11 25 26 27 -17 50 -30 -31 33 -33 -9 -34 36 40 -38 -39 -40 42 -16 -35 -32 -18 -13 -47 -48 49 -49 51 -29 -5 54 56 -56 -6 58 -58
right_child=2 15 7 4 53 -7 -8 31 9 23 -12 45 13 16 41 24 22 -19 -20 -21 -22 -23 -24 -25 -26 -27 -28 28 29 30 43 32 34 35 -36 -37 37 38 39 -41 -42 -43 -44 -45 -46 46 47 48 -50 -51 -52 -53 -54 -55 55 -57 57 -59 -60
leaf_value=0.0017329235706074703 0.0028951368953113016 0.0010830301440095398 0.004036766217934932 0.0016169370544736796 -0.0006972355352144351 -0.0014021331358172622 -0.00057709566859980835 -0.004493289642585923 0.0096361881645052102 0.044520688260363796 0.021127546513914228 0.0016074509429477269 -0.0044932896981936688 0.00050821098968328361 0.02810944362339305 -0.0044932896827124024 0.026735731292878682 -0.0044932896998844439 -0.0001074425358673513 -0.00078404121488311572 -0.0044932896944191811 0.0065927478104020037 0.0022917058436991975 0.020633659950157961 0.001320141140593038 0.018829288960298292 -0.0011771083986409686 0.020231863193193662 0.00098272735104847552 0.025894665887127341 0.010154414602600028 0.014216736109208553 -0.0027556357122413551 0.0079659096936900552 0.014578749324520506 -0.0044932896966540853 0.0031462766790474068 0.041266280411027902 -0.0044932897062577902 0.017887716663666783 0.032032101384964651 0.0097334692233991011 0.027554313938163811 -0.0044932896265607088 0.0063365522688494944 0.0017967617137753195 0.038056143620723092 0.0069075574217605396 0.0025480879146659511 0.029912100382210465 0.030606519259771314 0.0021068144873745763 -0.0023384470722879937 -0.0022138831661544095 0.0014829581266512714 0.04406202827891547 0.0069411068569692628 0.004628062713914232 0.021408919740590244
leaf_count=979 243 5130 1244 4539 42 19000 20552 10 73 5 8 1343 17 7459 11 12 5 18 8608 668 11 117 549 5 187 11 42 11 54 11 19 23 43 10 7 6 35 5 7 16 8 7 5 10 9 135 5 20 69 8 6 6 84 26 13 5 26 955 12
internal_value=0 -0.0637394 0.113932 0.0814501 0.214779 -0.0897664 -0.0459592 0.341717 0.313551 0.86745 0.190253 0.290647 0.0361258 0.0776874 0.708651 0.102836 0.0656089 0.584793 -0.00244647 0.0870308 0.787077 0.51897 0.258221 3.35218 0.345502 0.560919 0.475712 0.667323 0.779643 0.51761 1.0868 0.779121 0.449738 1.01458 -0.00838215 1.17479 1.28172 0.9618 1.7177 1.18507 2.09658 2.09618 1.44941 0.510475 1.36161 0.199944 0.418108 0.727492 0.568654 1.33214 1.83369 1.39134 0.15444 0.465775 0.482701 1.36487 0.466954 0.4894 1.15727
internal_count=72544 46706 25838 22727 5702 40539 21539 3111 2936 112 987 2824 17025 8174 152 6167 8022 102 8851 5798 84 134 563 10 369 182 171 129 117 94 40 175 73 102 50 92 86 63 28 23 23 18 15 29 14 1580 237 102 97 28 23 17 4623 1079 1053 18 1035 993 38
shrinkage=0.01


Tree=19
num_leaves=60
num_cat=0
split_feature=5 5 9 9 10 5 3 3 3 3 14 3 6 5 5 3 1 3 5 3 3 5 3 3 3 5 3 6 6 3 3 3 10 5 3 5 3 3 5 6 9 3 6 1 5 6 3 5 3 1 6 6 3 6 5 3 6 6 6
split_gain=236.824 98.8633 98.7781 57.5726 48.4579 35.9507 30.6546 30.5781 26.9568 35.3427 35.9886 20.3803 16.6724 16.1798 14.9213 14.4705 34.2812 32.5046 16.4193 12.9896 12.5931 12.3489 24.7411 12.3036 12.4562 23.9443 17.2794 32.762 12.1721 11.8369 11.7758 11.4789 20.2492 30.9694 52.8891 11.3809 11.1829 11.1771 10.7413 10.3561 13.1532 24.9733 10.2074 25.7935 30.2138 10.1453 10.126 9.58456 14.7386 11.0489 14.9166 14.1594 13.2813 18.751 9.19089 28.8258 13.9798 9.14172 8.87197
threshold=54.500000000000007 90.500000000000014 1.0000000180025095e-35 1.0000000180025095e-35 1.0000000180025095e-35 134.00000000000003 46.500000000000007 68.500000000000014 57.500000000000007 61.500000000000007 1.0000000180025095e-35 44.500000000000007 10.500000000000002 76.500000000000014 51.500000000000007 73.500000000000014 1.0000000180025095e-35 82.500000000000014 106.50000000000001 26.500000000000004 82.500000000000014 78.500000000000014 35.500000000000007 58.500000000000007 38.500000000000007 147.50000000000003 25.500000000000004 5.5000000000000009 10.500000000000002 84.500000000000014 22.500000000000004 57.500000000000007 1.0000000180025095e-35 63.500000000000007 59.500000000000007 139.50000000000003 56.500000000000007 58.500000000000007 55.500000000000007 5.5000000000000009 1.0000000180025095e-35 25.500000000000004 8.5000000000000018 1.0000000180025095e-35 64.500000000000014 5.5000000000000009 58.500000000000007 53.500000000000007 29.500000000000004 1.0000000180025095e-35 7.5000000000000009 8.5000000000000018 44.500000000000007 10.500000000000002 85.500000000000014 60.500000000000007 9.5000000000000018 9.5000000000000018 8.5000000000000018
decision_type=2 2 2 2 2 2 2 2 2 2 2 2 2 2 2 2 2 2 2 2 2 2 2 2 2 2 2 2 2 2 2 2 2 2 2 2 2 2 2 2 2 2 2 2 2 2 2 2 2 2 2 2 2 2 2 2 2 2 2
left_child=2 3 4 6 7 8 -2 -1 19 10 28 13 23 -5 -4 -11 45 18 -18 39 31 22 -15 24 26 -26 27 -7 37 42 -23 36 46 -34 -35 -28 38 -10 -8 -3 -41 58 43 44 -22 -17 -33 49 -49 50 -16 -52 53 -53 -48 56 -56 -54 -42
right_child=1 5 14 11 -6 12 20 -9 9 15 -12 -13 -14 21 47 16 17 -19 -20 -21 29 30 -24 -25 25 -27 35 -29 -30 -31 -32 32 33 34 -36 -37 -38 -39 -40 40 41 -43 -44 -45 -46 -47 54 48 -50 -51 51 52 57 -55 55 -57 -58 -59 -60
leaf_value=-0.00072896149447404979 0.00024485019661677729 0.00026189571320345425 0.00092967571519542798 0.000849576637929407 0.0022640976130260952 0.041349436120951912 0.0055604543523751597 -0.0017776716003803249 0.020502640161033932 0.00057204666993000111 0.047168091418322837 0.0043035663022622612 0.020289809501597089 -0.0044932897960068144 0.0027074467683361699 0.014277093533544756 0.016513624584288282 -0.0044932895756965739 0.042862490464327808 0.0021256234280533841 0.012954261653162977 0.018572250210621404 0.037837419854476494 -0.0044932896883706263 0.035203865351026285 0.0055831938094017333 0.018901099600221415 0.0072990425065107382 0.023212922649990954 0.0018127141389970339 0.0033286644366109885 -0.0031780519590580859 0.00093579726356570836 0.063143600669627625 0.0020880808438615219 -0.00074811658376747864 0.0057646786894537385 0.0057149821820913016 0.0016216968289819763 0.0044463681989878392 0.013360145250301984 0.033934677092308754 0.0055104482484082916 -0.0044932896255143314 0.055636298357683453 -0.004493289600328328 0.00057356085876501383 0.020300954649624316 0.00075864386948188399 0.00057273211103039273 0.031029708304273582 0.0094248156092610353 0.020886508401746412 0.036032751444587244 0.0090014060882336582 0.00087740533739755612 0.031744828014433471 0.0034710233943195811 -0.0044932896695084254
leaf_count=32455 15739 111 5767 1116 986 6 152 7193 13 95 5 1033 21 5 55 7 8 7 9 1947 8 10 6 13 8 11 6 21 15 42 392 139 18 5 6 40 164 39 1949 667 13 8 20 6 5 25 1758 8 180 51 7 14 7 8 12 75 10 39 9
internal_value=0 0.113456 -0.0574586 0.08009 -0.0836378 0.346647 0.0540728 -0.0917003 0.313914 0.773421 1.55248 0.279162 1.03719 0.174251 0.111003 0.388206 0.942975 2.14984 3.10586 0.275281 0.159458 0.413135 1.88058 0.803648 0.97219 1.9159 0.715164 1.54034 1.2606 0.712021 0.37236 0.148883 0.0707956 1.22742 3.05935 0.196341 0.218399 0.938918 0.190482 0.423137 0.48567 1.37503 1.2631 1.9851 3.05983 -0.0216257 0.0532166 0.385642 0.16014 0.614603 0.829828 1.23134 1.03573 1.92331 0.0810373 0.506326 1.937 0.608391 0.596683
internal_count=72544 25774 46770 22670 40634 3104 20108 39648 2978 223 72 2562 126 1529 6136 151 56 24 17 2755 4369 413 11 105 92 19 73 27 67 81 402 4288 2023 29 11 46 2265 52 2101 808 697 30 39 19 13 32 1994 369 188 181 130 75 68 22 1855 97 22 46 22
shrinkage=0.01


Tree=20
num_leaves=60
num_cat=0
split_feature=4 9 0 10 8 6 6 0 15 0 6 0 6 6 1 0 6 0 0 0 6 0 6 1 6 6 6 0 15 0 6 0 6 6 1 14 0 6 14 0 0 0 0 15 6 14 0 6 0 0 6 0 0 0 0 0 1 0 0
split_gain=160.192 118.004 73.0934 50.5071 22.5676 17.031 16.4695 11.0561 9.33991 8.15461 7.38412 9.12428 8.96955 7.34416 7.22664 7.20904 6.60459 11.5079 5.93143 5.7146 7.56421 5.96387 5.70643 5.5558 7.33673 5.78736 6.19985 5.45414 11.9561 24.9379 17.8376 8.74285 8.40302 11.4027 16.4549 11.7772 24.0581 10.8003 9.93139 27.0162 7.77875 7.496 6.31593 6.21508 11.3313 8.08759 10.6307 15.4313 13.9779 8.06175 8.41742 7.13291 6.45587 7.31335 6.82686 5.62642 8.11662 4.95655 4.9164
